{
    "model_type": "MLP",
    "layer_sizes": [
        10,
        5,
        3
    ],
    "weights": [
        [
            -0.8158752515337061,
            0.19643258561764002,
            -1.2051597451656846,
            -1.3537703515918043
        ],
        [
            -0.5399070255509585,
            -0.9367221256067341,
            0.6377046093391089,
            0.971726047992648
        ],
        [
            0.9239042009980607,
            0.14386319670124537,
            0.9774618167819016,
            0.7424721431318122
        ],
        [
            0.9192535365472823,
            -0.025100646388510603,
            0.500650717718698,
            1.2550932693549686
        ],
        [
            0.03875578806346069,
            -0.07799614869015536,
            0.5697625305045553,
            1.2818549194878195
        ],
        [
            -0.9668535679952913,
            0.29877447467575013,
            1.151960230884175,
            0.3483623670972873
        ],
        [
            1.0754412246588936,
            -0.6919052317788742,
            -0.13845708290101966,
            0.7087524823467721
        ],
        [
            -1.3142371687030707,
            0.7221709867961518,
            -1.3087711865429543,
            1.0095099548453463
        ],
        [
            0.3787724535465203,
            -1.0433419467276837,
            0.9400089575578935,
            0.46155748907916944
        ],
        [
            0.22672182277263908,
            0.013879649216237711,
            1.256503151352134,
            -0.03639739050121553
        ],
        [
            0.45059920043485735,
            0.4859462787136617,
            0.896950140604452,
            0.5179186666221729,
            0.014943162978460541,
            -0.8698449242188672,
            0.8635373867076642,
            0.500801471016027,
            -1.3617315702864927,
            -1.288241991169268
        ],
        [
            0.021668985716127985,
            -0.9297671431035874,
            -1.3188541486027996,
            1.0873514229875694,
            0.747560431405078,
            0.05995157674186559,
            0.7615855198656429,
            -0.01827305267383118,
            0.42498820861158465,
            1.165273958463157
        ],
        [
            0.8190214523577716,
            0.5753270233297065,
            0.48655893551023677,
            -1.341120220670254,
            1.1621299389607198,
            -0.9411088495720551,
            1.3574002368231055,
            -0.2821767244200975,
            0.15165783588463416,
            -0.6212731964328706
        ],
        [
            -0.9570928487131378,
            -1.0944581507868723,
            0.9567876082699007,
            1.0586086605918914,
            -0.1339477417899131,
            1.3123362784569637,
            -0.6471521531662481,
            1.3831589257614167,
            -0.8723430107540882,
            -0.14405055458816496
        ],
        [
            -0.9600564226226408,
            -0.43755131636009525,
            -1.3690661781374187,
            0.37327702325610723,
            1.093883043537822,
            -0.7001972559640712,
            0.7147623098312167,
            0.7757220085549699,
            0.18134642645567625,
            1.1594627545534117
        ],
        [
            0.9562527494096078,
            -0.963391978035445,
            -0.9120939482357332,
            -0.7042716742637228,
            -0.6125433469427358
        ],
        [
            0.41234850126065214,
            -0.2865378568896923,
            0.44844872598993163,
            -0.9272685510813498,
            -0.36064620534978004
        ],
        [
            -0.6060360890752554,
            -0.1398693535519551,
            -0.07294138406580337,
            -0.6531118677798396,
            -0.6605366876951974
        ]
    ],
    "biases": [
        [
            0.01,
            -0.014770587374624009,
            0.04223634759680339,
            -0.03176176101995881,
            0.017895342238827588,
            -0.032494803444745785,
            0.07478878413648465,
            0.01,
            -0.01970625158902864,
            -0.09688262323095304
        ],
        [
            0.07755714925722611,
            -0.024233260396856336,
            0.010165259113610287,
            -0.023225799386190783,
            0.030613980283416616
        ],
        [
            0.026073500284163706,
            0.04169995142998677,
            -0.06777345171415047
        ]
    ]
}