{
    "model_type": "MLP",
    "layer_sizes": [
        80,
        64,
        10
    ],
    "weights": [
        [
            -0.38006137601049256,
            0.932331165192458,
            0.009772937239460924,
            0.3802547956510403,
            0.6360608988183356,
            -0.6645344366896737,
            -0.6728387670473812,
            -1.2957163143232062,
            1.2989260968886216,
            0.9585776460959098,
            0.8067803379486398,
            0.8646549813662215,
            -0.8004979310742381,
            -0.8620482261274741,
            1.333016769447364,
            0.5710292743506193,
            0.07647374846069867,
            -0.4631618778677499,
            0.8134055191681174,
            -0.7484919691193226,
            0.1855796083302091,
            0.7185224415596867,
            0.5380456334068647,
            -0.7318896553065828,
            -0.46566300264293714,
            -0.444106845048221,
            1.0311166570492762,
            0.5949332222574072,
            0.06479887080387885,
            0.08687057235096865,
            0.41521404119199995,
            0.6305511243758651,
            -0.7998239169017445,
            -0.012014250097096283,
            -0.20884677825849238,
            -0.7284759024939611,
            -0.7797390980666569,
            -0.14387367692790626,
            -0.5298962677658831,
            -0.07128592096419528,
            0.7232462252427123,
            0.4338887001951385,
            1.3920257475536313,
            0.46838858788304744,
            1.2830208720955658,
            -1.1402615726425571,
            -0.9344523375687892,
            -0.05923326947739808,
            -0.8252709634407679,
            -1.2363270973385339,
            1.2723292561992152,
            -0.14504343850298318,
            -0.9808011445241737,
            1.248642220862462,
            -1.2638188911762775,
            0.3912879140677011,
            -0.380300465522921,
            -0.609549981699375,
            1.1249099454683114,
            0.10665884906022313,
            0.903765837100749,
            0.013654794800465027,
            1.0576228342994982,
            -0.7557343973614532,
            1.1072962989760098,
            -1.2551222769108246,
            0.4854335499820135,
            1.1882770684093809,
            1.2988068937683817,
            -0.12253175766685447,
            1.3478346537801202,
            -0.8061803713671927,
            1.1315873506191163,
            1.159098652672513,
            0.8292162093836031,
            0.7650833778892263,
            -0.5878979778346273,
            0.9119405300369215,
            1.1433011995659441,
            0.697511015296648,
            0.4089667390650667,
            1.3577848249907394,
            0.09382195433083983,
            -1.2624318641614523,
            -1.0785119237108556,
            -1.0632698625169676,
            0.48988556465377187,
            1.3794625805851344,
            1.2262469293523859,
            1.2790691204122555,
            0.30232586561809693,
            0.18449311900006463,
            0.6668551313026604,
            0.5355657155609992,
            0.5214395227601872,
            1.0579023520880972,
            -0.9866199718513906,
            1.052590491492582,
            0.1364707670641354,
            -0.26027694646539656,
            0.10409325983193089,
            1.1875751917208017,
            -1.370364340613886,
            -0.17151375998058835,
            0.20753120372524053,
            -0.8598439286005416,
            -0.0734298919557308,
            -1.056573064527325,
            1.0964862445425398,
            0.17056785318251633,
            0.701662079533685,
            0.09928350232217138,
            0.5132588964554877,
            0.09566917630647946,
            0.03764278948976291,
            -0.6974375629168874,
            0.15834592122497984,
            1.3572367209185643,
            -0.2700689410043055,
            -1.154282989183052,
            -0.5527777340020824,
            -0.5935059271629105,
            1.311209377357811,
            -0.5978399699696834,
            0.5693133477952291,
            -0.5607402772639011,
            -0.16947452712901226,
            -1.1388401592928785,
            1.007127326403367,
            1.2170515112607796,
            0.01397712432848936,
            -0.06679802129038993,
            0.719007036541257,
            1.183666494301438,
            -1.1920223918335948,
            0.05189186428514325,
            0.5663566330905141,
            1.1056110688639953,
            -1.101807707263161,
            0.6997675901061108,
            -0.4847034043286139,
            -0.5072434280133135,
            0.36214141179025094,
            -1.0408878134931538,
            0.4676002743185273,
            1.1408716412822875,
            -0.6693252004528968,
            0.31616239431192034,
            0.34849804749219065,
            -0.9757341745135666,
            0.3890851591715373,
            0.004909566084893346,
            0.4018330787117926,
            -0.5362442760513,
            -0.8727360824721746,
            -0.25475774260586165,
            -0.37079951820556767,
            -0.6079748473486025,
            1.24758536888492,
            0.31083160726460146,
            1.0179185819132155,
            -1.3984308490439266,
            0.2833153676118471,
            0.852614820364314,
            -0.6890301915078687,
            0.7008473676363042,
            0.13628960086759598,
            -1.0764174759479932,
            1.1589140435446894,
            -0.298865823098497,
            1.1787547980961517,
            -0.7913911871374147,
            1.1273328283711785,
            0.8031032434444333,
            0.6418097703119259,
            -0.00024163425622000085,
            0.796278942224029,
            -1.4039353024356402,
            1.0302008588324876,
            -0.721091747192911,
            -0.7786958430383094,
            -0.6564471894905626,
            -0.4961151316637146,
            0.6534615117803101,
            -0.8218214444297396,
            -0.5145501560397353,
            -0.9350310459975716,
            -1.3646288653954257,
            -1.2361285811579115,
            -1.0606495466052486,
            -0.5106312521158055,
            -0.4227458790299908,
            0.009664727006512061,
            -1.2943997199944681,
            -0.9491997389921294,
            0.19217392327570307,
            0.12933680188149183,
            -0.2923353811218029,
            -0.26642134860979866,
            -0.8323763375168464,
            -1.4058514237088053,
            -1.3272938102548302,
            0.04832326332724948,
            -0.25658979765081785,
            -0.31708586643349296,
            1.3623702567565725,
            1.144890619832842,
            -0.6743851474805543,
            -1.033950829152548,
            1.1680606451246085,
            -0.9884056143567067,
            1.3931206751004666,
            0.029771791266955335,
            -1.2007282852228511,
            0.2662156463284998,
            0.359341988746441,
            0.9320036423189316,
            -0.020737703022547488,
            -0.7303042036497516,
            -0.2941229996778815,
            -0.010498525333440143,
            1.3695372631858593,
            -1.0280544511976635,
            0.3057053130931742,
            -1.1300774664642792,
            1.220318527225247,
            -0.5261268512580821,
            0.4207359046443469,
            0.04817801902663343,
            -1.3005937404974617,
            1.3547675216539712,
            0.2579044921329239,
            0.16045037251074581,
            0.6066718770933061,
            -1.1240368964752545,
            -0.2786718336742359,
            -0.2598116560215723,
            -0.6327826387358624,
            1.3738292600580755,
            0.8671041062403478,
            0.35790742467032466,
            1.0192682969051725,
            0.5270502734252734,
            -1.3281299706127492,
            0.4289455308899719,
            -0.7656092724412689,
            -0.654677478793242,
            -0.21925772478190805,
            1.407139118646821,
            -1.3349715632934762,
            0.6210297526511441,
            1.182693828771299,
            0.8103688829857414,
            0.7669576240970304,
            -0.3116882124773352,
            1.3631369334780234,
            0.9124076995295896,
            -0.016325671587300864,
            -0.48477776266838835,
            -0.4876709059514281,
            0.9060201333575622,
            0.9781103972501057,
            -0.875720028572425,
            -1.150177307288776,
            0.68476094444067,
            -0.46491314381492627,
            0.16427998673216096,
            -1.0835289537617818,
            1.3241489684239853,
            0.8032061939644524,
            1.3689149132181782,
            -0.31644556105468813,
            0.06643427341546596,
            0.601736714029578,
            -0.32306638305727003,
            -1.1341533488673394,
            -1.1947821782757004,
            -0.5104667675230823,
            0.871247678300436,
            1.3089995788790416,
            0.9277371738869032,
            -0.610040374905381,
            -1.1250564652349557,
            -0.2269556357304348,
            -0.9439401402478368,
            -0.3323467258289418,
            -1.0576178298108005,
            0.8286994333707564,
            0.77767094218993,
            -0.006446013218026511,
            1.4065352723901896,
            -1.2026200256936785,
            0.7582800932156607,
            0.8581606810693421,
            -0.1260419498770134,
            -0.5343608303753092,
            -0.23516814809866704,
            0.5197721914249452,
            -0.753981375572991,
            -1.208649718423786,
            1.3417208141878831,
            -0.11863402872649276,
            -0.9370119976097517,
            1.32435316650002,
            1.3560310796087982,
            1.3724547552036073,
            -0.5830190384064566,
            -0.2455102121429392,
            0.44106539906077186,
            -0.6994637567352305,
            0.3843004650042999,
            -0.8264049117561817,
            -0.6612183128023948,
            -0.773159901476567,
            -0.7818836954732717,
            0.6461665191386745,
            -0.2443270479935064,
            1.3000855239047648,
            -1.0203012672060283,
            0.8895420411294745,
            -0.9868898021487693,
            0.9382106155026244,
            -0.301830314248402,
            0.8738285334090139,
            -1.1193823076078495,
            -0.7407735249086483,
            0.18126775422644367,
            -0.9494805312359733,
            0.6917684728895768,
            -0.02083320492481938,
            0.7514131884944887,
            0.6021109542722151,
            0.10364141406641558,
            -0.695275035039824,
            -0.2592120150086937,
            0.44210558174036574,
            0.012379870558160077,
            -0.790614738166201,
            -0.6772338438892787,
            0.13679152589973378,
            1.3709494015986992,
            -0.7464790473523011,
            -0.840297399486739,
            -0.5249408651531908,
            0.7916011389440029,
            0.8686254273966105,
            0.21742669884358945,
            -0.5319982826649221,
            -1.0605348780980326,
            -0.20553277684167723,
            0.393605258821231,
            1.157785736506793,
            -0.8885098617364448,
            -0.6668867530987453,
            0.4980374442845149,
            -1.126920599941961,
            0.3359611725322437,
            0.9150416761787616,
            0.9140988444795526,
            0.20319795697952578,
            0.07267013552835948,
            -0.1054010075577728,
            0.8872269042720872,
            -0.8647781177322842,
            -0.19251516307380226,
            1.322832540721212,
            0.5142183842939876,
            -0.4428427649495876,
            0.5270202005029322,
            0.9873042786225316,
            -0.625049212184323,
            0.6723586440940053,
            0.46067470638633473,
            -1.1263540108362866,
            0.7723023638413511,
            1.3550800408947226,
            0.9239912585704348,
            -0.09321299844018698,
            0.8099448160904219,
            0.729275699553263,
            -0.20190945342501962,
            -1.3222889368198187,
            0.58831458579305,
            0.18353553952195317,
            -0.5918167198490131,
            0.3203387169851167,
            -0.05786541780955209,
            0.05335334146612409,
            -0.6341777988111715,
            -0.4261232442293308,
            -0.741080136281201,
            -0.8886613560071805,
            1.0799840985804026,
            0.9155222922639702,
            0.013924941697800479,
            0.9576578919011923,
            1.1683123695346773,
            -0.7876780911360277,
            -1.332622879950164,
            -0.6508964356018073,
            0.09952354138671596,
            -0.2629812913611743,
            0.5626159616343651,
            -0.049356822224013816,
            -0.7500075100670843,
            0.3071484523620359,
            0.9516886917219524,
            1.2483114759053933,
            1.0757460714933116,
            -0.25490325091398625,
            0.19561624709349562,
            0.8998372800260377,
            0.4695420615744851,
            -0.22404829337061316,
            -0.33350158035927324,
            0.7710369384353246,
            0.6298453278499355,
            0.14031578036210163,
            -0.6417457091970558,
            0.2642947055035199,
            -0.9666850659929198,
            -1.2793375484985914,
            0.4053363737986545,
            -0.8319085093703359,
            1.122597113452009,
            -0.8675597622470208,
            0.4182347321014539,
            0.48685012027638713,
            0.3079677939891471,
            -1.2397235073604216,
            0.6306437060854366,
            0.40562969502272544,
            -0.6269102194509296,
            -0.24175242317903003,
            0.5462370367073698,
            0.6175350521116741,
            1.1768552653418745,
            0.7583860042069973,
            0.2238912325889602,
            -0.851552236395377,
            -0.3008106725236339,
            -0.4590645260199648,
            -1.0957940148988599,
            1.331822600015031,
            0.4039045185962153,
            -0.04922485664525133,
            -0.5735064392806964,
            0.1886043014223944,
            -0.10039821006807455,
            0.4768931016373354,
            0.09453031936178498,
            -0.9466550144562867,
            -1.2774584832899367,
            0.3764636323187021,
            0.5467246980896444,
            0.08048589876626415,
            -1.0492960624753553,
            1.3408991448680074,
            1.308772729429412,
            -0.1599805748824031,
            0.4115719937473231,
            0.618960621729967,
            1.1516845602503984,
            0.4808721449536026,
            0.7033591602064191,
            0.49797891755499946,
            -1.021641680378424,
            0.3274303676824373,
            -0.8276585533116622,
            0.13388077269230447,
            1.3227644132379601,
            -0.6663457855981456,
            -1.0200914267556025,
            1.312975817694314,
            0.7596870091228127,
            0.8359652892134578,
            0.036108584924323894,
            -1.3873074871124749,
            0.21674836579771742,
            1.1070117396343278,
            0.9321606054010324,
            0.10221789865032259,
            0.28639694085283723,
            -0.35183457423155023,
            -0.6934652722767058,
            0.9334394962108852,
            0.3579425081107438,
            -0.8896349106006024,
            -0.5278132791699742,
            -0.06418673773157679,
            -0.20280272498955512,
            0.26166269944061504,
            0.6919459764718496,
            0.6332591006332391,
            -0.7229359278494965,
            -0.8698993696283748,
            0.8539895639577644,
            -0.2739616141686235,
            0.006478373039421809,
            1.1315835861220551,
            -0.09576199859631468,
            0.4134333303001568,
            -1.2836402024114015,
            0.2699977435907919,
            0.21859274363942702,
            0.716586599053074,
            1.2377241291034353,
            -1.1526255220482078,
            0.2293805968187668,
            -0.18987078650345593,
            -0.07139972521483048,
            1.0405634512669173,
            0.8135680996106232,
            1.372644431827445,
            1.312340634107644,
            -0.3583703210001917,
            1.2142054823272452,
            -0.14908281386043498,
            -0.587733549790781,
            0.7881542418008163,
            -0.2691684928481914,
            -0.20466157158077514,
            -0.7858802646249773,
            0.5559685057714184,
            -0.07029982329331816,
            1.125707084048718,
            -0.2516239030249677,
            0.05503481064219091,
            1.2596534664553103,
            0.7739793811164771,
            -0.0017282709752509799,
            1.220365298600839,
            -1.251542838304531,
            -1.181314422964263,
            -0.9148590875491878,
            1.163255370474838,
            -1.1757126933763422,
            -1.2011940186193661,
            -0.99046333895091,
            1.3752396361377295,
            1.3308013370184606,
            0.5509217417756341,
            -0.3800374160186219,
            0.09361872642434729,
            -0.41482397398510507,
            -0.6391249793441269,
            -1.3614659471640762,
            -0.1825232455238499,
            -0.5130370377402409,
            1.0910144657605367,
            -0.197777720262499,
            -0.8019848546306958,
            0.14373526201535225,
            -0.3961978080339914,
            -1.00387633403149,
            0.03959227404655799,
            0.9332232151675627,
            0.9217493612632868,
            -1.285212610455719,
            -0.32551385769903607,
            1.2670874055072987,
            0.13902352703385498,
            0.05300638338246202,
            -0.36289383848195406,
            1.3012106339622052,
            -0.9044378136808742,
            0.4744375146611572,
            -0.1325921209030792,
            -1.2282194416151742,
            -0.9560750168861902,
            -0.06212844997883625,
            -0.47829733972522726,
            -1.0419853295433643,
            -1.1696694786207258,
            1.4337455244511894,
            1.3044981108224494,
            0.53260820830489,
            1.343411632220084,
            0.5212925023140679,
            0.7035808751213227,
            -1.1572131522185662,
            -0.3454010523649867,
            0.4150157035906116,
            1.3983340160488729,
            0.2806871502582862,
            -0.8794373162382212,
            -0.8236917034607597,
            -0.14580094494058016,
            -0.8441496760145858,
            0.5601056670629586,
            1.2104572324780183,
            0.9886354224980921,
            1.1764431413393686,
            0.13386402372685938,
            -0.44616096709831327,
            -0.04806096800377398,
            -1.0139071905325856,
            0.7631958002615985,
            -1.2822920734149668,
            -0.08186814462348913,
            -0.013616450714517265,
            -0.21397000144566847,
            0.07253816298337507,
            -1.1642863083650694,
            1.1452167952293202,
            -0.7148320948460799,
            0.4459266773736913,
            1.3577954927367595,
            -0.06109335251768378,
            0.6462547184921174,
            -0.8614344025413975,
            0.27085358732806547,
            -1.3614734261524204,
            -0.2496347908037634,
            -0.6230168707623607,
            0.9061745607774474,
            -0.19672248737623507,
            0.7799644291908908,
            -0.12275785673011594,
            -0.08575962983614382,
            -0.5606738952222657,
            -0.42948977758091716,
            0.623356125424619,
            0.49216482869683414,
            -0.07651522900522112,
            -1.4180733797585026,
            -0.5065470229954847,
            -0.07490103319959343,
            -0.04798194620545911,
            0.9059221214128581,
            0.589961050386386,
            0.9797420583433178,
            -0.49883381684095945,
            -1.0272147308759614,
            -0.9980223493217852,
            -0.13691237610097817,
            -0.817869379346705,
            0.5586442227748762,
            0.5026749139189549,
            -0.9145770114015906,
            0.3509304730782555,
            -0.10412073147934076,
            -0.20762019756118427,
            -0.10276916447954401,
            -0.8810239667742477,
            -0.2651518977542292,
            -0.9716768292475966,
            0.12203308354480506,
            0.676452429061121,
            0.8037436554955354,
            1.2954639628627165,
            0.9626480670105706,
            -1.2450179230453982,
            0.7875011381118749,
            -0.5230536327504086,
            0.6526028041130798,
            -0.9950007191977935,
            -0.4814861408267355,
            0.7763038495461216,
            -0.8640851537069376,
            0.10960344487098707,
            -0.15383484530836636,
            -0.5020436066855957,
            0.07563416077588216,
            -0.30685159142635293,
            -0.2595727344523191,
            -1.3416045258982876,
            0.4689945971479188,
            0.6012155420871631,
            -0.9691065110851201,
            -0.7520673995006235,
            -0.46503529427152174,
            -0.642551241968855,
            -0.2548263809689672,
            1.4025978449634628,
            -0.22780077232907786,
            0.4244588472618081,
            0.48933783256656266,
            1.364710239899878,
            -0.06457821033693323,
            -0.08475270981886622,
            0.0598864159297355,
            0.9626136940292943,
            -0.8712964078848,
            1.3455297384049154,
            -0.020250541012704466,
            -0.27313027740583773,
            -0.3481009403232767,
            1.2811097943657592,
            -0.7023841136551342,
            0.7978407961197683,
            -0.28724680277918146,
            -0.3398191228296038,
            1.2070871832209797,
            -0.5317742321963655,
            -0.6710099755360903,
            0.15494277763516492,
            -0.4512597533365919,
            0.43421060117177773,
            -0.3912851161789634,
            0.3496921234369131,
            0.2193620935251127,
            -0.44084338916623456,
            1.1851842689819838,
            0.5083297572953182,
            -0.23452307871017616,
            0.27921514285895954,
            -0.0003215328138435227,
            -0.07944131653534879,
            0.2972623103311488,
            -0.6360195151048637,
            0.47401269485374536,
            0.9403849040721485,
            -0.22846575341802955,
            0.27768234319567586,
            0.8398213660409064,
            -0.5128490523117581,
            -1.141271055877942,
            0.1746331337081867,
            0.715331744858915,
            1.0404497228413698,
            0.776234113799552,
            -0.5047078657697068,
            0.3039048155913726,
            1.2580919213996047,
            1.172395452957626,
            -0.4384018286995271,
            -1.3940819833642824,
            -1.382417870769907,
            -0.22454995578821738,
            0.053877271723290994,
            -1.1800448909073644,
            -0.01917863003743839,
            0.4179067256549619,
            -1.2340284705521218,
            -0.5271993014493821,
            0.26541414161669663,
            -0.07439748113293702,
            -0.7863217717765871,
            -1.3515415470909757,
            -1.3291443255967408,
            -1.0109529065610443,
            1.274766508084689,
            -0.7794621679892637,
            -0.4331062138931619,
            0.02435326938719003,
            -0.2981744131160229,
            -1.1595533956100201,
            0.7032751315210679,
            -0.10563357893238527,
            1.3677949160062357,
            0.14903122019916618,
            0.29342348951152775,
            1.3248062015149134,
            0.3918808256805303,
            1.382172618519307,
            -1.366055569193982,
            0.9091317440918438,
            -0.18107734917584298,
            1.1237359646371927,
            -0.7365377351847936,
            0.354224566423275,
            -1.1624364587665728,
            -0.05497851036076095,
            1.1287511904101515,
            -1.0851392437576894,
            -0.9928518260715669,
            1.2902210972322328,
            -1.1534799843944041,
            -0.9137816652275174,
            -0.4666356263138353,
            -1.3290846484243581,
            -0.0007641290324554682,
            -0.42062010575271114,
            -0.3224685926549479,
            -0.18840129713635959,
            -1.2295269223242917,
            -1.4034030938426383,
            -0.9400303503830358,
            -0.5090970223584437,
            -0.2233741022979215,
            0.16313203884153663,
            1.2870962427001347,
            0.3496061658453442
        ],
        [
            1.2044576375456892,
            0.14011709924779903,
            0.9184489258015269,
            -0.7476081291004151,
            -1.2699999313643144,
            -0.9804403836636199,
            -0.5967963729986977,
            1.1774563270462175,
            0.5737412442623874,
            -1.0600324360976676,
            0.06837121164434704,
            0.389170768635648,
            0.555588571047751,
            -0.24410308588901167,
            -1.1006172675033277,
            0.20451504283339653,
            -0.633223966105794,
            -1.1149589105763191,
            1.0943783396046645,
            -0.9423265102982623,
            1.2000587712480635,
            0.503391028378055,
            -0.8968175126820237,
            -0.6525634765670465,
            -0.7218824843903249,
            -0.16810850979005296,
            0.10620497481074988,
            -0.22927511370831746,
            -1.1057326449210392,
            -0.10784207414209963,
            -0.8822415594224376,
            0.0025022786351820907,
            0.5084765281990649,
            -0.133292634245132,
            0.5032835678441382,
            -0.2962823567154817,
            -1.0511079707680555,
            0.16752256754768802,
            1.239018836023114,
            0.19688243167008754,
            1.2751101386912593,
            -1.2555542565598476,
            0.8192757470802491,
            0.6164939709181372,
            1.1083864295876897,
            0.7024133090447992,
            0.9700889212187435,
            0.6135285489346618,
            -0.2867403104736457,
            1.0359101295776711,
            1.3233835329463322,
            1.3221691761703631,
            0.6936323957085069,
            0.023886311500061142,
            0.17677060804175887,
            -1.0588632791982944,
            -1.0183632875377135,
            0.7941688591081256,
            -0.5683610024541085,
            -1.2222481216139076,
            0.30915618296039665,
            -0.30251180931392196,
            1.133578446722883,
            0.3197514022882303,
            0.18953847085628855,
            0.055989109867720745,
            1.1104832834792242,
            -0.8088250139324714,
            0.31284346579969335,
            0.7525933818866316,
            -1.243940208682113,
            0.5398336125051391,
            0.3585008829684026,
            -0.789684569640842,
            -1.2593462054847833,
            -1.1892826193551793,
            0.3667169488792526,
            1.2365051420763298,
            1.3099157090599436,
            0.8269409330920027,
            -0.12904510158536953,
            1.4021994378141884,
            -0.7227286593452118,
            1.3878472883543962,
            0.6958188219947947,
            1.106351890357173,
            -1.3312884324313619,
            0.2536981234227827,
            -0.009311393366872079,
            0.2528006133351249,
            -1.2914037685539816,
            -0.8091264216755847,
            -0.21725626846676188,
            -0.8137126466125745,
            -1.398061980340035,
            -0.04874125070319938,
            -0.65376874405788,
            -1.3323850990140758,
            0.09259969631723164,
            -0.36227756073729855,
            1.1876903727797874,
            0.6354785842522777,
            -0.6429155386526245,
            0.4895993145082096,
            0.2263748015011718,
            -0.933314132049247,
            -0.6578770942382725,
            1.1622126069095844,
            -0.25820221750029454,
            -0.742004937518518,
            0.5029042432448052,
            0.3363263634995403,
            1.4127058717877918,
            -0.7491204880869156,
            0.8981648072009032,
            -1.3360172329178523,
            -1.0553818086708215,
            0.7406553512281487,
            0.362046781937343,
            0.41032665362085813,
            -0.46089534671361204,
            0.7637509916189772,
            -1.0288636295999538,
            0.479733742486052,
            -0.34398494510389915,
            0.3355242046601964,
            0.2466418489342221,
            1.085789548109239,
            0.6298433609910403,
            1.091263728553043,
            0.46538054163162246,
            0.8092438825359202,
            1.3894840151286147,
            -0.276990458508997,
            -1.3493104898793047,
            -1.0219284849028298,
            0.2533595957291126,
            -1.3702518862542812,
            1.0178097735501932,
            -1.2418097268370334,
            -0.6953502668105036,
            0.5211580995682815,
            1.2098535396247796,
            -0.7978584562149852,
            1.074783612191184,
            -0.6421005231115933,
            -0.06646641579732435,
            0.9338421453701305,
            -0.1802169695461626,
            -0.8397482797199823,
            0.9353420888129578,
            1.4157449444673746,
            -0.0825271973969715,
            -0.6799426489493721,
            0.37752967235081236,
            -0.6104745466060854,
            -0.007806288304088625,
            -0.9644795188783791,
            0.22345388182264575,
            -0.3264428794063088,
            -0.15864392267360589,
            -0.8223968579241113,
            0.44012522584849306,
            -1.3425608790019135,
            -1.3865335396690968,
            -0.7692111643473509,
            1.1410739289003171,
            -0.7353795283786257,
            -0.9611407658858694,
            1.1539807382856309,
            1.087523626867246,
            0.9006451117387754,
            0.31004877686601584,
            0.1863984296995044,
            0.20468125194300799,
            -0.7047884782118408,
            0.5731782031319848,
            -0.39146839927528226,
            -0.06546344149300536,
            -1.2024699193168775,
            0.11432912772729302,
            -0.8001817844577738,
            -0.7674214812852254,
            0.24053494489838206,
            -0.7107802146554304,
            0.47612837583081824,
            0.8611188125348449,
            0.5729570546121926,
            -0.6039858414771561,
            0.05412880131794014,
            0.41127951936249635,
            -0.64501426487733,
            -1.1056785012109112,
            -0.6255841835186209,
            -0.05430992432723748,
            1.3003122567154004,
            -0.6097142314650499,
            -1.0279983539268858,
            -0.6587642041815437,
            1.3913900159734187,
            1.2479338877391255,
            0.9531741203252628,
            0.113942984419741,
            -0.7322470977338851,
            -0.9167915071447893,
            0.46388247283970957,
            0.033363936038450275,
            -0.5152469448474815,
            0.2094145135608587,
            -0.5268516488841385,
            1.358883949678048,
            -0.2756066357430609,
            1.1453107282812676,
            0.20197155475101328,
            0.5448651433809493,
            -1.3224802854690365,
            1.3154250220972632,
            -0.6634475676399934,
            -0.600102851863737,
            -1.0858436042605533,
            0.2607018956387283,
            0.8063844966540424,
            -0.42989395930428304,
            0.13268836914581247,
            1.1388550740945402,
            -0.21422260386314476,
            0.8690567178657822,
            -1.225589249759478,
            0.7481034475506013,
            0.6537577346028365,
            0.2567128455015686,
            -0.36183908656666736,
            -0.7157891610530962,
            0.11942310603615666,
            -0.7008774511447194,
            -1.1777062506507625,
            -0.7407718435250535,
            -0.5097658445081765,
            0.28235033944683563,
            -1.0482290427345538,
            0.5396651291838858,
            0.5790751010327797,
            -0.4200731057464312,
            1.1187238412338751,
            1.402254523390664,
            -1.3892807324249632,
            0.017546314713638853,
            1.1775089686900169,
            -1.232863937803094,
            -0.3259232556018338,
            -0.9928646179174644,
            -0.6981389439782074,
            -0.5813063469050714,
            0.4504635742325434,
            -0.5994701310551706,
            -0.8130708182185317,
            -0.8632436893049489,
            0.6063601509394063,
            -0.354809228818819,
            0.26970785671143804,
            -1.4096998659509936,
            0.20212542813886886,
            0.9969311122692577,
            0.014774202097814822,
            -0.33929377339531486,
            1.0676970999736033,
            0.3258906311284013,
            0.8501374162029163,
            -1.0244648223125519,
            -0.34530066658895525,
            0.8477815893313912,
            -1.2878082700576634,
            1.1312692441560397,
            -0.17720238661686089,
            -1.0304724559935545,
            -0.9233550664041096,
            -1.1548206212143453,
            -0.11282972120851421,
            -0.9974416366284169,
            0.7696826288419254,
            0.05558858405840722,
            1.0440855637906021,
            0.43046226130300436,
            0.4651184266491583,
            -1.1617772220583975,
            -0.8084495245434098,
            -1.0893330201842644,
            -0.18066261046882434,
            -0.3233888698410529,
            0.23627665319902127,
            1.112062972144508,
            1.318886010912699,
            1.183628328465471,
            1.202362165436457,
            1.318096278956248,
            -0.691182347344781,
            -1.2291312972170816,
            1.3521873990965996,
            1.2131714627991048,
            -1.141517477731363,
            -0.8002608311063392,
            -0.31488625726115105,
            1.201545313221478,
            1.1564061829029493,
            -0.47768111457732054,
            -0.5868430528325222,
            0.10895395100922194,
            -0.7445480719927388,
            0.526816512434018,
            0.19721861127014137,
            0.7474582702996154,
            1.321340750887116,
            1.1115527682631092,
            -1.1793781330050108,
            -0.9684614617267063,
            0.32297262819250755,
            0.40566995307326537,
            -0.9825177455650911,
            0.6959924153313392,
            0.21402831968623545,
            0.7227504447251568,
            1.118359857385811,
            1.3828273252639336,
            -0.20811247505352476,
            0.37419764034559727,
            1.2548447969849923,
            0.7153581599721582,
            1.0857318270319423,
            -0.3311165969344696,
            -0.43696911883489903,
            0.45979909936010865,
            1.0340558695001152,
            -0.8035500094034214,
            1.1711187335860653,
            0.607372688694379,
            -0.09693680819303194,
            -0.2656089461963602,
            -0.6256614801374353,
            -1.3239887504986607,
            -0.05923337576284885,
            0.472957824789283,
            -0.40353794168218,
            -0.6513818461548513,
            0.7084991630585982,
            -0.8697912490222355,
            0.5040705480833763,
            0.7484362466487143,
            0.7947050363949855,
            -1.0233509323908299,
            0.6822635907426736,
            0.8017086219568625,
            -0.9545504438359272,
            -1.1216020583592994,
            0.6819097404133432,
            0.26386327494750195,
            -0.050885112298984694,
            -1.404157462467376,
            1.1044311404553404,
            0.45543321893436883,
            0.8412051390216007,
            -0.17195191694037099,
            0.16687202665560372,
            -1.2305903234819526,
            -1.1891736811910685,
            1.1009187385945594,
            0.12041777138949104,
            0.24086007469140353,
            -0.7614133996303772,
            0.23969861556008792,
            -1.1593699636578205,
            0.7292652767505833,
            -0.938593676029332,
            -0.6497024213146763,
            0.9742933744462811,
            0.2649059407282277,
            -0.14788242199655885,
            1.1568064210811626,
            1.0550057091260239,
            -0.8966660589347997,
            -0.32820249064842977,
            -0.8237292250140604,
            1.3613671250836572,
            -0.24659547982029786,
            -1.0126388925462158,
            -0.5926755860138774,
            -0.393036783732134,
            0.8471769864401316,
            1.0581217155801204,
            -0.994419021484843,
            -1.005384140938326,
            0.43151216368232015,
            -0.06798986088319348,
            0.44646479448057635,
            1.1520953630204616,
            -0.591358478805646,
            0.9850853605729389,
            0.0960437351126633,
            0.857326339158132,
            -0.31137238108203513,
            1.0752768542196312,
            0.8089269606978322,
            -0.5242213072564985,
            -0.9182831997915712,
            -1.3252133715133154,
            -0.7201866361438378,
            0.019793271130224527,
            -1.1862575854542832,
            -1.211257232412173,
            0.15523898026866695,
            0.5665273613438543,
            -0.6692104883604041,
            -0.11985488675986838,
            0.8758555268942327,
            -0.03890010301416821,
            0.774545574959795,
            0.18250217585708436,
            -1.057657554074949,
            0.11987381559639569,
            -0.13157312399738158,
            1.0418978216980714,
            -0.3750455302437169,
            -0.6383931003276129,
            -1.217735808630757,
            -0.6581946258326395,
            0.380164204893638,
            0.3710939373226546,
            -0.9539362706788351,
            1.3966314499331396,
            -0.553704563902492,
            0.31876053572619945,
            -0.313026947111241,
            -0.17021454109995565,
            -0.24389089291304009,
            0.04439822949065124,
            -1.3382607962302637,
            -0.5618020777029397,
            -1.064353418662258,
            -0.07244032443593194,
            0.807821502618952,
            0.9141435662521746,
            -0.9405384191620194,
            -0.929002915394377,
            -1.1281756388044122,
            1.1287878588024247,
            -0.47128773437219024,
            -0.9391179466615174,
            0.29422160097518746,
            -0.5530544652419315,
            -1.3273991968777457,
            0.07836297056309091,
            -0.15770850645674386,
            -0.13851498687268565,
            0.7631589418254879,
            -0.664373009296115,
            0.676274001866121,
            0.7141506018974333,
            1.2324570884228627,
            0.7965307552396884,
            -0.8882524905069131,
            0.8990947194877741,
            -1.349525156625718,
            -0.8506958285267348,
            0.41159766330726444,
            1.1954437580143205,
            -0.0957314702848763,
            1.3500972967914384,
            1.288008383155883,
            -1.056670854659874,
            0.9996203563304551,
            1.118134184930236,
            -1.2408098680155208,
            0.5372284487241051,
            0.07594756748667666,
            -0.5599678662855261,
            0.4619270755647441,
            0.228801151547837,
            0.12439935948078241,
            -0.14250680397313628,
            -1.3455431289785655,
            0.4823141886828873,
            0.8858813715823917,
            -0.5506709308590185,
            0.8208837758908852,
            -1.3206063898491123,
            -0.5986804000386546,
            0.81881781023131,
            0.5130763640536659,
            4.86954420446651e-05,
            0.00030281764106975526,
            0.1630439305258601,
            0.5830752142551265,
            -1.2374441306505954,
            -0.056009609763706156,
            0.44764731091039983,
            0.4000784167409648,
            -0.045792524694814526,
            -0.6927480605355011,
            0.39844107810998053,
            -0.05793985630247902,
            1.0150985699189232,
            -1.1353686417391977,
            0.3866411293145139,
            1.1659033718352994,
            1.160201891271837,
            0.6145060468908904,
            -0.21479614645792627,
            1.407430429074793,
            -0.09440149218484328,
            -0.7274341034823091,
            1.4031997148233302,
            -1.2813644724292867,
            -1.342740601540338,
            0.8350054650476845,
            0.9438101485149964,
            -0.9014643078610778,
            0.2270454268283406,
            -0.5911528338113848,
            -0.6352496686444515,
            -0.9285743139752621,
            -1.3760157539826052,
            0.9722089810740873,
            -0.637021528315806,
            -0.6594896690352088,
            -0.9361521897300441,
            0.3544316055749524,
            -0.9616086402472407,
            1.154723319307635,
            -0.3658696807009303,
            -0.5716341562248052,
            -1.1298314004499532,
            -0.5343863230194994,
            -0.7594796133927096,
            -1.220303757633588,
            -1.312160459997216,
            1.0255311308320316,
            -0.3515257786047335,
            -0.8654895543133534,
            -0.6215784038831285,
            -1.082185867178898,
            -1.0051815880731465,
            -0.9935773603826907,
            0.1198286043618836,
            1.036973363455884,
            -1.1645740457218485,
            0.31395707301651077,
            -0.7048645155158514,
            -0.6404640942884859,
            -1.255235895521891,
            -1.096591563403394,
            0.85145829423477,
            0.5784966619493497,
            -1.399226176241182,
            0.39178595714893505,
            -0.3423212692385795,
            0.8813351752843386,
            -0.8514760286319561,
            0.5605741814322689,
            -0.963004200426697,
            0.8548696275064448,
            0.8258031866148973,
            -0.8049923230394139,
            -1.2673013672444902,
            -0.08816804920467093,
            0.10823689182585851,
            -0.3437618993086586,
            -0.3728706188864335,
            0.12512193782935035,
            -0.9813848063990043,
            0.6190931319088355,
            -0.06770390674374921,
            -0.9620537269330427,
            -1.0874368770914813,
            -0.05663968302078284,
            -1.2665225140594396,
            -0.9692203845632128,
            0.23303188539178205,
            0.3867169685477385,
            -0.990719030579271,
            -0.5243525247253317,
            -0.3416938338015713,
            0.5419060085685696,
            -0.2040988401454423,
            1.0631163017282768,
            1.1346569905803758,
            0.2908600574647924,
            -0.0769358230100626,
            -1.2944997531332583,
            0.11134779463768628,
            -0.9056910765093336,
            0.18298150869001514,
            -0.48491614337392874,
            -0.7657905561492184,
            -0.16968617501666017,
            -0.8444823775828143,
            0.9029995058397849,
            -0.44174789549295357,
            -0.6605537893513098,
            -1.280083913432402,
            -0.07001571546760096,
            -0.9890196710899196,
            0.5093861893174777,
            0.16921965955050652,
            -1.313793903197355,
            -0.7821869038688276,
            -0.2715819993084983,
            -0.50326276224078,
            -0.8893247793359961,
            0.5493613650145218,
            -0.65576543260126,
            -0.11198113245699737,
            -0.17640325222675443,
            -1.0036118200393458,
            0.8712883508694904,
            -1.099767834372897,
            0.4341553764191661,
            -1.0328147990373397,
            -0.6225765222870951,
            1.225624251094518,
            0.5627693932246769,
            -0.8985306916545814,
            -0.49333232709210056,
            -1.0556934391082973,
            0.2833047532082286,
            -1.338662803496202,
            -1.3664725575731822,
            -0.4903777371303067,
            -1.2353974711933546,
            -1.1426812699419582,
            0.812382988804862,
            0.20669949899929518,
            -1.4383746173135952,
            -0.6612149838838421,
            0.34994672884908845,
            -0.8648560608231153,
            -1.2171725953623496,
            0.7729786173715412,
            -1.234056036222225,
            -0.9503798567731093,
            -0.07457763762561498,
            0.6288391730087631,
            -0.09389225547427245,
            -0.2569730000018029,
            -0.2718695260157385,
            -0.7219280057954456,
            -1.394087706388218,
            -1.3956367120377497,
            -0.028588430769859046,
            0.1643169244025456,
            -0.05411578243140016,
            0.14632722851002225,
            -1.3538362105264132,
            -1.0820459195971277,
            0.22903055407258519,
            -0.8020332086389587,
            1.3949538826228516,
            -0.7192785107774546,
            0.33683116765114846,
            1.2399577647304405,
            1.3220505106107239,
            -0.4429138151472705,
            0.8217280072269247,
            -0.577339857490407,
            0.7230694473143098,
            -0.10388515698185072,
            -0.17894347743838598,
            -1.2989787585749735,
            0.18501119881898995,
            -0.12416842771574388,
            -0.9166442680359981,
            -0.603241684752922,
            1.3450049684747567,
            0.3319014340814529,
            1.3385424967709731,
            -0.47883532283934716,
            0.6880785464204595,
            0.22548532637968338,
            1.3550712361755834,
            0.0839262981191954,
            -0.9870239479822512,
            -1.3834493086626494,
            -1.3496694449208355,
            -1.0899459351383634,
            -1.0596658297812833,
            -0.45091285908431417,
            -0.7520919470857064,
            -0.4070743950883157,
            0.3800682854530649,
            -0.170952316557046,
            -0.23445389721320675,
            -0.23101723463790155,
            -1.0874177774371503,
            0.3399536066535715,
            -0.12464514617619059,
            1.3579820592540515,
            0.20492474462861138,
            -1.055328993900473,
            0.07859992359013042,
            -0.09674732668210467,
            0.6636587033688127,
            -0.23782419868848706,
            -0.6327312471791791,
            0.1813635192061802,
            0.18313655812920462,
            0.8779168666075705,
            -0.5214512050820811,
            -0.8366945772430592,
            0.014183929874032978,
            1.0770602308084194,
            0.7054775296018791,
            -0.7814879113943833,
            0.8653422462020895,
            -0.9752453620924081,
            0.4500806168308553,
            0.18882072932224728,
            0.7861222903361499,
            -0.6788349531870876,
            -0.37435452122642887,
            -0.23229540986206268,
            -1.055776328288344,
            -0.5620250613279237,
            0.9258097441668615,
            -1.374715569233748,
            0.493225533593593,
            0.5632232959182905,
            1.3892521154079847,
            0.14186971905531762,
            0.5219500408701755,
            -0.73341258679098,
            -0.58858587630279,
            -1.34858940916623,
            0.3216119335686824,
            0.13057250867686707,
            0.0475133237695241,
            0.42002770231946535,
            -1.0841128921703755,
            0.5304894600681364,
            -0.5809030097117965,
            0.7878474883418805,
            0.7485147041447789,
            0.7350447981109719,
            0.17566465331222123,
            -0.8486066318366078,
            0.759898191479286,
            -0.8821855773840859,
            -0.00047981424099045904,
            -0.7699351594755336,
            -1.2038919679282825,
            -0.9993069250465614,
            -1.3475608039399891,
            0.849241495460258,
            0.9589879564541471,
            1.3029182754763136,
            -1.1406452933867155,
            1.4069721944586866,
            -0.0968963802179061,
            0.5284421409358457,
            -0.10659395561707823,
            -1.1590426723766052,
            -0.5135562643940385,
            0.8843959736793181,
            0.421842145142139,
            0.47072930150202236,
            -1.0473659091340728,
            -1.2744850602903568,
            -1.2249769366365495,
            -0.9088336050267376,
            0.15841429955958977,
            0.6796215315742481,
            -1.1647562575561836,
            -0.7136730497064085,
            -0.21255723204870827,
            -1.1048615954421224,
            -0.0776536044972175,
            -1.3512962640674402,
            1.221470968382943,
            0.5641208429102214,
            1.4061946401622596,
            1.3259627559627511,
            1.303171041768419,
            1.3003812189967345,
            -1.1278431723303795,
            -1.2432371956688457,
            1.3431892028972483,
            0.23254100353459567
        ],
        [
            -0.795665997785998,
            -0.9850374458223794,
            1.3421652822488306,
            0.9696871702726144,
            -0.8519865549204239,
            -1.3083623938148574,
            -0.46404235976779895,
            0.15660258736333874,
            0.9450660436300053,
            0.9177146306982298,
            1.028895815847789,
            -0.7603325411558132,
            -1.3438929403581272,
            -0.07693006904389303,
            1.3183793589077921,
            0.22785529454713963,
            -1.102570486138809,
            -0.8711613853011525,
            -0.40381717181900834,
            1.0457853318700487,
            -0.47776585565672797,
            -0.7380449810108045,
            -0.7455885735275508,
            0.7010229080574963,
            1.1459843426484786,
            0.1361877011242562,
            -0.35175054044051246,
            0.46805009599368347,
            1.3314121234365137,
            0.32508172094752524,
            -1.3601071975464374,
            -0.30948570085298044,
            0.44307187689822236,
            -0.788594962656862,
            -0.8773695696334004,
            0.11843781223163527,
            -0.6641842936058899,
            -0.4657089106882013,
            -0.6737506539688634,
            0.24818262313220882,
            -1.0434146484294664,
            0.49885170081843916,
            -0.27971331650964354,
            -0.9135880758667911,
            -1.4109964756368583,
            -0.09234725311563187,
            -0.03444764516679531,
            -0.8143462733814174,
            -0.34711484231646167,
            0.6029696158328874,
            -0.3389784673862041,
            0.962645689612868,
            0.6386964587748575,
            -1.3636606082459866,
            -0.9667818717618991,
            -0.3110116313015315,
            1.021914757480663,
            0.3922420043164709,
            -1.2638455009235041,
            0.6760346632977755,
            1.4093277511671265,
            -1.2037792850580367,
            -0.3690417930155053,
            -0.294927309212916,
            1.036824711105263,
            0.15926998848631954,
            1.044393069869786,
            0.10336480843217559,
            0.4033422608537813,
            1.129384064971853,
            -0.9275706015723673,
            -1.2614244559891137,
            0.047731427990845385,
            0.5181729741410837,
            0.474894956509265,
            -0.6180581953260197,
            -1.0281375157752772,
            0.2806132991171872,
            -1.3856179031699254,
            0.3508049979143618,
            0.48783928662602466,
            1.1290986050780665,
            -1.0258693686034102,
            -0.07681793078727016,
            -0.35958999126164565,
            0.20442096421515218,
            0.5283991668025312,
            0.43902476186246286,
            -0.06039245381771482,
            0.9366029660596784,
            0.5900024338947422,
            -0.8434264308085233,
            1.3612406274536337,
            -1.2162394960985594,
            1.0462452427940199,
            1.3337378532838382,
            0.34037088825799977,
            -1.099544015445544,
            -0.04322714109339228,
            -1.3755726265091992,
            -1.2814040323351457,
            1.3435210093992846,
            -0.7997984376949097,
            -0.4763581476217013,
            -0.5009791904865762,
            1.1673816629245142,
            0.7277910149156874,
            -1.1555118076946433,
            -0.9020896918636575,
            0.5086594600790315,
            0.9158179050470725,
            0.49258418711240015,
            0.7698619474139163,
            -1.3899944982569925,
            0.05861062511168997,
            -0.006719952409762273,
            0.9724830046875282,
            -0.6311475011353851,
            0.44716948186723,
            0.6142096601656917,
            0.6358189113428913,
            0.8319819483479959,
            0.7443807337220112,
            1.246319162070518,
            -1.2876294997005462,
            0.6540750999160091,
            0.35941670070419823,
            -0.2459133768356895,
            1.2389091548381765,
            0.9276074651788558,
            0.22892311379320485,
            1.1791300751791745,
            0.20881770061131688,
            0.27336003491993915,
            -0.3152695425345684,
            -0.5588423720360349,
            0.721329700766494,
            0.2152970610575635,
            0.795295340891212,
            1.2850708742934047,
            0.1390698400970054,
            0.41413280084495574,
            -1.2521309608299218,
            0.8997703776317517,
            -0.258342625395147,
            -0.7567266772629239,
            0.7076160014837592,
            -0.8433674139836035,
            -0.38225688430612664,
            -1.2532193262194526,
            0.18338798796407438,
            0.20178081849128618,
            -1.1460456284920963,
            -1.3091696947066658,
            -0.875308296033579,
            0.6336599159392703,
            -1.1915115083172199,
            0.2021753843269517,
            -1.2487549020677629,
            0.9913939023932818,
            0.35561376718593485,
            -1.1990917108496806,
            0.22275095973289005,
            -0.08148038873564126,
            -1.3393599164374432,
            0.39018826665274947,
            0.9520308648464437,
            1.084116301390771,
            -0.0760262251222005,
            0.772767759739586,
            0.6872827938045257,
            -0.29760151947587016,
            1.3066490789392324,
            -0.07578120558972551,
            0.7225376638543002,
            1.0278620521597344,
            0.3054758095870639,
            1.0437871481152416,
            0.22669899136085983,
            0.7483339334247167,
            1.4038939081886141,
            -0.6228313865265355,
            -1.0948316625159424,
            1.21048948617281,
            0.07220843037326118,
            1.125066043901268,
            0.7085544228518926,
            0.5088898479855744,
            -1.2986357125612602,
            -0.9105622130897397,
            -0.39320503082622027,
            0.9452885010005047,
            -0.6884563122882366,
            1.2831604239478323,
            0.019328905725373647,
            1.3223872240779395,
            1.1128144345754423,
            -0.37766179005376765,
            -0.9047489584797286,
            0.2541775149904631,
            -0.8999475696454309,
            0.3224806945428111,
            0.14186252754077297,
            1.0272994190326687,
            -0.43714010999439007,
            1.0273996205260418,
            0.13110042102891045,
            -0.7885476646471442,
            1.1240839689453206,
            -1.3558559867117062,
            -1.206095307914624,
            1.1525112410645946,
            0.16298954659353354,
            0.9209305834367008,
            0.5914292999811646,
            1.1601369930100691,
            -0.8944064343146556,
            0.5027470776534653,
            -0.318016868516888,
            -1.1746392981547653,
            -1.332369297344085,
            -0.3103658476341079,
            -0.9842277580402975,
            1.0386155683668115,
            0.6967651499706775,
            0.7725430230767866,
            -0.4293027035425067,
            0.22261299705487264,
            -1.280333721762022,
            0.13031624956870133,
            -0.509563610057025,
            -1.2326559307269482,
            0.2986111602658169,
            -0.2821784827400206,
            0.7647786512278788,
            0.8150479533720661,
            1.1236117978720714,
            -1.0032686186649562,
            -0.7045965129019369,
            -1.2087442867188594,
            1.0779049468058919,
            -0.7757992860692333,
            1.2768833904246095,
            -0.9035880866298936,
            0.532052896516876,
            -1.3169835880072327,
            0.4658287493468721,
            -0.9870227445825849,
            0.238394105177345,
            1.0923426894144779,
            1.1934018217247213,
            -0.7534047275296423,
            0.15634848028736958,
            0.21697440623956188,
            0.5938866250132321,
            -0.15575852705897478,
            0.5155518050720889,
            -1.3487241692099738,
            0.298467932611911,
            -1.3713409942505863,
            1.1313045754419715,
            -0.568528656507867,
            -1.1695016302215107,
            1.172766422126014,
            0.2880628668715279,
            -0.08861229144915671,
            1.1952896547332632,
            1.2306441144710711,
            -0.44981205912111166,
            0.6389685062419007,
            1.1400173145596884,
            -1.186801024068855,
            -0.7222624736375656,
            -0.1817477699163564,
            -0.45640313925377557,
            -1.1714107109955034,
            -0.23373271960751896,
            -0.13177008655769012,
            -0.1004504462596927,
            -1.2942002089354196,
            0.31344072669084533,
            0.8765297996066356,
            0.6637815552912468,
            -0.2033965934037648,
            0.49060276991083995,
            -0.3239007043592422,
            -0.16551763721371796,
            0.1656127285210312,
            -1.1560050697292945,
            -0.3993936070888168,
            1.1221063950643395,
            -1.1677095140924831,
            -0.2919360469464066,
            -0.01734043667175509,
            -0.9333938485491002,
            0.045497691084542345,
            -1.2194958556747704,
            -0.7647855696592858,
            1.3972286109058365,
            -0.5942988267594367,
            -1.0259850247277935,
            -0.5006037134129495,
            -0.9125654936897164,
            -1.0273407637560787,
            -1.1732457037741735,
            -0.011076997545205877,
            -0.030755105491760536,
            -0.2835507555392653,
            0.3594078872975552,
            -0.07099290337082069,
            -1.0047716844835608,
            0.5911252956757451,
            0.23895834414999426,
            1.369288044459238,
            0.01961869611053686,
            -1.1213965020481869,
            0.19263031182918505,
            -0.8514471555575349,
            -0.48366826543354363,
            1.0900056788364414,
            -0.948106537418484,
            1.046863752624317,
            1.2918004740924138,
            -0.048244313339471954,
            0.6296352820577481,
            0.420997871621569,
            -0.05424725541903641,
            -0.01218038099256862,
            0.28133488187192895,
            -0.8275646592647158,
            -0.3695124861481056,
            -1.1720848550388383,
            -1.272174033865787,
            1.0776539370252376,
            1.144789439437106,
            0.37182141695537696,
            -0.8351944981502835,
            -0.3262125748332297,
            1.3547432121107197,
            1.2358362143965285,
            0.6959787128240149,
            1.3157308929898925,
            -0.3174750802867238,
            -1.0897156015406402,
            -0.3886674669929776,
            -0.3288452856984547,
            0.24930370156057902,
            0.6995314190074239,
            0.09967454373046167,
            1.097822152566689,
            -1.101550775951199,
            1.2487761819624033,
            -0.3886876290277837,
            1.070827069831609,
            -0.8388364063862032,
            0.7950856991633907,
            -0.1408812729592783,
            -0.5289765755773373,
            -0.13127595821665203,
            -0.6954342401609386,
            -0.5162327391755969,
            0.12984503394650923,
            0.9187509582784632,
            1.1823005534726918,
            -0.05174162668112197,
            0.14751258551410038,
            -0.3952286665967872,
            -0.4213969450366138,
            1.015511904742216,
            0.9224726841068538,
            -0.5213753960821248,
            0.6296379013009157,
            0.4861268325676075,
            0.5272177861564934,
            0.367413874875064,
            0.9123283198535107,
            -1.018833426098276,
            1.2530937163467875,
            1.40140020743231,
            0.009590706577024821,
            0.1689697787854914,
            -0.7511762298466543,
            0.2598216605348909,
            1.0652515821502753,
            0.6750321684288005,
            -0.86983452699274,
            1.11499561336197,
            0.07113158703133976,
            0.7943934026338604,
            0.7047275408260779,
            1.275800604356967,
            1.2197987865568491,
            -0.8293487129672019,
            0.7892175029757943,
            -0.9969841379020002,
            -0.17019471841387196,
            -0.3507314591179221,
            -0.38870091422008046,
            -0.05561697248433784,
            0.8514111035402782,
            0.6080792844952877,
            -0.942898872663465,
            0.48696200994675826,
            -0.9600606402657369,
            -0.9741693649264128,
            -0.32564288823502896,
            -0.3486751029594453,
            -1.0402468263505609,
            -0.6169790647067697,
            0.5612755165128948,
            0.16181659120095196,
            -0.7856438894830466,
            0.3263058350917105,
            1.199409626434284,
            -0.17155848281875394,
            1.0049339563687125,
            -1.1249644805951526,
            -0.9191802698262748,
            0.025662464302743278,
            -0.8216679285523648,
            1.0541002329303464,
            -0.6516592021058829,
            -0.6739244835212885,
            0.9822361293812074,
            0.6288758281073582,
            -0.6423963831079842,
            -1.0687059750824437,
            0.7330127632656209,
            -1.296197459896068,
            -1.1288439896233446,
            -1.1196433347697883,
            -0.3396461978262431,
            0.19074248939379754,
            -0.17204855459203064,
            1.285274405827065,
            -0.019370521977722936,
            -0.9601401354023458,
            -0.9805371795278901,
            1.3492520943689092,
            -0.7765147620814571,
            -0.42394444628198263,
            -0.5286070265976212,
            1.0570707033952937,
            -0.28140472915412124,
            0.4214235490011231,
            0.47998035226827185,
            1.2726790815091156,
            0.4379164506327638,
            -1.3243024901550047,
            1.1126191865837074,
            0.9532822540005413,
            0.5158387867250844,
            0.7748241634175295,
            -0.18283659366097618,
            -0.55551874849095,
            1.2961303533102173,
            -0.4600792812331979,
            0.3140075528804141,
            -1.4150403246074397,
            -1.042755826760484,
            0.636193986545632,
            -0.019966996956233548,
            -0.769370930170068,
            0.2123231213171438,
            -0.9206960916098884,
            1.324502560770595,
            -1.0101951222555972,
            -0.1687786831965584,
            -1.2276810188420064,
            0.8914751110477934,
            -0.33151106113023326,
            -0.5877063496346133,
            1.3454022890443689,
            0.7636287736568822,
            0.9856058964100322,
            0.90293834671042,
            -1.0326723051704694,
            0.6539529339961919,
            -0.2348502177446998,
            0.45950552064614913,
            -0.47940683014310126,
            -1.0979149814936298,
            -0.7181894121544125,
            0.013173246730463085,
            -0.3723864144593835,
            -0.557213907212691,
            -1.2632520225274222,
            1.3887972244373388,
            -0.8028555217009298,
            -0.48461058669133433,
            1.363366179368839,
            0.7239491182381607,
            0.6321343823980362,
            1.1757081324881362,
            0.8183680756332887,
            0.5377021993385728,
            0.651892248453785,
            0.6194291505242374,
            -0.35374131580265156,
            -0.839613767867752,
            0.20264771117161454,
            0.704926329797835,
            0.5699741080313608,
            1.2566112265931975,
            -1.29816758030058,
            0.16273038573593862,
            -0.7181479862661035,
            0.69490947134062,
            1.3217892686990864,
            0.04924876405433608,
            1.3096817145432174,
            0.4284000424400598,
            0.45083944595134007,
            -0.6489606992247641,
            -0.07888773572821417,
            0.10042196049311283,
            1.2861985828021898,
            -0.3619181367329466,
            -0.4741137650783372,
            0.5428491162830115,
            0.7162237782965017,
            0.3279517102420308,
            -0.7829358859500557,
            1.167910649202273,
            -1.0012266046160727,
            1.020132721650012,
            -0.9622030401899149,
            -0.17167291784926658,
            0.9697126199607911,
            -1.388751125719775,
            0.640457833599911,
            0.3194915750567238,
            -0.7852642362758538,
            0.7712633041268806,
            1.0274151897154358,
            0.9186757224785577,
            -0.31252041403405867,
            -1.4041108197991314,
            0.06713898433447535,
            -1.0584195495108484,
            -1.3391833385085243,
            -1.3098335119133266,
            0.8510492555407776,
            0.8365744081152867,
            0.7854215572359362,
            1.1894198599111645,
            0.10665580184659659,
            0.9924930319133404,
            0.624504370589574,
            0.5511567301814488,
            0.36458916653274376,
            -0.7740404535242774,
            0.5713715055774822,
            -0.5814658531303956,
            0.6664002919551264,
            0.5363912204545158,
            1.4006682215852453,
            1.1596566020555525,
            1.2384214459147196,
            -0.22825846739505493,
            0.6239108365343664,
            -0.26778075817726643,
            0.6156583406837017,
            -1.4120534303791408,
            -1.2240398507126118,
            0.8973028070531379,
            -0.9264310080306744,
            -0.8438252212339544,
            -1.1170054044802127,
            -0.23633138814689802,
            0.9590517780934321,
            0.09124126261252843,
            1.1764828917853298,
            0.8588510745454253,
            -0.8645255481671855,
            0.8272976930064201,
            -0.4108428590513564,
            -0.3949927503082324,
            -1.3257063283893493,
            -0.21687584983585043,
            -1.2604726391338734,
            -0.8327835850548703,
            1.2767916445347742,
            -0.6906989419673417,
            -1.2958922154005634,
            0.2994853287889879,
            1.1495490353175168,
            -0.8422719705545364,
            1.3168635930583177,
            0.8696793928911383,
            -0.6474709097589959,
            1.0983701031474677,
            -0.10802439968154996,
            -0.7218497720874194,
            -0.3762934405273305,
            -0.4402424715170442,
            -0.6323651384457711,
            -0.6589503325662576,
            1.3858411192515534,
            -0.6805345096261781,
            -1.0948157070537528,
            -0.6730734501648779,
            0.8120640499995049,
            0.43760656541056325,
            0.3543653812705809,
            0.09883248818558116,
            -0.794939444610377,
            0.5774587902729954,
            -0.27693943092887374,
            0.8426613809545938,
            0.6002477483196165,
            -0.015806424526684484,
            -1.2960095597548247,
            -0.21324260831642447,
            -0.710423663070626,
            0.6605739627003715,
            -0.08043585717198952,
            -0.7864306385816768,
            -0.7518520005873074,
            -0.6806803287872301,
            -1.231682424005569,
            0.6451704286190619,
            -0.40083045939233974,
            -1.2984655970614778,
            -0.3126927377643275,
            -0.5587979488755171,
            0.44830291756155555,
            0.493939521121058,
            -0.6922983854749559,
            -0.9452230378506388,
            0.34344883184650415,
            1.0783058321370094,
            -0.8579685994003414,
            0.19626098471798636,
            0.875147878900544,
            -0.9545302936362309,
            -1.3214875637656411,
            -0.7445939456456475,
            1.1645460039524957,
            -0.5214996614399625,
            1.0244738940181741,
            0.5963433440667666,
            0.03644228837949953,
            -0.5671027186447033,
            -0.09067000238606515,
            -0.12705033707081448,
            1.0711446179739903,
            -1.205189427136281,
            0.339070955993435,
            -0.6172883475632172,
            0.11302325795907235,
            -0.18144251763841554,
            -0.6941736688645107,
            -1.076118087744582,
            0.8671422627780266,
            0.2973975061704737,
            -0.7801744664307585,
            0.4461196107834703,
            0.2351897340286216,
            0.1874839344907749,
            0.5310379194782524,
            0.9606890292466088,
            -0.6296099498921709,
            1.1474856161238902,
            -0.1157404349310431,
            0.22765413546831761,
            -0.16626022908080307,
            0.1607676396019488,
            -0.4649179131766562,
            0.5181552661699964,
            0.42486078430848095,
            -0.7300641896833172,
            -0.5960448819785119,
            0.7145382181010783,
            -0.12364011891343586,
            -0.9379203697986964,
            -0.3903624127232919,
            0.14788481847833315,
            0.1968134612921954,
            1.2419300255178054,
            -1.198516234398005,
            0.38522026886302535,
            -0.3956264503612498,
            1.1135601957689873,
            -0.5678636573322693,
            -1.094436555173784,
            0.46998684500809285,
            -0.05503152755211836,
            0.5616399649801923,
            -0.5398235255281739,
            -0.9163614854414509,
            0.45624194230617243,
            0.44198195167589815,
            -1.3111532703249655,
            0.39328306103779825,
            -0.30493849072166224,
            0.22650166468831778,
            -0.040346381376792355,
            0.9919824805629834,
            -0.35070298949034967,
            1.382594923742584,
            -1.0357813649445609,
            -0.47259739338944734,
            0.6577661452124195,
            0.9703426301663786,
            -0.737232796887938,
            0.5379644729521731,
            1.0064195940065237,
            -0.576496200264418,
            0.5052984282447336,
            -0.3314232391630338,
            0.12914518518829532,
            0.14701943029208192,
            -0.06054045899539981,
            -1.0771242183525476,
            1.3171589787737303,
            0.8352788564943344,
            -1.058809324226766,
            -0.34196075161809264,
            -1.1482963067786989,
            0.3331611467423744,
            0.3769152507838373,
            -1.0884924277950296,
            -0.783291753470086,
            0.3609907762064065,
            -1.0873753792810767,
            -0.0847189596290619,
            0.5004867119464042,
            -0.032725844276155165,
            1.3062651967665795,
            -0.7619426391553706,
            0.3954371565073514,
            0.9335677965740926,
            -1.197685352258633,
            1.394273687846585,
            -0.855840405944459,
            1.1276388033782523,
            1.356464587762491,
            1.3059293660181843,
            0.3939391142796974,
            0.7115521614981406,
            0.8198939450475639,
            -0.33352646328542995,
            0.08326907675555159,
            -0.8489118117776804,
            -0.5006505005858325,
            -0.6981875418956036,
            -0.6957760268229088,
            -0.09467760505034903,
            1.195786009855464,
            -1.1048452319793498,
            -0.6882239171216183,
            0.9243813177965974,
            -0.17475971543477378,
            -0.9579018589854245,
            -0.647634737778925,
            0.49434446661905107,
            0.9634959419365939,
            0.7839008429077601,
            -1.0085077193111631,
            0.9773085273108151,
            0.7306154621834939,
            1.3691488519766237,
            0.7497229761025532,
            -0.14454761750195436,
            -0.3417233895989782,
            0.5247676653650845,
            -1.1890559806409777,
            -1.272477511256042,
            1.230847595634684,
            1.2887308708131997,
            0.21227059482648833,
            -0.6381747544084085,
            1.3735118164076028,
            -1.3574634640957253,
            -1.181924794524244,
            0.05333545154871429,
            1.094189865661895,
            -0.9698851429945122,
            1.0851368776940598,
            0.28853463384022904,
            -0.4396217207156069,
            1.407683133463359,
            -0.28189721597722944
        ],
        [
            0.8494934443858395,
            1.1684834723978348,
            1.378652112185066,
            0.19930730850927061,
            0.9485652746026989,
            -1.3400510834620665,
            -1.0845988226756151,
            -1.2873392326829096,
            -0.26993102896194965,
            0.7348906645285573,
            -1.4047688925946333,
            1.383311597364603,
            -0.7677700452110193,
            -0.46924433441176394,
            -0.04665658716416444,
            -0.07326110101892251,
            0.11457251867862707,
            -1.305105637512746,
            -0.23493931748083194,
            -0.048514908139265636,
            0.3208884067957158,
            1.383235440970043,
            -1.226699965890101,
            1.184853744247264,
            0.4985840273402939,
            -1.3604245233694838,
            -1.0334640817505152,
            -1.001445769255966,
            -0.6401050523631865,
            -0.16620733078611374,
            1.0577347147250584,
            -0.20824175282960622,
            -0.006861797889403944,
            1.0834275085688867,
            -1.0150991369784301,
            0.09655215739409871,
            -0.2988211590090287,
            -0.8308980007498911,
            -1.308395301029396,
            0.8503619429416364,
            -0.20323943071538364,
            1.2166147110606091,
            -0.05997476418273734,
            -0.5635365566938406,
            0.9485528750604706,
            -0.7811310158333841,
            1.0057839885736126,
            0.5305467578359746,
            1.2303253799191773,
            0.7825036540686966,
            0.6444962258603927,
            0.886109200013771,
            0.9599401673298581,
            -1.1998744778177446,
            0.21837895243202235,
            -1.0233385117242018,
            -0.24537778162181148,
            -1.2939365657234883,
            -0.09039970286743158,
            -1.1092522646402991,
            -0.12300268450394457,
            -0.6975881915598049,
            0.08330460516352783,
            -0.5263559890584554,
            0.07131922570188567,
            0.7692237766481125,
            -0.358767050268615,
            0.30720886629733407,
            0.47191258731796604,
            1.0949828143060398,
            -1.1218309121910754,
            1.1695510097509527,
            0.7615066743350403,
            0.9156433176756855,
            0.5467618210983106,
            0.2252295644667611,
            0.5323147465476031,
            -0.07210601115983639,
            1.3418431010525302,
            0.7545285247760998,
            -0.30424340272931694,
            0.2977555146254625,
            0.04369013535313628,
            -0.084972859297778,
            0.47788489415098995,
            -0.6072415667782555,
            -0.6581553832252046,
            -0.4023434469713778,
            -1.2828874239025552,
            -1.1300272800565232,
            -0.3834320574980237,
            0.7037324482294417,
            -0.10797203752730984,
            1.2704723216756053,
            0.3227152083490689,
            0.28001491043862553,
            0.4795205682532246,
            -1.1860715089133829,
            1.3707704826748308,
            0.8721109931592019,
            -0.39905066223962105,
            -0.08377759000389015,
            1.0111628763866813,
            -1.3377863274805954,
            -0.27810905794032537,
            -0.5629396508306058,
            0.0933938338373368,
            -0.9910128509659422,
            -1.2420354650826493,
            0.6557062177615114,
            -0.9402917265291261,
            1.2798455180820947,
            -0.9147470279777513,
            -1.0460052771594894,
            -0.1933114383568999,
            0.46210211893814285,
            -0.8848341487209277,
            -1.0430490499550955,
            0.18936547891908417,
            -0.22181643130643486,
            0.8956419492166067,
            0.6128944069303571,
            -0.30104994812199376,
            -0.7556777089412268,
            0.9859366394739842,
            0.6650930387188999,
            0.7283168106637605,
            0.680174493635367,
            -0.287240556823092,
            0.6285085605499027,
            0.13032043486060463,
            -1.220024548692136,
            -0.8367873116627118,
            0.6687227551319538,
            -1.175300333127509,
            -0.049554367967266144,
            1.2705501260826002,
            1.065117309089133,
            0.8229398506715593,
            -1.3513663500288366,
            0.43268811849253663,
            0.3633279351822034,
            0.34454127697523285,
            -0.7247663607512033,
            0.11620628559287688,
            0.40329495761722545,
            1.1983796078950206,
            0.860112356605617,
            0.5701594884602043,
            0.28421991596573515,
            -0.8362781129540027,
            -1.1480780050186619,
            -0.7014058774080003,
            -0.050711821483249084,
            0.44382939172384417,
            0.12722301324998875,
            1.290486267661814,
            -0.2241895102421258,
            -0.33888040707593275,
            0.3601515552030212,
            0.6715565984076582,
            -1.3774418247262408,
            0.3191354717665271,
            -0.3581302261146903,
            -1.296873595034442,
            0.4849443594030172,
            0.19034400702777787,
            0.7503340098924837,
            -0.18860773909342077,
            1.1146527259990848,
            -0.07251952860962332,
            -0.6523757912802901,
            0.6669332128040665,
            1.1231231605879854,
            0.8752594523182196,
            -0.42364840178815955,
            1.236806046488443,
            0.5820337317654405,
            -0.7766671828154349,
            -0.5865327809051013,
            1.2946626700418309,
            1.1331410863028102,
            -0.10576602382908148,
            -0.4281528867085389,
            -1.2610499342239672,
            -0.26068564074874423,
            0.1610549526329582,
            -0.3357820285253391,
            -0.8293511223412943,
            -0.1921494414617803,
            -1.200259867991987,
            -0.3147886421095227,
            0.5647096626511355,
            0.28955329667616503,
            -0.1746720428907747,
            -1.1950341569353238,
            -1.2230222543160838,
            -0.45515662706573523,
            0.10986691501596206,
            0.6320330332165374,
            0.4086061432540251,
            0.02110131741575396,
            0.42367078486011656,
            -1.2214934087198164,
            0.2533174909612208,
            0.22134955156032105,
            0.5240111267815105,
            0.5636789614866797,
            -0.010805334683895808,
            -0.8569318952881361,
            1.398869174808723,
            0.5669446354964728,
            0.8977392134050065,
            0.3195999462482174,
            -0.10801452162944707,
            -0.3875458860703137,
            0.4613863938554258,
            0.47279009160203134,
            -0.7850283065925803,
            -1.0904119159281103,
            1.204539092650744,
            -0.6421510391232641,
            -0.25001914945323633,
            0.26505056496826984,
            1.0266551301338547,
            -1.1258350092114104,
            -0.73275472831411,
            0.6507117719677197,
            -0.031827406246516796,
            0.8345857480846565,
            -1.1536991798723586,
            0.9554410189658263,
            -1.3517912545464572,
            0.7962703275905814,
            -0.9259075467350232,
            -0.6737541383013755,
            -0.6315169484829526,
            -1.374491838497467,
            -1.4074686317864713,
            -1.2918795507873635,
            -0.43431784512704863,
            0.4030198050250381,
            -0.8157512053213742,
            0.620473432603175,
            -0.8827558043054622,
            1.1005003207546522,
            1.3859270988641743,
            -0.23285591824030918,
            -1.2772076213769754,
            -0.4493486022461676,
            -0.24108496489560688,
            0.491895700774386,
            0.9630307724111018,
            0.32303160440151363,
            0.402827882934676,
            1.2853652884955424,
            -0.5247751356160592,
            0.7713402172487217,
            0.8241568398207988,
            -0.23931506348945544,
            -0.385847090165515,
            -0.32622018964838595,
            1.333831088063463,
            -0.5851868170173452,
            -0.6996411141683561,
            1.251248474976217,
            -0.5048433949659412,
            0.1212634034809176,
            -0.07303305602723864,
            0.0628482982828177,
            0.48297871930478714,
            1.1678144959512748,
            -0.46906704767471974,
            -0.6166580129111644,
            -0.8331961882689648,
            0.11924810012381204,
            1.069349906329181,
            0.8010423618160211,
            1.0692257904577367,
            -0.020965631825509683,
            -0.7753651047884208,
            -1.0689093390329758,
            1.4078155919532618,
            -0.0319102387885002,
            -0.9701492667078727,
            0.8766749679059465,
            -1.0442355702918265,
            1.1479601692119974,
            -1.1855455723408272,
            0.1369339881826088,
            0.01794162693246179,
            0.6775398317047859,
            -1.0375594955825718,
            0.8151723017922288,
            -1.1805375792641495,
            0.7787298724989427,
            0.14009271598449738,
            -0.7019613971445846,
            0.27817000167334166,
            0.6547033464369523,
            -0.10167225296864045,
            -0.6499509447406473,
            -0.07765092322206638,
            -0.5527283576418598,
            1.0639455519400465,
            0.28326608881721826,
            0.5504828152131022,
            -0.5822366270147024,
            0.8282197838915829,
            0.6279298007658011,
            -0.23437736008400606,
            1.1124033509175615,
            -0.8038514175227048,
            0.9262192453397746,
            1.39354634700493,
            0.3120814054796464,
            -0.0796489072003082,
            -0.2585554882360568,
            0.4800952019080825,
            0.28652010134897254,
            1.3729050951992805,
            0.07501647868493069,
            -0.48555235950838127,
            0.5267499577059904,
            1.1137106653764444,
            0.00258756980480812,
            -0.4878757475093862,
            -0.567867999264057,
            -0.8618982267318873,
            1.1408092170316435,
            0.5179983915520047,
            0.7090319389124188,
            -0.749959030849098,
            -1.277761808180515,
            0.9234399137782912,
            0.8481684104759881,
            -0.6142220730189838,
            -0.6735022648457532,
            0.3936058487954558,
            -0.7055764125640944,
            -0.9201481630515441,
            -0.8042664790104792,
            0.24147577083322283,
            1.2477851462499867,
            0.4135188853595371,
            -1.3834967855744842,
            0.41710688939650703,
            0.7462679249759304,
            -0.138236463263995,
            -1.3858985283108531,
            -0.9038400498616673,
            0.8262994551298063,
            -1.1055787629957567,
            -1.2089380944582957,
            1.1708339324877928,
            0.9395765583848356,
            0.45494298796415467,
            -0.8211842282987079,
            0.04293441751977018,
            0.5603536360602486,
            1.404570392517557,
            -0.6321985256934702,
            0.4035593717964158,
            -0.5779511167810584,
            1.4068999394409472,
            0.7576644274069675,
            1.3246696844934902,
            -1.013197926796419,
            -1.0883991062245815,
            0.6459190345961608,
            0.6723547563150939,
            0.30748073462874687,
            -0.23117219289545185,
            0.8384275316254718,
            -0.6671532248246284,
            -0.5620275661056341,
            0.6675887155587634,
            -1.06847639164097,
            -0.3247166704301758,
            0.7670455711767545,
            0.8975389280064838,
            0.9306740427047463,
            -0.7838742752623894,
            -0.574821126591151,
            -1.0544364774842359,
            -0.603083162213324,
            0.4766444698217103,
            0.5082954823375272,
            0.8181698039138128,
            -1.2234879837769383,
            -0.696276771921286,
            0.017429697371550222,
            -0.6017705500344928,
            1.2794741302848494,
            1.3332102503569792,
            -0.8808556463955312,
            1.1866240229438865,
            -0.15677318948854774,
            -1.2382857746025864,
            0.923639866437237,
            -0.1250451658995981,
            -1.0139578645540304,
            -0.9665557031426103,
            0.9311760401736597,
            -1.256149160851207,
            1.185641429678272,
            0.972030694552969,
            -0.174346838092835,
            0.6963288449180935,
            -0.8758498384269978,
            -0.004769278176023768,
            -0.14047797544400337,
            -0.3624402595112451,
            0.3715728849069211,
            -1.2036074744341256,
            -0.9902992401340052,
            0.8978395652854289,
            -0.6325804742485852,
            -0.876049307046888,
            -1.322864863319112,
            0.9752418997250721,
            0.3254642271278084,
            -0.009351814927109462,
            -0.7464609739607985,
            0.7201968156105625,
            -0.235469678099264,
            -1.3248807444428534,
            -1.2992881225931705,
            -0.1520285084161986,
            -0.9342605974391492,
            -0.7277962223176326,
            0.9202656794716351,
            0.6900878550683683,
            -1.389513183709738,
            0.42730729056403466,
            0.4629888966692148,
            0.09387545172349684,
            -0.09299037797798806,
            0.24545960036270753,
            -0.8011649145247937,
            0.6664223959789559,
            -0.3193642227893446,
            -1.2525575136839364,
            0.3751679039765146,
            -0.9090620522499627,
            -1.2085096781702152,
            -0.20481351882018564,
            0.3721203014493906,
            0.8977554802826381,
            0.47792099497860385,
            -1.1888699952292372,
            0.1049701325173544,
            -0.7988264197654635,
            -0.9130737213339555,
            -1.2054777075459147,
            -0.2875573903074896,
            -1.2318646287749502,
            -1.407879335565502,
            0.38549119683922445,
            0.3295368837139964,
            0.5759919306900793,
            1.1803803296749458,
            -1.0293719710630411,
            1.2424914248630188,
            -0.5481586729456226,
            -1.1708510614025303,
            -0.5652752980192265,
            0.062397526510896514,
            0.013892217961969953,
            0.34018147218859335,
            1.2697405138348914,
            -1.1879369009724607,
            -0.7274158626158495,
            1.3210959882660027,
            0.5555547102721814,
            1.1337228151534202,
            -0.9035642741175652,
            0.11033477147529304,
            0.3140573488272678,
            0.18399676704709855,
            0.3891359642651078,
            0.805695428418273,
            -1.3020897830046911,
            -1.2021149691496396,
            1.2266691149016475,
            0.3094791759867365,
            -0.057098853240174406,
            -0.5457976557523738,
            1.377037833529353,
            1.2982396192202836,
            1.1358502786023725,
            -1.0675601998207924,
            -0.7464111461797073,
            -0.6723814326030445,
            -1.3756265427499657,
            -1.1960500067442739,
            0.12547096695147675,
            0.06884740217910813,
            -0.2980535508337163,
            -1.19890172241859,
            -0.1514572822918392,
            -0.2766631288433717,
            1.291673722699443,
            0.1395757604344085,
            -0.45868539284141485,
            -1.2255509160814642,
            -0.4606992742158584,
            0.9508517161956843,
            -0.19654336040858972,
            0.0288200682719405,
            1.3050996364728724,
            -0.6713075467335973,
            1.342513975135868,
            0.06163657937413713,
            1.298496215488902,
            0.7438812639295858,
            -0.26016771521301296,
            -0.24364051559686187,
            1.3759183031800934,
            -1.1430077276671824,
            1.219602310660654,
            -0.9022403751506006,
            -0.9695728496337381,
            0.17812863174651014,
            -0.5390627858113266,
            -0.8367734507902257,
            1.0706682566778332,
            -1.3411641717613056,
            0.3010513502984365,
            -0.33290584319639116,
            -0.8229815722490108,
            1.3152210552164931,
            1.2810056379911743,
            -0.8335099650954001,
            0.5442651822018555,
            -0.6679719603702324,
            -1.0042253422918423,
            -0.32081164978767934,
            0.13240436908639394,
            0.39767285638267624,
            0.7652419188138955,
            -0.23597989581125076,
            0.4909042685637842,
            -0.37717409350904446,
            -1.3598007943589314,
            -1.0220281845400874,
            1.3470485348915315,
            -0.6772447421736718,
            0.8119788920197328,
            0.8163993601630761,
            -0.1659274532292375,
            0.7497097450684106,
            -1.3843853871045373,
            -1.1905070068559644,
            -0.24316765386126868,
            1.1286832442017452,
            -1.38389720615793,
            0.3095729164488476,
            0.6832529535968529,
            -0.6968947256672233,
            1.302176873864679,
            0.9943835327762125,
            0.894932081204521,
            0.25446318383955047,
            0.9983719748428264,
            0.7319323578043405,
            0.6850621945439331,
            -0.9566861791669486,
            -0.8510052660139167,
            0.37432964468494184,
            -1.3747785873624319,
            -0.2147638771267916,
            0.6478436794205742,
            0.863583071780742,
            0.8269303732247825,
            0.2549070746889423,
            1.165563978379832,
            0.4369007027850099,
            -0.18540526167974358,
            -0.3131445458950173,
            1.3945434253753748,
            0.08771408295337547,
            1.3812755924678475,
            0.21076105034511636,
            -0.018516398864104375,
            0.7865252793964751,
            -0.8384768302920879,
            -1.3122009620340302,
            -1.3582584223896517,
            0.20777309726278678,
            0.3239821316142491,
            0.4118515225642704,
            0.846255722746805,
            -0.19462838785903427,
            -0.9310855938305466,
            -0.9031929826342021,
            -0.10469190361499028,
            0.6526131561768252,
            -1.2948032206972733,
            1.069517351199217,
            -0.8847181700674226,
            1.354006645350622,
            0.2473523911358057,
            -0.20088360308660144,
            -0.8984883286434108,
            -0.7109209309954893,
            -1.1885608008520558,
            0.8028224839129645,
            0.8591964843448601,
            0.8472128155204006,
            0.8320292851497827,
            0.9035919706539016,
            0.3070044340718967,
            -1.0427920769389936,
            0.06643788678192197,
            0.6256315693528467,
            -0.823382570853607,
            0.9998102451847484,
            -0.025110118929960817,
            0.4018055930306178,
            0.8258634131028818,
            0.350399695234185,
            -1.3216411973299635,
            1.3420645910565918,
            -1.405463472629293,
            0.6850588227159647,
            1.4004455998866934,
            1.240443917429378,
            1.0744195844364037,
            -0.8510942236940537,
            -0.4634825407947732,
            1.235730471401583,
            -0.9267751217979512,
            -1.0386101208022602,
            -0.0137224747610987,
            -0.3800297288753415,
            0.4473223174740163,
            0.4314623522803988,
            -0.03164469757505619,
            -0.30795091395906493,
            -1.2224337470614186,
            0.4550550334415266,
            0.35923293052163563,
            1.2683916792140315,
            -0.39012883857791303,
            -0.8800543168190557,
            0.865448478007137,
            -1.4001164649391025,
            0.39420463833928066,
            1.0736247210122982,
            0.6757268758832704,
            -1.1883586691170025,
            -0.6548808980402366,
            1.1394357774190875,
            -0.6182511759971069,
            0.7369356055788675,
            -0.9591020306055621,
            0.08083628399217017,
            -0.15397201504497474,
            -0.18652498306136772,
            0.03572611537419907,
            -0.04871513338612264,
            0.15229730856766696,
            0.9223381921510584,
            0.968435706930041,
            1.0982135404889037,
            0.8785575821336982,
            -1.367562947014542,
            1.3379178304899284,
            -1.2239706336469858,
            -0.36447990799773694,
            -1.16797778111146,
            -0.720304030360583,
            0.20374922506628243,
            -0.6764361718713211,
            0.5774790002333606,
            -0.024573751882153015,
            1.3206264356514053,
            0.3856102417711657,
            0.7476962369517137,
            0.8848852546890897,
            1.0390671827687346,
            0.20396403556894113,
            -0.9194629573487073,
            -1.1832834751147532,
            1.0350496699240483,
            -0.12724083598682862,
            0.8961072568008916,
            -1.103930230850769,
            -1.012471030636696,
            1.2465563159203528,
            0.6509845258628716,
            -0.6358343794920045,
            -0.06658352727743301,
            0.7197570291144234,
            1.1854030746796766,
            0.9406650685205928,
            0.47268119508794015,
            0.20660427857473682,
            -1.3376470184617997,
            0.5118669860050626,
            0.2736442906199106,
            0.2563833872499769,
            -0.2539950028326004,
            -1.1724556228655387,
            1.3004081165233372,
            0.9275421050178405,
            -0.4155865819613506,
