{
    "model_type": "MLP",
    "layer_sizes": [
        80,
        64,
        10
    ],
    "weights": [
        [
            -0.38006137601049256,
            0.932331165192458,
            0.009772937239460924,
            0.3802547956510403,
            0.6360608988183356,
            -0.6645344366896737,
            -0.6728387670473812,
            -1.2957163143232062,
            1.2989260968886216,
            0.9585776460959098,
            0.8067803379486398,
            0.8646549813662215,
            -0.8004979310742381,
            -0.8620482261274741,
            1.333016769447364,
            0.5710292743506193,
            0.07647374846069867,
            -0.4631618778677499,
            0.8134055191681174,
            -0.7484919691193226,
            0.1855796083302091,
            0.7185224415596867,
            0.5380456334068647,
            -0.7318896553065828,
            -0.46566300264293714,
            -0.444106845048221,
            1.0311166570492762,
            0.5949332222574072,
            0.06479887080387885,
            0.08687057235096865,
            0.41521404119199995,
            0.6305511243758651,
            -0.7998239169017445,
            -0.012014250097096283,
            -0.20884677825849238,
            -0.7284759024939611,
            -0.7797390980666569,
            -0.14387367692790626,
            -0.5298962677658831,
            -0.07128592096419528,
            0.7232462252427123,
            0.4338887001951385,
            1.3920257475536313,
            0.46838858788304744,
            1.2830208720955658,
            -1.1402615726425571,
            -0.9344523375687892,
            -0.05923326947739808,
            -0.8252709634407679,
            -1.2363270973385339,
            1.2723292561992152,
            -0.14504343850298318,
            -0.9808011445241737,
            1.248642220862462,
            -1.2638188911762775,
            0.3912879140677011,
            -0.380300465522921,
            -0.609549981699375,
            1.1249099454683114,
            0.10665884906022313,
            0.903765837100749,
            0.013654794800465027,
            1.0576228342994982,
            -0.7557343973614532,
            1.1072962989760098,
            -1.2551222769108246,
            0.4854335499820135,
            1.1882770684093809,
            1.2988068937683817,
            -0.12253175766685447,
            1.347897354787272,
            -0.8066847574646534,
            1.1295608857556225,
            1.158422238371266,
            0.8292162093836031,
            0.7650833778892263,
            -0.5878979778346273,
            0.9119405300369215,
            1.1433011995659441,
            0.697511015296648,
            0.4089667390650667,
            1.3577848249907394,
            0.09382195433083983,
            -1.2624318641614523,
            -1.0785119237108556,
            -1.0632698625169676,
            0.48988556465377187,
            1.3794625805851344,
            1.2262469293523859,
            1.2790691204122555,
            0.30232586561809693,
            0.18449311900006463,
            0.6668551313026604,
            0.5357640088846152,
            0.5219377982913248,
            1.0591938009136987,
            -0.9853234385815938,
            1.0548600760297484,
            0.14011977375863668,
            -0.2569894743096328,
            0.10558857058396731,
            1.1875023304615862,
            -1.3704594442340277,
            -0.17151375998058835,
            0.20753120372524053,
            -0.8598439286005416,
            -0.0734298919557308,
            -1.056573064527325,
            1.0964862445425398,
            0.17056785318251633,
            0.701662079533685,
            0.09928350232217138,
            0.5132588964554877,
            0.09566917630647946,
            0.03764278948976291,
            -0.6974375629168874,
            0.15834592122497984,
            1.3572367209185643,
            -0.2700689410043055,
            -1.1544642430870653,
            -0.5635925502748834,
            -0.6047173778115726,
            1.301378835626394,
            -0.6017071541805316,
            0.5718444598642021,
            -0.5571220471885225,
            -0.15785463556809895,
            -1.120617933082688,
            1.0130784641199329,
            1.2217634366124934,
            0.016338980163519666,
            -0.0663819156562809,
            0.719007037840976,
            1.183666494301438,
            -1.1920223918335948,
            0.05189186428514325,
            0.5663566330905141,
            1.1056110688639953,
            -1.101807707263161,
            0.6997675901061108,
            -0.4847034043286139,
            -0.5072434280133135,
            0.36214141179025094,
            -1.0408878134931538,
            0.4676002743185273,
            1.1408716412822875,
            -0.6693252004528968,
            0.3160415609832158,
            0.33901245240229605,
            -0.9873999985626488,
            0.37893339159328865,
            -0.00616054331245111,
            0.39287337858781823,
            -0.5417490916256059,
            -0.8560355171835766,
            -0.23215153068489436,
            -0.3596904691189402,
            -0.5998946710315489,
            1.2538755594754367,
            0.3142610490965859,
            1.0180069919594326,
            -1.3984310464126637,
            0.2833153672146766,
            0.8526148203090377,
            -0.6890301915078687,
            0.7008473676363042,
            0.13628960086759598,
            -1.0764174759479932,
            1.1589140435446894,
            -0.298865823098497,
            1.1787547980961517,
            -0.7913911871374147,
            1.1273328283711785,
            0.8031032434444333,
            0.6418097703119259,
            -0.0002416014786790366,
            0.7962790222834654,
            -1.4039338794552207,
            1.030659721110695,
            -0.7204624743049524,
            -0.7785691590475132,
            -0.6588899308851531,
            -0.49344029373233855,
            0.6608904341405348,
            -0.8185139372345498,
            -0.5118945592641932,
            -0.9299444523077587,
            -1.3571376584410404,
            -1.235247484494256,
            -1.060650021940786,
            -0.5106312526442599,
            -0.42274587942307834,
            0.009664726947737434,
            -1.2943997199944681,
            -0.9491997389921294,
            0.19217392327570307,
            0.12933680188149183,
            -0.2923353811218029,
            -0.26642134860979866,
            -0.8323746724586635,
            -1.4058424607360338,
            -1.3272848472820586,
            0.048412024908817325,
            -0.2562913828149767,
            -0.31679091194752995,
            1.3644605121698987,
            1.1470863251830503,
            -0.67062732930981,
            -1.0304645397088026,
            1.1761351851958106,
            -0.9699421580841281,
            1.4026406647188352,
            0.022996719257822595,
            -1.199568084668064,
            0.26841331956386555,
            0.36569057038407354,
            0.9346221339964405,
            -0.02106586425694941,
            -0.7305039488791553,
            -0.29412300024520616,
            -0.010498525487255644,
            1.3695372631858593,
            -1.0280544511976635,
            0.3057053130931742,
            -1.1300774664642792,
            1.220318527225247,
            -0.5261268512580821,
            0.42073756970252973,
            0.048186946572635066,
            -1.3005848129514601,
            1.3571110956322074,
            0.26204372484261634,
            0.1644979509119617,
            0.6103666818661974,
            -1.120633373074996,
            -0.2779443252245722,
            -0.2573496093489808,
            -0.620022358838993,
            1.39948942211909,
            0.8925293652476118,
            0.36157640853609324,
            1.015250177303135,
            0.5283190292549352,
            -1.321868932403843,
            0.4327003498071623,
            -0.765839918211706,
            -0.6550723205722606,
            -0.21925772515367606,
            1.4071391185085536,
            -1.3349715632934762,
            0.6210297526511441,
            1.182693828771299,
            0.8103688829857414,
            0.7669576240970304,
            -0.3116882124773352,
            1.3631385985362063,
            0.9124166270755912,
            -0.015908591252064806,
            -0.48119355394446117,
            -0.48369798925701757,
            0.9094900400724152,
            0.9813791090679286,
            -0.8754894938739208,
            -1.151006825045268,
            0.691388254625615,
            -0.4534140671211249,
            0.19214152859879113,
            -1.0562767741674768,
            1.3345130760709698,
            0.7939775687358087,
            1.369199210421055,
            -0.3077476071367853,
            0.07167010785307935,
            0.6041977121891864,
            -0.32302309100016635,
            -1.1341533490757003,
            -1.1947821783933665,
            -0.5104667675230823,
            0.871247678300436,
            1.3089995788790416,
            0.9277371738869032,
            -0.610040374905381,
            -1.1250564652349557,
            -0.22695531688950618,
            -0.9439374123865585,
            -0.33234105754781146,
            -1.05690626762436,
            0.8306683471309584,
            0.7797009297603351,
            -0.008195702537546382,
            1.4022463608040574,
            -1.2021933001615481,
            0.7640591792420697,
            0.8703380661844723,
            -0.09676867359347646,
            -0.5097779519260645,
            -0.2268278627250804,
            0.5147069177576176,
            -0.7624919072591717,
            -1.2040207102616582,
            1.3470417665754442,
            -0.11481777347885719,
            -0.936609179261555,
            1.3245209540615668,
            1.3560310794921038,
            1.3724547552036073,
            -0.5830190384064566,
            -0.2455102121429392,
            0.44106539906077186,
            -0.6994637567352305,
            0.3843004650042999,
            -0.8264049117561817,
            -0.6612183128023948,
            -0.7731599014907667,
            -0.7822088937840486,
            0.645425257541988,
            -0.24511960140964992,
            1.2954409214953992,
            -1.0233270693496306,
            0.8919946891664389,
            -0.9806864071343427,
            0.9505758035591617,
            -0.2754930280157337,
            0.8936286136049961,
            -1.1153972208615035,
            -0.7423597823079164,
            0.16739334133112466,
            -0.9501426925445685,
            0.6971830810339589,
            -0.017017019960537557,
            0.7521046263762615,
            0.6025075439608171,
            0.10364141394972119,
            -0.695275035039824,
            -0.2592120150086937,
            0.44210558174036574,
            0.012379870558160077,
            -0.790614738166201,
            -0.6772338438892787,
            0.13679152589973378,
            1.3709494015986992,
            -0.7464790473772942,
            -0.8407392284345726,
            -0.5256106145476349,
            0.7905167259925753,
            0.8659533663416903,
            0.2148604989465107,
            -0.5362586558907059,
            -1.0605617057648615,
            -0.19468506266830862,
            0.41704974757050567,
            1.1779384361412373,
            -0.8853902190553655,
            -0.6671859160922745,
            0.48516287564398985,
            -1.12823590291644,
            0.3412842954929376,
            0.9202953178639994,
            0.9155655108360333,
            0.20359443673114025,
            0.07267013541166512,
            -0.1054010075577728,
            0.8872269042720872,
            -0.8647781177322842,
            -0.19251516307380226,
            1.322832540721212,
            0.5142183842939876,
            -0.4428427649495876,
            0.5270202005029322,
            0.9873033051881721,
            -0.6253585725499149,
            0.6717879004043542,
            0.4592368972992996,
            -1.1342897015846574,
            0.7534674466839117,
            1.3369088850729893,
            0.906999269667,
            -0.09794013352827369,
            0.8218045508096746,
            0.7481650708020736,
            -0.19849156508467977,
            -1.3234975895313315,
            0.5742162946047769,
            0.18411570032159913,
            -0.5881726230430017,
            0.3259646722566404,
            -0.054683214171722505,
            0.05348979827982687,
            -0.6341777989278659,
            -0.4261232442293308,
            -0.741080136281201,
            -0.8886613560071805,
            1.0799840985804026,
            0.9155222922639702,
            0.013924941697800479,
            0.9576578919011923,
            1.1684879323547017,
            -0.7860742309953535,
            -1.330033859987365,
            -0.6484679692174613,
            0.10362211299640818,
            -0.2752646459806997,
            0.5513782424396987,
            -0.05410791837143873,
            -0.7486930416430775,
            0.3179824631295757,
            0.959631901135649,
            1.249275132123183,
            1.069448201712337,
            -0.25742391296724476,
            0.18383501428393417,
            0.8997990115050604,
            0.47120742609379673,
            -0.21892008307191022,
            -0.33063567674992533,
            0.7710352520414163,
            0.6298453277332412,
            0.14031578036210163,
            -0.6417457091970558,
            0.2642947055035199,
            -0.9666850659929198,
            -1.2793375484985914,
            0.4053363737986545,
            -0.8319085093703359,
            1.124340201450823,
            -0.8639766932196149,
            0.42217632454619725,
            0.4927183530347771,
            0.31350975625918276,
            -1.2491051109731626,
            0.6298247046671708,
            0.40582844978267496,
            -0.6239901824504399,
            -0.22367608128110017,
            0.5688756246149443,
            0.6268696306035639,
            1.1679760970989197,
            0.7432578683417878,
            0.21470145829940424,
            -0.8561727050476836,
            -0.30097307936283363,
            -0.4573534350784711,
            -1.089014778308546,
            1.333057072193992,
            0.40390451859621535,
            -0.04922485664525133,
            -0.5735064392806964,
            0.1886043014223944,
            -0.10039821006807455,
            0.4768931016373354,
            0.09453031936178498,
            -0.9466550144562867,
            -1.2752866143019108,
            0.38054756359233954,
            0.5506718707650305,
            0.08675442818143385,
            -1.0451783956004177,
            1.3312097417574564,
            1.3109422906568944,
            -0.1566474540392949,
            0.4180095534319009,
            0.6416422610633462,
            1.1778561372133447,
            0.4954953946077875,
            0.7075939001117514,
            0.48976939368219763,
            -1.0313044547801895,
            0.3159653031153703,
            -0.8382748981974022,
            0.13556604871611708,
            1.3290343105606033,
            -0.6631171984483751,
            -1.0200914267556025,
            1.312975817694314,
            0.7596870091228127,
            0.8359652892134578,
            0.036108584924323894,
            -1.3873074871124749,
            0.21674836579771742,
            1.1070117396343278,
            0.9351366584197816,
            0.10608444682217721,
            0.2905154486513197,
            -0.3468345703867444,
            -0.6907198067289975,
            0.9246348003504216,
            0.35298945176547347,
            -0.8864609187828276,
            -0.5202470456980502,
            -0.04026937322369059,
            -0.17672292967526587,
            0.2713613169948614,
            0.6955036452563933,
            0.6313818700931413,
            -0.7348278501501143,
            -0.8712527742419128,
            0.8555303968982785,
            -0.2669729488924833,
            0.010271116576611295,
            1.1347556513352757,
            -0.09576199859598253,
            0.4134333303005105,
            -1.2836402024114015,
            0.2699977435907919,
            0.21859274363942702,
            0.716586599053074,
            1.2377241291034353,
            -1.1528903004268571,
            0.23171566541595712,
            -0.18593642345175052,
            -0.06686381506581718,
            1.050890505019369,
            0.8199829362727723,
            1.3691305913597276,
            1.2993418672393537,
            -0.355462413952863,
            1.2233560931531762,
            -0.1258389368181134,
            -0.5652683116249383,
            0.7928166776953308,
            -0.26632228933925245,
            -0.21240627882988064,
            -0.7946888592099131,
            0.553804612842968,
            -0.06763763664682602,
            1.1295853929558524,
            -0.24957464008440666,
            0.05685313988514274,
            1.2596534664553103,
            0.7739793811164771,
            -0.0017282709752509799,
            1.220365298600839,
            -1.251542838304531,
            -1.181314422964263,
            -0.9148590875491878,
            1.1629278814275612,
            -1.175299097872807,
            -1.1978477728804575,
            -0.9846783053038782,
            1.382083533965915,
            1.3375440278120008,
            0.5530740696603953,
            -0.39149083591980066,
            0.09543614801136,
            -0.40308195608452657,
            -0.6181396382104115,
            -1.3422222893978493,
            -0.17920335109076674,
            -0.5141425259468638,
            1.0789044674129817,
            -0.19703392244122886,
            -0.7978400053400461,
            0.14462780970591083,
            -0.39804756434765354,
            -1.0056071808607383,
            0.03935451499620374,
            0.9332232151675627,
            0.9217493612632868,
            -1.285212610455719,
            -0.32551385769903607,
            1.2670874055072987,
            0.13902352703385498,
            0.05300638338246202,
            -0.36348610590788016,
            1.3008834093696942,
            -0.9040169396080752,
            0.47798537021069626,
            -0.1265017421337665,
            -1.2225116372249614,
            -0.9540600319032319,
            -0.06631385959891048,
            -0.4853197573766897,
            -1.0303945636409695,
            -1.149683754074665,
            1.4541572704888108,
            1.3177083880329368,
            0.5294034519458278,
            1.3362521793029851,
            0.5252973343380047,
            0.7062170416831967,
            -1.1570662608856745,
            -0.3465027370678134,
            0.4129900417369482,
            1.3960895802978022,
            0.2793461892142882,
            -0.8805595389558932,
            -0.8236917034607597,
            -0.14580094494058016,
            -0.8441496760145858,
            0.5601056670629586,
            1.2104572324780183,
            0.988043155072166,
            1.1763761573255425,
            0.13386609755463133,
            -0.44571517980704406,
            -0.04387420213656488,
            -1.010406826557351,
            0.7679015486549067,
            -1.2768212882479635,
            -0.08985970171649922,
            -0.008227138410723395,
            -0.19607138044897365,
            0.0912388958224406,
            -1.161776794559341,
            1.1414753592172704,
            -0.7094347185148208,
            0.44909987482081043,
            1.3577665803521712,
            -0.061177219256454723,
            0.6462568478186415,
            -0.8616710651054207,
            0.26966480436787205,
            -1.3629760633506594,
            -0.25022443324864196,
            -0.6230168707623607,
            0.9061745607774474,
            -0.19672248737623507,
            0.7799644291908908,
            -0.12275785673011594,
            -0.0863518972620699,
            -0.5611988067448512,
            -0.42955621627854945,
            0.6233097573778019,
            0.4938880759929155,
            -0.07171318719010132,
            -1.4130644601338165,
            -0.4997479602844814,
            -0.07223361171697318,
            -0.043609419916326594,
            0.9140724499667171,
            0.5957763804438984,
            0.9729266282994044,
            -0.49690626215913325,
            -1.0222202611756221,
            -0.9964224222002624,
            -0.13699580455804994,
            -0.8180544574479407,
            0.5586457864103024,
            0.5026763905590119,
            -0.9145769991100128,
            0.3509304730782555,
            -0.10412073147934076,
            -0.20762019756118427,
            -0.10276916447954401,
            -0.8810239667742477,
            -0.2651518977542292,
            -0.9716768292475966,
            0.12203308354480506,
            0.676452429061121,
            0.8037436553722198,
            1.2954644550947731,
            0.9626678560018063,
            -1.2446769313504615,
            0.7904488554646949,
            -0.516816557498712,
            0.6592364750839522,
            -0.9811245735784535,
            -0.4756455167700834,
            0.7756158279424981,
            -0.8676687403565624,
            0.11265272940113917,
            -0.15341288621997762,
            -0.5020498344844393,
            0.07531652983069281,
            -0.3069263281169329,
            -0.25957269017472806,
            -1.341604338475214,
            0.46899460943949667,
            0.6012155420871631,
            -0.9691065110851201,
            -0.7520673995006235,
            -0.46503529427152174,
            -0.642551241968855,
            -0.2548263809689672,
            1.4025978449634628,
            -0.22780077232907786,
            0.4244588472618081,
            0.48933783251807705,
            1.3647102280541201,
            -0.0645782299073581,
            -0.08475163937312916,
            0.06009314901350541,
            0.9652003767576471,
            -0.8704748950226869,
            1.344717899588361,
            -0.018905055810216086,
            -0.2737505972158566,
            -0.3462691869767488,
            1.2812019490924949,
            -0.7023841709692275,
            0.7978080987947412,
            -0.287642284439797,
            -0.33989385952014073,
            1.2070871880631164,
            -0.531774188803371,
            -0.6710099686453572,
            0.15494277763516492,
            -0.4512597533365919,
            0.43421060117177773,
            -0.3912851161789634,
            0.3496921234369131,
            0.2193620935251127,
            -0.44084338916623456,
            1.1851842689819838,
            0.5083297572953182,
            -0.23452307871348013,
            0.2792151254175142,
            -0.00032155224270996656,
            -0.07944133183366878,
            0.2972623103311488,
            -0.6360542502943228,
            0.47301723421706615,
            0.9390224771669212,
            -0.22823602088082065,
            0.27709366348454945,
            0.8424614300713527,
            -0.5127618597098573,
            -1.1412710558846229,
            0.1746191205538431,
            0.714992315713577,
            1.040124306838323,
            0.7761079956404668,
            -0.5047078657697068,
            0.3039048155913726,
            1.2580919213996047,
            1.172395452957626,
            -0.4384018286995271,
            -1.3940819833642824,
            -1.382417870769907,
            -0.22454995578821738,
            0.053877271723290994,
            -1.1800448909073644,
            -0.01917863003743839,
            0.4179067256549619,
            -1.2340284705521218,
            -0.5271993014493821,
            0.26541414161669663,
            -0.07439748113293702,
            -0.7863222318162681,
            -1.3515447661491937,
            -1.3294679098193387,
            -1.0096343285420628,
            1.2781143767800927,
            -0.7762210574295277,
            -0.43305610113490617,
            0.024353269675813007,
            -0.2981744131160229,
            -1.1598149740140486,
            0.7029014480867415,
            -0.10567717533305669,
            1.3677949160062357,
            0.14903122019916618,
            0.29342348951152775,
            1.3248062015149134,
            0.3918808256805303,
            1.382172618519307,
            -1.366055569193982,
            0.9091317440918438,
            -0.18107734917584298,
            1.1237359646371927,
            -0.7365377351847936,
            0.354224566423275,
            -1.1624364587665728,
            -0.05497851036076095,
            1.1287511904101515,
            -1.0851392437576894,
            -0.9928518260715669,
            1.2902198718197355,
            -1.153482535663046,
            -0.9137825993534374,
            -0.4666356263138353,
            -1.3290846484243581,
            -0.0007641290324554682,
            -0.42062010575271114,
            -0.3224685926549479,
            -0.18840129713635959,
            -1.2295269223242917,
            -1.4034030938426383,
            -0.9400303503830358,
            -0.5090970223584437,
            -0.2233741022979215,
            0.16313203884153663,
            1.2870962427001347,
            0.3496061658453442
        ],
        [
            1.2044576375456892,
            0.14011709924779903,
            0.9184489258015269,
            -0.7476081291004151,
            -1.2699999313643144,
            -0.9804403836636199,
            -0.5967963729986977,
            1.1774563270462175,
            0.5737412442623874,
            -1.0600324360976676,
            0.06837121164434704,
            0.389170768635648,
            0.555588571047751,
            -0.24410308588901167,
            -1.1006172675033277,
            0.20451504283339653,
            -0.633223966105794,
            -1.1149589105763191,
            1.0943783396046645,
            -0.9423265102982623,
            1.2000587712480635,
            0.503391028378055,
            -0.8968175126820237,
            -0.6525634765670465,
            -0.7218824843903249,
            -0.16810850979005296,
            0.10620497481074988,
            -0.22927511370831746,
            -1.1057326449210392,
            -0.10784207414209963,
            -0.8822415594224376,
            0.0025022786351820907,
            0.5084765281990649,
            -0.133292634245132,
            0.5032835678441382,
            -0.2962823567154817,
            -1.0511079707680555,
            0.16752256754768802,
            1.239018836023114,
            0.19688243167008754,
            1.2751101386912593,
            -1.2555542565598476,
            0.8192757470802491,
            0.6164939709181372,
            1.1083864295876897,
            0.7024133090447992,
            0.9700889212187435,
            0.6135285489346618,
            -0.2867403104736457,
            1.0359101295776711,
            1.3233835329463322,
            1.3221691761703631,
            0.6936323957085069,
            0.023886311500061142,
            0.17677060804175887,
            -1.0588632791982944,
            -1.0183632875377135,
            0.7941688591081256,
            -0.5683610024541085,
            -1.2222481216139076,
            0.30915618296039665,
            -0.30251180931392196,
            1.133578446722883,
            0.3197514022882303,
            0.18953847085628855,
            0.055989109867720745,
            1.1104832834792242,
            -0.8088250139324714,
            0.31284346579969335,
            0.7525933818866316,
            -1.2438908064853127,
            0.5400806234891402,
            0.35877753527048395,
            -0.7893782760206806,
            -1.2593462054847833,
            -1.1892826193551793,
            0.3667169488792526,
            1.2365051420763298,
            1.3099157090599436,
            0.8269409330920027,
            -0.12904510158536953,
            1.4021994378141884,
            -0.7227286593452118,
            1.3878472883543962,
            0.6958188219947947,
            1.106351890357173,
            -1.3312884324313619,
            0.2536981234227827,
            -0.009311393366872079,
            0.2528006133351249,
            -1.2914037685539816,
            -0.8091264216755847,
            -0.21725626846676188,
            -0.8137126466125745,
            -1.398061980340035,
            -0.04874125070319938,
            -0.65376874405788,
            -1.331614424743992,
            0.09445721891692058,
            -0.35997541836640745,
            1.1900616782261988,
            0.6370001719137249,
            -0.6429155386526245,
            0.4895993145082096,
            0.2263748015011718,
            -0.933314132049247,
            -0.6578770942382725,
            1.1622126069095844,
            -0.25820221750029454,
            -0.742004937518518,
            0.5029042432448052,
            0.3363263634995403,
            1.4127058717877918,
            -0.7491204880869156,
            0.8981648072009032,
            -1.3360172329178523,
            -1.0553818086708215,
            0.7406553512281487,
            0.362046781937343,
            0.4102948280758333,
            -0.4627942709000935,
            0.7616717226773551,
            -1.0308155963614767,
            0.47876836762029884,
            -0.34427137500912264,
            0.33651484828359357,
            0.24915148324264233,
            1.0882893075161937,
            0.6323431239836792,
            1.092884125453732,
            0.46538054163162246,
            0.8092438825359202,
            1.3894840151286147,
            -0.276990458508997,
            -1.3493104898793047,
            -1.0219284849028298,
            0.2533595957291126,
            -1.3702518862542812,
            1.0178097735501932,
            -1.2418097268370334,
            -0.6953502668105036,
            0.5211580995682815,
            1.2098535396247796,
            -0.7978584562149852,
            1.074783612191184,
            -0.6421005231115933,
            -0.06646641579732435,
            0.933820928340114,
            -0.18188250640246198,
            -0.8418805912366459,
            0.9332097772962942,
            1.4133686371055207,
            -0.08522175992951747,
            -0.6817528539285835,
            0.3791759699619682,
            -0.6080596560769967,
            -0.005306525358006575,
            -0.9619797580754779,
            0.2242937197623519,
            -0.3264429276488257,
            -0.15864404447412067,
            -0.8223968956583452,
            0.44012522584849306,
            -1.3425608790019135,
            -1.3865335396690968,
            -0.7692111643473509,
            1.1410739289003171,
            -0.7353795283786257,
            -0.9611407658858694,
            1.1539807382856309,
            1.087523626867246,
            0.9006451117387754,
            0.31004877686601584,
            0.1863984296995044,
            0.20468125194300799,
            -0.7047884782118408,
            0.5731782031319848,
            -0.39146839927528226,
            -0.06546344149300536,
            -1.2025760040010331,
            0.11365018891670323,
            -0.8017837114506488,
            -0.7696008668142121,
            0.24025601640733452,
            -0.7086199977474646,
            0.47899398178471136,
            0.8634187553329482,
            0.5740418673445031,
            -0.6032668784395664,
            0.05412871151991068,
            0.41127951936249635,
            -0.64501426487733,
            -1.1056785012109112,
            -0.6255841835186209,
            -0.05430992432723748,
            1.3003122567154004,
            -0.6097142314650499,
            -1.0279983539268858,
            -0.6587642041815437,
            1.3913919716771885,
            1.247944415250908,
            0.9531846478370455,
            0.11395134817416121,
            -0.7322418131726345,
            -0.9167908829840117,
            0.4638827641147391,
            0.03337201047573074,
            -0.5150623959161179,
            0.20964631590873173,
            -0.5266914226824028,
            1.3587539798058097,
            -0.27644924288833284,
            1.1481610479813005,
            0.20798006032724325,
            0.5503733138026814,
            -1.319065610018144,
            1.3186418275810359,
            -0.6602306654909887,
            -0.5990179182861038,
            -1.0858436042605533,
            0.2607018956387283,
            0.8063844966540424,
            -0.42989395930428304,
            0.13268836914581247,
            1.1388550740945402,
            -0.21422260386314476,
            0.8690567178657822,
            -1.2255872940557082,
            0.7481139334516654,
            0.6537682205039006,
            0.2567233314026327,
            -0.3618288919406328,
            -0.7157500575387011,
            0.11950928302052373,
            -0.7006562154979912,
            -1.177409074773311,
            -0.7404770544318007,
            -0.5087487497958814,
            0.28514502502963734,
            -1.0447152674086355,
            0.543793252126859,
            0.5837218497364381,
            -0.4140584111775121,
            1.1235805001280292,
            1.4054710072822119,
            -1.386063811647659,
            0.01969095085547183,
            1.1775089686900169,
            -1.232863937803094,
            -0.3259232556018338,
            -0.9928646179174644,
            -0.6981389439782074,
            -0.5813063469050714,
            0.4504635742325434,
            -0.5994701310551706,
            -0.8130688625147617,
            -0.8632332034038848,
            0.6063706368404704,
            -0.3547987429177549,
            0.26979220764978495,
            -1.4094333050390349,
            0.20242653429675447,
            0.9972319160484114,
            0.015440633768114814,
            -0.33721436091593415,
            1.0712158290883573,
            0.3293576621017393,
            0.8535757452636925,
            -1.0195956420830405,
            -0.3431597702037917,
            0.8511698312127802,
            -1.2846255653794305,
            1.1341204789841248,
            -0.1739854543759863,
            -1.0272555017808052,
            -0.9233550664041096,
            -1.1548206212143453,
            -0.11282972120851421,
            -0.9974416366284169,
            0.7696826288419254,
            0.05558858405840722,
            1.0440855637906021,
            0.43046226130300436,
            0.46511880114562487,
            -1.1617740180330725,
            -0.8084428668284485,
            -1.0892871437739409,
            -0.18038104738986066,
            -0.32308732686891617,
            0.23657466329736923,
            1.1138003115718946,
            1.3223997418090094,
            1.18714270250749,
            1.2057001481398923,
            1.3209736505454521,
            -0.6900907544631156,
            -1.2270480215482484,
            1.3533673564246693,
            1.2142228546250797,
            -1.1405809833001697,
            -0.8002590331372694,
            -0.3134480894954513,
            1.2047622674342273,
            1.1564061829029493,
            -0.47768111457732054,
            -0.5868430528325222,
            0.10895395100922194,
            -0.7445480719927388,
            0.526816512434018,
            0.19721861127014137,
            0.7474582702996154,
            1.321340750887116,
            1.1115527682631092,
            -1.1793781330050108,
            -0.9682953590169368,
            0.32326340488303695,
            0.4059622025660783,
            -0.980082716410888,
            0.6994643375140992,
            0.21735580756526443,
            0.7256270324462467,
            1.1194451238537162,
            1.3828273252724912,
            -0.20752952912634762,
            0.37664843092431244,
            1.2569050237503836,
            0.7151075188066286,
            1.0856520568433694,
            -0.33111472636272027,
            -0.43553095106919926,
            0.46301605357285813,
            1.0340558695001152,
            -0.8035500094034214,
            1.1711187335860653,
            0.607372688694379,
            -0.09693680819303194,
            -0.2656089461963602,
            -0.6256614801374353,
            -1.3239887504986607,
            -0.05923337576284885,
            0.472957824789283,
            -0.40353794168218,
            -0.6511638363482788,
            0.7087884030367678,
            -0.8673922031698271,
            0.5073035867897133,
            0.7512604652141086,
            0.7966225417635363,
            -1.0237276678904537,
            0.6821362885670925,
            0.8016767964204423,
            -0.9532759173469588,
            -1.1190927861750135,
            0.6842449558093672,
            0.2635450912236001,
            -0.05141584867092343,
            -1.4041555483743247,
            1.1058693082210402,
            0.4586501731471183,
            0.8412051390216007,
            -0.17195191694037099,
            0.16687202665560372,
            -1.2305903234819526,
            -1.1891736811910685,
            1.1009187385945594,
            0.12041777138949104,
            0.24086007469140353,
            -0.7614133996303772,
            0.23969861556008792,
            -1.1593699636578205,
            0.7292652767505833,
            -0.9377781580510846,
            -0.6464860295420174,
            0.9764173250855323,
            0.2647091391888198,
            -0.1504584340190199,
            1.1542897111630441,
            1.0523110515138456,
            -0.8981371539691794,
            -0.3259941250993335,
            -0.8212073667801738,
            1.3636538886723868,
            -0.24779725725629842,
            -1.0128302255475514,
            -0.5926748786316627,
            -0.39053891340223446,
            0.8496748567700312,
            1.0581217155801204,
            -0.994419021484843,
            -1.005384140938326,
            0.43151216368232015,
            -0.06798986088319348,
            0.44646479448057635,
            1.1520953630204616,
            -0.591358478805646,
            0.9850853605729389,
            0.09618206126370396,
            0.8585910353962181,
            -0.3089316391216419,
            1.0802024480571524,
            0.81393179333669,
            -0.5215607771022742,
            -0.9160689695417916,
            -1.3239189311585806,
            -0.7184065178114915,
            0.020700758302985036,
            -1.1862356773876845,
            -1.2108796173449186,
            0.15660190371732727,
            0.5688503535883457,
            -0.6701543635888084,
            -0.11938966597586308,
            0.8766635347313231,
            -0.03568314880141874,
            0.7766902111016281,
            0.18250217585708436,
            -1.057657554074949,
            0.11987381559639569,
            -0.13157312399738158,
            1.0418978216980714,
            -0.3750455302437169,
            -0.6383931003276129,
            -1.217735808630757,
            -0.6581946258326395,
            0.3815375859646846,
            0.3739595381755299,
            -0.9499983517550434,
            1.4009097312397671,
            -0.5485876885662342,
            0.3208476830712921,
            -0.30861647773237016,
            -0.16699616643536078,
            -0.2413916089338268,
            0.04689774579736539,
            -1.335794431068494,
            -0.560564956706817,
            -1.063716339321053,
            -0.07227085520808998,
            0.8076370073305595,
            0.9151193976781405,
            -0.9374214117280392,
            -0.9242761296778311,
            -1.1250158129611691,
            1.1296276961480287,
            -0.47128773437219024,
            -0.9391179466615174,
            0.29422160097518746,
            -0.5530544652419315,
            -1.3273991968777457,
            0.07836297056309091,
            -0.15770850645674386,
            -0.13851498687268565,
            0.7645817250933348,
            -0.6600944716909734,
            0.6819907072369624,
            0.7185084232271848,
            1.2340843190707582,
            0.7953179398596402,
            -0.8862311971855507,
            0.901594357420619,
            -1.3470254326695028,
            -0.8481961632881286,
            0.41410717406706765,
            1.197946612940679,
            -0.09302557087148423,
            1.3510625157556468,
            1.2878231361372647,
            -1.0561450397593308,
            1.0028546691893598,
            1.1211279460182912,
            -1.2383101168574289,
            0.5397281998821971,
            0.07594756748667666,
            -0.5599678662855261,
            0.4619270755647441,
            0.228801151547837,
            0.12439935948078241,
            -0.14250680397313628,
            -1.3455431289785655,
            0.4823141886828873,
            0.8899425395216123,
            -0.5449542254881771,
            0.8258813973788768,
            -1.3194998064338597,
            -0.598733562433925,
            0.8180700023862143,
            0.5139415709248463,
            0.0025484303818364895,
            0.0028024823447169995,
            0.16554356084625918,
            0.5855847120025314,
            -1.2350155506241198,
            -0.054502427028685886,
            0.44802322669977374,
            0.3992348880170072,
            -0.043127204929902914,
            -0.6880105553931788,
            0.40094082926807256,
            -0.055440105144386985,
            1.0175983210770152,
            -1.1353686417391977,
            0.3866411293145139,
            1.1659033718352994,
            1.160201891271837,
            0.6145060468908904,
            -0.21479614645792627,
            1.407430429074793,
            -0.09296332441914353,
            -0.72223118095819,
            1.4085505704993884,
            -1.2784988715764114,
            -1.3402507432404929,
            0.8372976242259633,
            0.9451457654753832,
            -0.9015637500267201,
            0.22954506862640614,
            -0.5886532034980644,
            -0.632789560081167,
            -0.926923397846589,
            -1.375622061593576,
            0.9724687333403471,
            -0.6387144733070013,
            -0.6596668966831445,
            -0.9329458409571844,
            0.35777177487935113,
            -0.9603143026910744,
            1.156353591802043,
            -0.3644370169937234,
            -0.5716341562248052,
            -1.1298314004499532,
            -0.5343863230194994,
            -0.7594796133927096,
            -1.220303757633588,
            -1.312160459997216,
            1.0255311308320316,
            -0.3497469921576838,
            -0.8620752647518645,
            -0.6193649120280164,
            -1.079686116020806,
            -1.0026818369150545,
            -0.9910776670201878,
            0.12219033269238115,
            1.0370860896797454,
            -1.1630519472474037,
            0.3152216493666374,
            -0.7043112820727114,
            -0.6403114809212395,
            -1.2549352951846853,
            -1.097219362553576,
            0.8516252413059586,
            0.5813567656705759,
            -1.3963750686480971,
            0.3921518068437183,
            -0.3423212692385795,
            0.8813351752843386,
            -0.8514760286319561,
            0.5605741814322689,
            -0.963004200426697,
            0.8548696275064448,
            0.8258031866148973,
            -0.8049923230394139,
            -1.2673013672444902,
            -0.08816804920467093,
            0.11145384603860797,
            -0.3419831128616089,
            -0.37269277097795267,
            0.1257740468271135,
            -0.9796952512684362,
            0.6208320772949665,
            -0.06596500329877696,
            -0.9615948461512767,
            -1.089174445766589,
            -0.05663971680431236,
            -1.2665005977209185,
            -0.9689456365367519,
            0.2344174186185782,
            0.3870520914809085,
            -0.9899318957530153,
            -0.521647516351118,
            -0.3413279831283413,
            0.5419060085685696,
            -0.2040988401454423,
            1.0631163017282768,
            1.1346569905803758,
            0.2908600574647924,
            -0.0769358230100626,
            -1.2944997531332583,
            0.11134779463768628,
            -0.9056910765093336,
            0.18298150869001514,
            -0.48491614337392874,
            -0.762573601936469,
            -0.1693203253218769,
            -0.8444823775828143,
            0.9029995058397849,
            -0.44174789549295357,
            -0.6605537893513098,
            -1.2800839111493596,
            -0.07007935514243802,
            -0.9913641411187712,
            0.5080283109584044,
            0.16927181125390262,
            -1.3128197609602903,
            -0.7801504516013061,
            -0.27134702947993405,
            -0.5022331252137525,
            -0.8893247748630965,
            0.5493613650145218,
            -0.65576543260126,
            -0.11198113245699737,
            -0.17640325222675443,
            -1.0036118200393458,
            0.8712883508694904,
            -1.099767834372897,
            0.4341553764191661,
            -1.0328147990373397,
            -0.6225765222870951,
            1.225624251094518,
            0.5627693932246769,
            -0.895313737441832,
            -0.49048122257413435,
            -1.055327589413514,
            0.2836706029030119,
            -1.338662803496202,
            -1.3664725575731822,
            -0.4903777371303067,
            -1.235397463412373,
            -1.1430261789647107,
            0.811224162076072,
            0.2063057077532207,
            -1.4370861593100128,
            -0.6616859837562064,
            0.34921965882869693,
            -0.8648512406325851,
            -1.2171725953623496,
            0.7729786173715412,
            -1.234056036222225,
            -0.9503798567731093,
            -0.07457763762561498,
            0.6288391730087631,
            -0.09389225547427245,
            -0.2569730000018029,
            -0.2718695260157385,
            -0.7219280057954456,
            -1.394087706388218,
            -1.3956367120377497,
            -0.028588430769859046,
            0.1643169244025456,
            -0.05411578243140016,
            0.14632722851002225,
            -1.3538362105264132,
            -1.0820459195971277,
            0.22903055407258519,
            -0.8020332086389587,
            1.394953883508113,
            -0.7189126548857704,
            0.33761496886702125,
            1.238849413067373,
            1.319656599069171,
            -0.4443006127405362,
            0.8216853210187558,
            -0.577335915458087,
            0.7230694473143098,
            -0.10388515698185072,
            -0.17894347743838598,
            -1.2989787585749735,
            0.18501119881898995,
            -0.12416842771574388,
            -0.9166442680359981,
            -0.603241684752922,
            1.3450049684747567,
            0.3319014340814529,
            1.3385424967709731,
            -0.47883532283934716,
            0.6880785464204595,
            0.22548532637968338,
            1.3550712361755834,
            0.0839262981191954,
            -0.9870239479822512,
            -1.3834493086626494,
            -1.3496694449208355,
            -1.0899459351383634,
            -1.0596658297812833,
            -0.45091285908427214,
            -0.7519235782897832,
            -0.4067763179634449,
            0.38036894645172026,
            -0.17076792678527225,
            -0.23444353215746525,
            -0.23101724562383996,
            -1.0874177774371503,
            0.3399536066535715,
            -0.12464514617619059,
            1.3579820592540515,
            0.20492474462861138,
            -1.055328993900473,
            0.07859992359013042,
            -0.09674732668210467,
            0.6636587033688127,
            -0.23782419868848706,
            -0.6327312471791791,
            0.1813635192061802,
            0.18313655812920462,
            0.8779168666075705,
            -0.5214512050820811,
            -0.8366945772430592,
            0.014183929874032978,
            1.0770602308084194,
            0.7054775296018791,
            -0.7814879113943833,
            0.8653422462020895,
            -0.9752453620924,
            0.45034574317321335,
            0.18911878785785616,
            0.7863549408559909,
            -0.6787737880368546,
            -0.37434798834362304,
            -0.23229540986206268,
            -1.055776328288344,
            -0.5620250613279237,
            0.9258097441668615,
            -1.374715569233748,
            0.493225533593593,
            0.5632232959182905,
            1.3892521154079847,
            0.14186971905531762,
            0.5219500408701755,
            -0.73341258679098,
            -0.58858587630279,
            -1.34858940916623,
            0.3216119335686824,
            0.13057250867686707,
            0.0475133237695241,
            0.42002770231946535,
            -1.0841128921703755,
            0.5304894600681364,
            -0.5809030097117965,
            0.7878474883418805,
            0.7485147041447789,
            0.735044783239653,
            0.17587050535778612,
            -0.8483293410643684,
            0.7599175948698905,
            -0.8821750914830218,
            -0.0004784826979981875,
            -0.7699351594755336,
            -1.2038919679282825,
            -0.9993069250465614,
            -1.3475608039399891,
            0.849241495460258,
            0.9589879564541471,
            1.3029182754763136,
            -1.1406452933867155,
            1.4069721944586866,
            -0.0968963802179061,
            0.5284421409358457,
            -0.10659395561707823,
            -1.1590426723766052,
            -0.5135562643940385,
            0.8843959736793181,
            0.421842145142139,
            0.47072930150202236,
            -1.0473659091340728,
            -1.2744850602903568,
            -1.2249769366365495,
            -0.9088336050267376,
            0.15841429955958977,
            0.6796215315742481,
            -1.1647562575561836,
            -0.7136730497064085,
            -0.21255723204870827,
            -1.1048615954421224,
            -0.0776536044972175,
            -1.3512962640674402,
            1.221470968382943,
            0.5641208429102214,
            1.4061946401622596,
            1.3259627559627511,
            1.303171041768419,
            1.3003812189967345,
            -1.1278431723303795,
            -1.2432371956688457,
            1.3431892028972483,
            0.23254100353459567
        ],
        [
            -0.795665997785998,
            -0.9850374458223794,
            1.3421652822488306,
            0.9696871702726144,
            -0.8519865549204239,
            -1.3083623938148574,
            -0.46404235976779895,
            0.15660258736333874,
            0.9450660436300053,
            0.9177146306982298,
            1.028895815847789,
            -0.7603325411558132,
            -1.3438929403581272,
            -0.07693006904389303,
            1.3183793589077921,
            0.22785529454713963,
            -1.102570486138809,
            -0.8711613853011525,
            -0.40381717181900834,
            1.0457853318700487,
            -0.47776585565672797,
            -0.7380449810108045,
            -0.7455885735275508,
            0.7010229080574963,
            1.1459843426484786,
            0.1361877011242562,
            -0.35175054044051246,
            0.46805009599368347,
            1.3314121234365137,
            0.32508172094752524,
            -1.3601071975464374,
            -0.30948570085298044,
            0.44307187689822236,
            -0.788594962656862,
            -0.8773695696334004,
            0.11843781223163527,
            -0.6641842936058899,
            -0.4657089106882013,
            -0.6737506539688634,
            0.24818262313220882,
            -1.0434146484294664,
            0.49885170081843916,
            -0.27971331650964354,
            -0.9135880758667911,
            -1.4109964756368583,
            -0.09234725311563187,
            -0.03444764516679531,
            -0.8143462733814174,
            -0.34711484231646167,
            0.6029696158328874,
            -0.3389784673862041,
            0.962645689612868,
            0.6386964587748575,
            -1.3636606082459866,
            -0.9667818717618991,
            -0.3110116313015315,
            1.021914757480663,
            0.3922420043164709,
            -1.2638455009235041,
            0.6760346632977755,
            1.4093277511671265,
            -1.2037792850580367,
            -0.3690417930155053,
            -0.294927309212916,
            1.036824711105263,
            0.15926998848631954,
            1.044393069869786,
            0.10336480843217559,
            0.4033422608537813,
            1.129384064971853,
            -0.9275706015723673,
            -1.2607425637050647,
            0.04971367300261557,
            0.5190610199063567,
            0.474894956509265,
            -0.6180581953260197,
            -1.0281375157752772,
            0.2806132991171872,
            -1.3856179031699254,
            0.3508049979143618,
            0.48783928662602466,
            1.1290986050780665,
            -1.0258693686034102,
            -0.07681793078727016,
            -0.35958999126164565,
            0.20442096421515218,
            0.5283991668025312,
            0.43902476186246286,
            -0.06039245381771482,
            0.9366029660596784,
            0.5900024338947422,
            -0.8434264308085233,
            1.3612406274536337,
            -1.2162394960985594,
            1.0462452427940199,
            1.3337378532838382,
            0.34037088825799977,
            -1.099544015445544,
            -0.04322714109339228,
            -1.3755171236488697,
            -1.2798023783656354,
            1.345225740109407,
            -0.7997191478944389,
            -0.4763581476217013,
            -0.5009791904865762,
            1.1673816629245142,
            0.7277910149156874,
            -1.1555118076946433,
            -0.9020896918636575,
            0.5086594600790315,
            0.9158179050470725,
            0.49258418711240015,
            0.7698619474139163,
            -1.3899944982569925,
            0.05861062511168997,
            -0.006719952409762273,
            0.9724830046875282,
            -0.6311475011353851,
            0.44716948186723,
            0.6142096601656917,
            0.6358189113428913,
            0.8319819483479959,
            0.7443807337220112,
            1.2458810135718428,
            -1.2912871548002085,
            0.6521128580891765,
            0.3586446107828224,
            -0.24739606358039204,
            1.2397352293043464,
            0.9296213738225091,
            0.22935127849973208,
            1.1791300717851243,
            0.20881769713325568,
            0.27336003491993915,
            -0.3152695425345684,
            -0.5588423720360349,
            0.721329700766494,
            0.2152970610575635,
            0.795295340891212,
            1.2850708742934047,
            0.1390698400970054,
            0.41413280084495574,
            -1.2521309608299218,
            0.8997703776317517,
            -0.258342625395147,
            -0.7567266772629239,
            0.7076160014837592,
            -0.8433674173203312,
            -0.3822569174350662,
            -1.253219360301743,
            0.1828943357731994,
            0.20059348644694316,
            -1.151976498542506,
            -1.3147283602810411,
            -0.878603133936585,
            0.6311882075643428,
            -1.1917562707849565,
            0.20327253634117387,
            -1.2484907315735245,
            0.9910925146456865,
            0.3555521735224357,
            -1.1990918976000888,
            0.22275095973289005,
            -0.08148038873564126,
            -1.3393599164374432,
            0.39018826665274947,
            0.9520308648464437,
            1.084116301390771,
            -0.0760262251222005,
            0.772767759739586,
            0.6872827938045257,
            -0.29760151947587016,
            1.3066490789392324,
            -0.07578120558972551,
            0.7225376638543002,
            1.0278620102123002,
            0.3054757495259649,
            1.0437870880541427,
            0.22669893129957408,
            0.7474873814731087,
            1.3989234635147434,
            -0.6270589001104931,
            -1.094705279166688,
            1.2172523285446555,
            0.08237333371192959,
            1.136747381784837,
            0.715224031892809,
            0.5076444745389639,
            -1.2986961960610761,
            -0.9105626331137793,
            -0.39320503082622027,
            0.9452885010005047,
            -0.6884563122882366,
            1.2831604239478323,
            0.019328905725373647,
            1.3223872240779395,
            1.1128144345754423,
            -0.37766179005376765,
            -0.9047489584797286,
            0.25417675742798285,
            -0.8999516475881438,
            0.32247661660009813,
            0.1418105757017442,
            1.0271219974182706,
            -0.43731572858551804,
            1.0261234718589625,
            0.1296622955023055,
            -0.791307300410697,
            1.1231287658715672,
            -1.3536368172951778,
            -1.2046527617221776,
            1.1539653860890529,
            0.16714043549929983,
            0.9283609237193774,
            0.6006192831135169,
            1.1625797092995485,
            -0.8944474776421052,
            0.5027466321489897,
            -0.318016868516888,
            -1.1746392981547653,
            -1.332369297344085,
            -0.3103658476341079,
            -0.9842277580402975,
            1.0386155683668115,
            0.6967651499706775,
            0.7725430230767866,
            -0.4293027035425067,
            0.22261223949239237,
            -1.2803377835863845,
            0.130312187744339,
            -0.510960477590529,
            -1.2351241062483236,
            0.2961232209011481,
            -0.2846999375801687,
            0.7623063211452173,
            0.8186246362835952,
            1.1271397289237417,
            -1.0057378197124116,
            -0.7147775345777749,
            -1.2172389796331653,
            1.073119513206766,
            -0.7755881591362823,
            1.2846227316558811,
            -0.898536011130704,
            0.5320517119047208,
            -1.3169837582201402,
            0.4658287493468721,
            -0.9870227445825849,
            0.238394105177345,
            1.0923426894144779,
            1.1934018217247213,
            -0.7534047275296423,
            0.15634848028736958,
            0.21697440623956188,
            0.5938866250132321,
            -0.15575928462145505,
            0.5155477432477266,
            -1.3489717257442166,
            0.2963308447349395,
            -1.3738568157881443,
            1.1286647364995288,
            -0.5711810900191897,
            -1.1655296990257475,
            1.179384044274193,
            0.28542396612967624,
            -0.0975462976573671,
            1.183723752130763,
            1.222282980349131,
            -0.4534957128916107,
            0.6399939760802232,
            1.146676741331255,
            -1.187493943490675,
            -0.7222646904907835,
            -0.18174786671825519,
            -0.45640313925377557,
            -1.1714107109955034,
            -0.23373271960751896,
            -0.13177008655769012,
            -0.1004504462596927,
            -1.2942002089354196,
            0.31344072669084533,
            0.8765297996066356,
            0.6637815552912468,
            -0.20339673846892062,
            0.49060152879784036,
            -0.3239032832957089,
            -0.16601282972726947,
            0.1638648170915341,
            -1.1581279272414986,
            -0.397402608152505,
            1.1304123600111549,
            -1.164104284411646,
            -0.29722341982110306,
            -0.02431013429257835,
            -0.9439390388935598,
            0.03787914233995095,
            -1.2228964169011325,
            -0.7630593209220367,
            1.4033721420565224,
            -0.5954592521581392,
            -1.0263169581603113,
            -0.500603711203403,
            -0.9125654936897164,
            -1.0273407637560787,
            -1.1732457037741735,
            -0.011076997545205877,
            -0.030755105491760536,
            -0.2835507555392653,
            0.3594078872975552,
            -0.07099290337082069,
            -1.0047716844835608,
            0.5911252956757451,
            0.23895834414999426,
            1.3692880444587514,
            0.019512374413603463,
            -1.1215849771008939,
            0.19236598307192196,
            -0.8444360196732181,
            -0.4748407741941591,
            1.0905054649277568,
            -0.951797684239259,
            1.0402019798621862,
            1.2826839943345134,
            -0.05465422090561825,
            0.6272423155215089,
            0.4269529533001726,
            -0.04827462357953775,
            -0.012590843730194102,
            0.2813338959469938,
            -0.8275646579574006,
            -0.3695124861481056,
            -1.1720848550388383,
            -1.272174033865787,
            1.0776539370252376,
            1.144789439437106,
            0.37182141695537696,
            -0.8351944981502835,
            -0.3262125748332297,
            1.3547432121107197,
            1.2358362143965285,
            0.6959787128240149,
            1.315730892989406,
            -0.3176146275137546,
            -1.0899028707090637,
            -0.386853063761999,
            -0.3188389529480303,
            0.25518918156102294,
            0.7003771278924773,
            0.09737537971247044,
            1.0917730382977706,
            -1.1097532136855746,
            1.2409005790514758,
            -0.388823020096806,
            1.07726076313107,
            -0.8351124482898933,
            0.7931881282915593,
            -0.14088201265692887,
            -0.5289765755773373,
            -0.13127595821665203,
            -0.6954342401609386,
            -0.5162327391755969,
            0.12984503394650923,
            0.9187509582784632,
            1.1823005534726918,
            -0.05174162668112197,
            0.14751258551410038,
            -0.3952286665967872,
            -0.4213969450366138,
            1.015511904742216,
            0.9224726841063673,
            -0.5213753960827465,
            0.6295744990851149,
            0.49522134994950184,
            0.5384380924724336,
            0.37856980797714573,
            0.9152001857240168,
            -1.0211570947170348,
            1.2460396390039463,
            1.3939455140551729,
            0.007928788399723026,
            0.173942015434737,
            -0.7447196284943004,
            0.2639580090785747,
            1.0640960946901579,
            0.6750318846573443,
            -0.86983452699274,
            1.11499561336197,
            0.07113158703133976,
            0.7943934026338604,
            0.7047275408260779,
            1.275800604356967,
            1.2197987865568491,
            -0.8293487129672019,
            0.7892175029757943,
            -0.9969841379020002,
            -0.17019471841387196,
            -0.3507314591179221,
            -0.38870091422017383,
            -0.05561697248492513,
            0.8514102385201798,
            0.6095070464887467,
            -0.9336287049577509,
            0.4985055431520805,
            -0.9557829204019077,
            -0.9763164597313936,
            -0.33004494527127415,
            -0.3484829082708204,
            -1.0368597888687698,
            -0.6100187481460868,
            0.5688450834602848,
            0.16542275720441782,
            -0.7861051556162322,
            0.326305821980392,
            1.199409626434284,
            -0.17155848281875394,
            1.0049339563687125,
            -1.1249644805951526,
            -0.9191802698262748,
            0.025662464302743278,
            -0.8216679285523648,
            1.0541002329303464,
            -0.6516592021058829,
            -0.6739244835212885,
            0.9822361293812074,
            0.6288758281073582,
            -0.6423963831079842,
            -1.0687059750827532,
            0.7331394507718462,
            -1.294643898912077,
            -1.1239916615069172,
            -1.1094839367727953,
            -0.32952547033667,
            0.19886718000062759,
            -0.16757347887419197,
            1.2869514246512563,
            -0.022249957879341385,
            -0.9564421760089221,
            -0.9726346580839915,
            1.3484765622736878,
            -0.7765162484064105,
            -0.4239444627300289,
            -0.5286070265976212,
            1.0570707033952937,
            -0.28140472915412124,
            0.4214235490011231,
            0.47998035226827185,
            1.2726790815091156,
            0.4379164506327638,
            -1.3243024901550047,
            1.1126191865837074,
            0.9532822540005413,
            0.5158387867250844,
            0.7748241634175295,
            -0.18283659366097618,
            -0.55551874849095,
            1.2973433667062781,
            -0.45806576080378464,
            0.314593866178301,
            -1.4135543513800577,
            -1.0383826555903843,
            0.6411332292536392,
            -0.020742545055583837,
            -0.7771004552891428,
            0.2037058472916481,
            -0.9175198956153068,
            1.3307193708482263,
            -1.010437281435161,
            -0.16864163950212244,
            -1.2276810727090708,
            0.8914751005609348,
            -0.33151106113023326,
            -0.5877063496346133,
            1.3454022890443689,
            0.7636287736568822,
            0.9856058964100322,
            0.90293834671042,
            -1.0326723051704694,
            0.6539529339961919,
            -0.2348502177446998,
            0.45950552064614913,
            -0.47940683014310126,
            -1.0979149814936298,
            -0.7181101223539417,
            0.014973025332892215,
            -0.37103097229621085,
            -0.5572063676287466,
            -1.2632203679164944,
            1.3891623073537094,
            -0.8033991484657558,
            -0.4899989657881497,
            1.3531569040168678,
            0.7196965361131282,
            0.6351405553937612,
            1.1768103233306175,
            0.8195175128252595,
            0.5388580866341243,
            0.6523758561728126,
            0.6194290964215808,
            -0.35374132509782164,
            -0.839613767867752,
            0.20264771117161454,
            0.704926329797835,
            0.5699741080313608,
            1.2566112265931975,
            -1.29816758030058,
            0.16273038573593862,
            -0.7181479862661035,
            0.69490947134062,
            1.3217892686990864,
            0.04924876405433608,
            1.3104904705080196,
            0.4300314614519389,
            0.4515447618258293,
            -0.6489452272299472,
            -0.07782128566557271,
            0.10139714979365978,
            1.2844038785386427,
            -0.36763901644332814,
            -0.4845901851794319,
            0.5414647382043052,
            0.7187015154280372,
            0.3261899127039605,
            -0.7828486674536478,
            1.1690737318890572,
            -0.9993395664734165,
            1.0206004714116907,
            -0.962187219410501,
            -0.17167291784926658,
            0.9697126199607911,
            -1.388751125719775,
            0.640457833599911,
            0.3194915750567238,
            -0.7852642362758538,
            0.7712633041268806,
            1.0274151897154358,
            0.9186757224785577,
            -0.31252041403405867,
            -1.4041108197991314,
            0.06819353868073709,
            -1.0564055969304322,
            -1.3384461725463033,
            -1.3086843811961941,
            0.8527866459571626,
            0.835368746804674,
            0.7824157203722535,
            1.1832787354610834,
            0.09832239186389911,
            0.9937684896080599,
            0.6240417930570943,
            0.5491864874949716,
            0.36433363366131866,
            -0.7745577403504893,
            0.5730048451982936,
            -0.579451952259536,
            0.6678433167494546,
            0.5365894449556928,
            1.4006682215852453,
            1.1596566020555525,
            1.2384214459147196,
            -0.22825846739505493,
            0.6239108365343664,
            -0.26778075817726643,
            0.6156583406837017,
            -1.4120534303791408,
            -1.2240398507126118,
            0.8973028070531379,
            -0.9263755051703448,
            -0.8420412007330844,
            -1.1150708326476055,
            -0.2344631659043037,
            0.95946527716563,
            0.08934581358104238,
            1.172625152286636,
            0.8527088208691922,
            -0.8704259175615426,
            0.8278193902235059,
            -0.4155720116933673,
            -0.3985894607731677,
            -1.3257072372470748,
            -0.21687584712416463,
            -1.2604092285055515,
            -0.8318638834305079,
            1.2784804593687427,
            -0.6888277150697907,
            -1.294774229213925,
            0.3004209484345435,
            1.1495490353175168,
            -0.8422719705545364,
            1.3168635930583177,
            0.8696793928911383,
            -0.6474709097589959,
            1.0983701031474677,
            -0.10802439968154996,
            -0.7218497720874194,
            -0.3762934405273305,
            -0.43906898401008815,
            -0.6306211066712619,
            -0.6584115629165403,
            1.3851133813019898,
            -0.6830138485451457,
            -1.0989536536102034,
            -0.6786223315628334,
            0.810823275563537,
            0.4393346511733561,
            0.3489998387713102,
            0.0955346514109467,
            -0.7949394322144432,
            0.5774587902729954,
            -0.2769394511875778,
            0.8426613211318325,
            0.6004459127596945,
            -0.014815317751087223,
            -1.2947567809073859,
            -0.21275101155350545,
            -0.710423663070626,
            0.6605739627003715,
            -0.08043585717198952,
            -0.7864306385816768,
            -0.7518520005873074,
            -0.6806803287872301,
            -1.231682424005569,
            0.6451704286190619,
            -0.40083045939233974,
            -1.2984655987721878,
            -0.3126944569828194,
            -0.5590460401056667,
            0.4466519541095305,
            0.49088846670193986,
            -0.6965697947984125,
            -0.9498738983716405,
            0.34619366978776717,
            1.0798553803745579,
            -0.8638052533419127,
            0.19220143958268837,
            0.8747478302708175,
            -0.9545302936362628,
            -1.3214875637656411,
            -0.7445940007016549,
            1.1645459438913968,
            -0.5214996771702504,
            1.0244738940181741,
            0.5963433440667666,
            0.03644228837949953,
            -0.5671027186447033,
            -0.09067000238606515,
            -0.12705033707081448,
            1.0711446179739903,
            -1.205189427136281,
            0.339070955993435,
            -0.6172883475632172,
            0.11302325869558788,
            -0.1814425165684934,
            -0.6941753880836402,
            -1.0763661790664014,
            0.8650366866158122,
            0.2943052251995375,
            -0.783951601247777,
            0.4433500462864531,
            0.24005296482750924,
            0.18964027947591985,
            0.5268318686455549,
            0.9601540670629858,
            -0.6296099498927926,
            1.1474856161233964,
            -0.11574043493113648,
            0.22765409995600114,
            -0.16626028914190205,
            0.16076762387166096,
            -0.4649179131766562,
            0.5181552661699964,
            0.42486078430848095,
            -0.7300641896833172,
            -0.5960448819785119,
            0.7145382181010783,
            -0.12364011891343586,
            -0.9379203697986964,
            -0.3903624127232919,
            0.14788481847833315,
            0.19681346410936731,
            1.241930030194679,
            -1.1985179493925573,
            0.38497224899950344,
            -0.3977315499026866,
            1.1112049258126069,
            -0.569791654619641,
            -1.0949754031133012,
            0.4771908846106319,
            -0.05196749121030315,
            0.5615846742855785,
            -0.5398235579097143,
            -0.9163614854420726,
            0.4562419423058333,
            0.44198195167589815,
            -1.3111532765217455,
            0.39328300550511547,
            -0.30493849954015695,
            0.22650166468831778,
            -0.040346381376792355,
            0.9919824805629834,
            -0.35070298949034967,
            1.382594923742584,
            -1.0357813649445609,
            -0.47259739338944734,
            0.6577661452124195,
            0.9703426301663786,
            -0.737232796887938,
            0.5379644771503116,
            1.0064195986833973,
            -0.5764961965818404,
            0.5052984282447336,
            -0.33144922002597044,
            0.1283992116731432,
            0.14532286284996865,
            -0.05810790199883965,
            -1.0697267382988078,
            1.3182418073934394,
            0.8352276269416344,
            -1.058809324227051,
            -0.341960751618562,
            -1.1482963067788536,
            0.3331611467423744,
            0.3769152507838373,
            -1.0884924277950296,
            -0.783291753470086,
            0.3609907762064065,
            -1.0873753792810767,
            -0.0847189596290619,
            0.5004867119464042,
            -0.032725844276155165,
            1.3062651967665795,
            -0.7619426391553706,
            0.3954371565073514,
            0.9335677965740926,
            -1.197685352258633,
            1.394273687846585,
            -0.855840405944459,
            1.1276388033782523,
            1.356464587762491,
            1.305928765127036,
            0.3939352249991679,
            0.7113662009645169,
            0.8179481951425225,
            -0.3364776871950184,
            0.08127714937459565,
            -0.8489415474816784,
            -0.5006505007934208,
            -0.6981875418956036,
            -0.6957760268229088,
            -0.09467760505034903,
            1.195786009855464,
            -1.1048452319793498,
            -0.6882239171216183,
            0.9243813177965974,
            -0.17475971543477378,
            -0.9579018589854245,
            -0.647634737778925,
            0.49434446661905107,
            0.9634959419365939,
            0.7839008429077601,
            -1.0085077193111631,
            0.9773085273108151,
            0.7306154621834939,
            1.3691488519766237,
            0.7497229761025532,
            -0.14454761750195436,
            -0.3417233895989782,
            0.5247676653650845,
            -1.189057328369482,
            -1.2724803171826,
            1.2308465682678733,
            1.2887308708131997,
            0.21227059482648833,
            -0.6381747544084085,
            1.3735118164076028,
            -1.3574634640957253,
            -1.181924794524244,
            0.05333545154871429,
            1.094189865661895,
            -0.9698851429945122,
            1.0851368776940598,
            0.28853463384022904,
            -0.4396217207156069,
            1.407683133463359,
            -0.28189721597722944
        ],
        [
            0.8494934443858395,
            1.1684834723978348,
            1.378652112185066,
            0.19930730850927061,
            0.9485652746026989,
            -1.3400510834620665,
            -1.0845988226756151,
            -1.2873392326829096,
            -0.26993102896194965,
            0.7348906645285573,
            -1.4047688925946333,
            1.383311597364603,
            -0.7677700452110193,
            -0.46924433441176394,
            -0.04665658716416444,
            -0.07326110101892251,
            0.11457251867862707,
            -1.305105637512746,
            -0.23493931748083194,
            -0.048514908139265636,
            0.3208884067957158,
            1.383235440970043,
            -1.226699965890101,
            1.184853744247264,
            0.4985840273402939,
            -1.3604245233694838,
            -1.0334640817505152,
            -1.001445769255966,
            -0.6401050523631865,
            -0.16620733078611374,
            1.0577347147250584,
            -0.20824175282960622,
            -0.006861797889403944,
            1.0834275085688867,
            -1.0150991369784301,
            0.09655215739409871,
            -0.2988211590090287,
            -0.8308980007498911,
            -1.308395301029396,
            0.8503619429416364,
            -0.20323943071538364,
            1.2166147110606091,
            -0.05997476418273734,
            -0.5635365566938406,
            0.9485528750604706,
            -0.7811310158333841,
            1.0057839885736126,
            0.5305467578359746,
            1.2303253799191773,
            0.7825036540686966,
            0.6444962258603927,
            0.886109200013771,
            0.9599401673298581,
            -1.1998744778177446,
            0.21837895243202235,
            -1.0233385117242018,
            -0.24537778162181148,
            -1.2939365657234883,
            -0.09039970286743158,
            -1.1092522646402991,
            -0.12300268450394457,
            -0.6975881915598049,
            0.08330460516352783,
            -0.5263559890584554,
            0.07131922570188567,
            0.7692237766481125,
            -0.358767050268615,
            0.30720886629733407,
            0.47191258731796604,
            1.0949828143060398,
            -1.1218309121910754,
            1.1695510097509527,
            0.7615066743350403,
            0.9156433176756855,
            0.5467618210983106,
            0.2252295644667611,
            0.5323147465476031,
            -0.07210601115983639,
            1.3418431010525302,
            0.7545285247760998,
            -0.30424340272931694,
            0.2977555146254625,
            0.04369013535313628,
            -0.084972859297778,
            0.47788489415098995,
            -0.6072415667782555,
            -0.6581553832252046,
            -0.4023434469713778,
            -1.2828874239025552,
            -1.1300272800565232,
            -0.3834320574980237,
            0.7037324482294417,
            -0.10797203752730984,
            1.2704723216756053,
            0.3227152083490689,
            0.28001491043862553,
            0.4795205682532246,
            -1.1860715089133829,
            1.3707704826748308,
            0.8721109931592019,
            -0.39905066223962105,
            -0.08377759000389015,
            1.0111628763866813,
            -1.3377863274805954,
            -0.27810905794032537,
            -0.5629396508306058,
            0.0933938338373368,
            -0.9910128509659422,
            -1.2420354650826493,
            0.6557062177615114,
            -0.9402917265291261,
            1.2798455180820947,
            -0.9147470279777513,
            -1.0460052771594894,
            -0.1933114383568999,
            0.46210211893814285,
            -0.8848341487209277,
            -1.0430580893970725,
            0.1893565103746914,
            -0.22182539985082764,
            0.8956329806722139,
            0.6128854383859643,
            -0.3010568606364467,
            -0.7551249264704607,
            0.9905749227310621,
            0.6675744841420854,
            0.7235281298567928,
            0.6709896112368787,
            -0.28762925248136584,
            0.628501465876969,
            0.13031816202345992,
            -1.2200245462000752,
            -0.8367873091089663,
            0.6687227551319538,
            -1.175300333127509,
            -0.049554367967266144,
            1.2705501260826002,
            1.065117309089133,
            0.8229398506715593,
            -1.3513663500288366,
            0.43268811849253663,
            0.3633279351822034,
            0.34454127697523285,
            -0.7247663607512033,
            0.11620628559287688,
            0.4032859890728327,
            1.198370710248212,
            0.8601034555183873,
            0.570150556654929,
            0.28420999333064684,
            -0.8351853070675959,
            -1.14628344202363,
            -0.6930543114303641,
            -0.043791553862928906,
            0.43694484706100667,
            0.11810381786072423,
            1.2905191903209734,
            -0.2225013270096194,
            -0.33790612735132225,
            0.3603965945162176,
            0.6716066173334488,
            -1.3774417407151807,
            0.3191354717665271,
            -0.3581302261146903,
            -1.296873595034442,
            0.4849443594030172,
            0.19034400702777787,
            0.7503340098924837,
            -0.18860773909342077,
            1.1146527259990848,
            -0.07251952860962332,
            -0.6523757912802901,
            0.6669332128040665,
            1.1231186940401852,
            0.8752549857704192,
            -0.4236529115869679,
            1.2368013713690873,
            0.5820224576671804,
            -0.7766854151968796,
            -0.5854769126317715,
            1.3008865633037143,
            1.1372132580824945,
            -0.11289607626205694,
            -0.4382334363789104,
            -1.26131971948056,
            -0.2600027474602088,
            0.16166222289528764,
            -0.33278035577931586,
            -0.8293019328248452,
            -0.19214926146582437,
            -1.200259867981446,
            -0.3147886420827802,
            0.5647096626546492,
            0.28955329667616503,
            -0.1746720428907747,
            -1.1950341569353238,
            -1.2230222543160838,
            -0.45515662706573523,
            0.10986691501596206,
            0.6320330332165374,
            0.4086061432540251,
            0.02110131741575396,
            0.4236707713441766,
            -1.2214934689271855,
            0.2533151927130124,
            0.22134105760415662,
            0.5240326141631171,
            0.5647181536904889,
            -0.004741669747284053,
            -0.8530296521404118,
            1.395767046193912,
            0.5607731073172689,
            0.901662371320908,
            0.3235717044600585,
            -0.10407840109901896,
            -0.3831205563010932,
            0.46141261304804143,
            0.4727904341271482,
            -0.7850283065469034,
            -1.0904119158785293,
            1.2045390926880273,
            -0.6421510391232641,
            -0.25001914945323633,
            0.26505056496826984,
            1.0266551301338547,
            -1.1258350092114104,
            -0.73275472831411,
            0.6507117719677197,
            -0.031827406246516796,
            0.8345857480846565,
            -1.153699196337231,
            0.9554409570382467,
            -1.351701323845963,
            0.796510531822164,
            -0.9251166752681916,
            -0.671582277091414,
            -0.6240503986275798,
            -1.367966635284512,
            -1.4063616242608075,
            -1.2938180429762256,
            -0.42779337520294125,
            0.4085153303711025,
            -0.8112769190419116,
            0.6253544762706739,
            -0.8827689822731349,
            1.1004990346386891,
            1.3859270989137553,
            -0.23285591819072823,
            -1.277207621355308,
            -0.4493486022461676,
            -0.24108496489560688,
            0.491895700774386,
            0.9630307724111018,
            0.32303160440151363,
            0.402827882934676,
            1.2853652884955424,
            -0.5247751356160592,
            0.7713402172487217,
            0.8241568270420919,
            -0.23908293009439513,
            -0.38502631203234283,
            -0.32482698393744963,
            1.3366912679178717,
            -0.581668246327716,
            -0.6917316329412269,
            1.2600160162524991,
            -0.5023416380168126,
            0.11916691815361635,
            -0.06741961038614568,
            0.06710639143814269,
            0.4868054105736913,
            1.1723056893641943,
            -0.46908223211225064,
            -0.6166658038845583,
            -0.8331961882193838,
            0.11924810015211612,
            1.069349906330157,
            0.8010423618160211,
            1.0692257904577367,
            -0.020965631825509683,
            -0.7753651047884208,
            -1.0689093390329758,
            1.4078155919532618,
            -0.0319102387885002,
            -0.9701492667078727,
            0.8766749679059465,
            -1.0441122095829107,
            1.1488236290042912,
            -1.1839926911682634,
            0.14009908407110014,
            0.021587843607254777,
            0.6809828146521913,
            -1.0303938325955415,
            0.8215579453147037,
            -1.180614631764808,
            0.77834783499558,
            0.14570473801333447,
            -0.6978758871664061,
            0.2824344499822588,
            0.6579626174302385,
            -0.10139691520718717,
            -0.6499587363817245,
            -0.07765092320449832,
            -0.5527283576404934,
            1.0639455519400465,
            0.28326608881721826,
            0.5504828152131022,
            -0.5822366270147024,
            0.8282197838915829,
            0.6279298007658011,
            -0.23437736008400606,
            1.1124033509175615,
            -0.8038514175227048,
            0.9262192453397746,
            1.3940688158897494,
            0.3129956978864917,
            -0.0780956012541897,
            -0.25539012352425894,
            0.48351608251366557,
            0.28784566367365727,
            1.3775132118447502,
            0.08209457122091728,
            -0.4854150873415406,
            0.5287529314392487,
            1.1180624576438685,
            0.005981204671441367,
            -0.4842523615705614,
            -0.56675557570155,
            -0.8619140180935778,
            1.140804258391249,
            0.5179983915531758,
            0.7090319389124188,
            -0.749959030849098,
            -1.277761808180515,
            0.9234399137782912,
            0.8481684104759881,
            -0.6142220730189838,
            -0.6735022648457532,
            0.3936058487954558,
            -0.7055764125640944,
            -0.9201481630515441,
            -0.8042664790104792,
            0.24216151124454816,
            1.2486962340540495,
            0.41499505679845317,
            -1.381384587660532,
            0.4194712890618667,
            0.7471878240350562,
            -0.1339174698474047,
            -1.3809545597864525,
            -0.9029103316510447,
            0.8312763659685299,
            -1.1001073858806754,
            -1.2056692056692975,
            1.1738800449658096,
            0.9399970420225111,
            0.4549301837503889,
            -0.8211845118890444,
            0.04293441751977018,
            0.5603536360602486,
            1.404570392517557,
            -0.6321985256934702,
            0.4035593717964158,
            -0.5779511167810584,
            1.4068999394409472,
            0.7576644274069675,
            1.3246696844934902,
            -1.013197926796419,
            -1.0883991062245815,
            0.6459190345961608,
            0.6723547563150939,
            0.30778618711100225,
            -0.23021911964906044,
            0.8403869821374451,
            -0.6645398240881092,
            -0.5592440905598217,
            0.6742387529504312,
            -1.0614219539459575,
            -0.3220644688704855,
            0.7727711956683759,
            0.9030078855814877,
            0.934149954826077,
            -0.7818859209467391,
            -0.5744985381063831,
            -1.054445397924658,
            -0.603083162213324,
            0.4766444698217103,
            0.5082954823375272,
            0.8181698039138128,
            -1.2234879837769383,
            -0.696276771921286,
            0.017429697371550222,
            -0.6017705500344928,
            1.2794741302848494,
            1.3332102503569792,
            -0.8808556463955312,
            1.1866240229438865,
            -0.15677318948854774,
            -1.2382857746025864,
            0.9236404243012173,
            -0.12489744386709074,
            -1.0130757236676056,
            -0.9643821864125853,
            0.9339163206784343,
            -1.2501403263636213,
            1.190332573137119,
            0.9745211883050078,
            -0.1661878662942508,
            0.701741581682742,
            -0.8727409679562743,
            -0.004067732573359619,
            -0.14048940396438173,
            -0.3624455888713025,
            0.3715728849069211,
            -1.2036074744341256,
            -0.9902992401340052,
            0.8978395652854289,
            -0.6325804742485852,
            -0.876049307046888,
            -1.322864863319112,
            0.9752418997250721,
            0.3254642271278084,
            -0.009351814927109462,
            -0.7464609739607985,
            0.7201968156105625,
            -0.235469678099264,
            -1.3248807444428534,
            -1.2992877962641292,
            -0.15203116920905965,
            -0.93426016684505,
            -0.7276421481803604,
            0.9212140570251824,
            0.6949131404574359,
            -1.3888064085259275,
            0.42765628399913047,
            0.4701197297626367,
            0.10086327839944739,
            -0.09007442796431031,
            0.24561125154870556,
            -0.8011741419465961,
            0.6664198494140148,
            -0.3193642227893446,
            -1.2525575136839364,
            0.3751679039765146,
            -0.9090620522499627,
            -1.2085096781702152,
            -0.20481351882018564,
            0.3721203014493906,
            0.8977554802826381,
            0.47792099497860385,
            -1.1888699952292372,
            0.1049701325173544,
            -0.7988264197654635,
            -0.9130737213339555,
            -1.2054777075459147,
            -0.2875610884495688,
            -1.2318736364202043,
            -1.4078883285044188,
            0.3854824356425667,
            0.33057815231929727,
            0.5781982345395422,
            1.178407458711404,
            -1.0291651905393666,
            1.2500930664742251,
            -0.540280092050561,
            -1.1688544661410145,
            -0.5652846351782662,
            0.06284702975074845,
            0.013892162423743751,
            0.3401814613758413,
            1.2697405138348914,
            -1.1879369009724607,
            -0.7274158626158495,
            1.3210959882660027,
            0.5555547102721814,
            1.1337228151534202,
            -0.9035642741175652,
            0.11033477147529304,
            0.3140573488272678,
            0.18399676704709855,
            0.3891359642651078,
            0.805695428418273,
            -1.302091469410411,
            -1.2021231324647246,
            1.2266607309284563,
            0.3094758512307139,
            -0.05709933555864056,
            -0.5442970133140324,
            1.3794396644535565,
            1.2940613103194227,
            1.136392684349234,
            -1.059289541356867,
            -0.7385271703940499,
            -0.6710108522720517,
            -1.3751806689485113,
            -1.1943640143725183,
            0.1254709050238971,
            0.06884734639513757,
            -0.2980535604177465,
            -1.19890172241859,
            -0.1514572822918392,
            -0.2766631288433717,
            1.291673722699443,
            0.1395757604344085,
            -0.45868539284141485,
            -1.2255509160814642,
            -0.4606992742158584,
            0.9508517161956843,
            -0.19654336040858972,
            0.02881900510311701,
            1.3050905812073759,
            -0.6736846904835991,
            1.3425105403968483,
            0.06163297271087225,
            1.2985129739357397,
            0.745809498855985,
            -0.257761203926811,
            -0.24801142546858165,
            1.3787558922106304,
            -1.1334042584333397,
            1.227327582071816,
            -0.9016864695970107,
            -0.968931877802568,
            0.17960215044917902,
            -0.5390628467559289,
            -0.8367735127178053,
            1.0706682183417124,
            -1.3411641717613056,
            0.3010513502984365,
            -0.33290584319639116,
            -0.8229815722490108,
            1.3152210552164931,
            1.2810056379911743,
            -0.8335099650954001,
            0.5442651822018555,
            -0.6679719603702324,
            -1.0042253422918423,
            -0.3208154258700524,
            0.1323952038379156,
            0.39766663693735305,
            0.7652370350371444,
            -0.23598872722546896,
            0.49108173702018576,
            -0.37340453815163227,
            -1.3593140636519405,
            -1.0261824915233342,
            1.3487752707454856,
            -0.6673496647248627,
            0.819632021177735,
            0.8175766470085255,
            -0.16536754349658403,
            0.7510011459032077,
            -1.3843901842432804,
            -1.190507508715471,
            -0.24316770497609633,
            1.1286832442017452,
            -1.38389720615793,
            0.3095729164488476,
            0.6832529535968529,
            -0.6968947256672233,
            1.302176873864679,
            0.9943835327762125,
            0.894932081204521,
            0.25446318383955047,
            0.9983708016910211,
            0.731923317085266,
            0.6850488863406519,
            -0.9566940133437488,
            -0.8510141530099203,
            0.3743877518572442,
            -1.3745365477466795,
            -0.21099430995030152,
            0.6474384650357778,
            0.85755935822336,
            0.8261799469200841,
            0.2578181420068543,
            1.1720739656967005,
            0.4408197130258165,
            -0.18541466031086612,
            -0.31315580049276237,
            1.3945294844809057,
            0.0877052245167218,
            1.3812743983906208,
            0.21075848525338065,
            -0.01851962470418241,
            0.7865252793964751,
            -0.8384768302920879,
            -1.3122009620340302,
            -1.3582584223896517,
            0.20777309726278678,
            0.3239821316142491,
            0.4118515225642704,
            0.846254073002079,
            -0.1946409928525449,
            -0.9311030334889371,
            -0.9032032716699416,
            -0.10470044998973649,
            0.6527210590680886,
            -1.293650104056234,
            1.0740281107238845,
            -0.8860285335680601,
            1.346866701398891,
            0.24564550964916676,
            -0.19487713774392854,
            -0.8923356444523973,
            -0.7067430456400109,
            -1.1885696984988645,
            0.8028126330803141,
            0.8591797227814867,
            0.8471946176212904,
            0.8320156696291674,
            0.9035830567879649,
            0.3069983368796613,
            -1.0427920769389936,
            0.06643788678192197,
            0.6256315693528467,
            -0.823382570853607,
            0.9998102451847484,
            -0.025110118929960817,
            0.4018055930306178,
            0.8258634131028818,
            0.3503930735518079,
            -1.321658765127621,
            1.3420464264122323,
            -1.4054769834077727,
            0.6852464733982132,
            1.403501059779822,
            1.2455995811934828,
            1.070017014404394,
            -0.8584014768373581,
            -0.46610783668520134,
            1.2427822550741532,
            -0.9206368726587051,
            -1.0334641862962344,
            -0.013222581956740427,
            -0.38003639324824995,
            0.4473168280549919,
            0.43145445097801666,
            -0.031652200767136915,
            -0.307952029090747,
            -1.2224341724469234,
            0.4550550334415266,
            0.35923293052163563,
            1.2683916792140315,
            -0.39012883857791303,
            -0.8800543168190557,
            0.865448478007137,
            -1.4001164649391025,
            0.39420463833928066,
            1.0736247210148357,
            0.675722161750599,
            -1.1883659435894036,
            -0.6548885500799235,
            1.1396282592431797,
            -0.6142271246301365,
            0.7421167475190149,
            -0.9634100016929837,
            0.07450657042302901,
            -0.15964826042313082,
            -0.18110628392001507,
            0.04099863022745725,
            -0.048040834624363184,
            0.1522948271522223,
            0.9223381921510584,
            0.968435706930041,
            1.0982134305510056,
            0.878556896969222,
            -1.36756296323367,
            1.3379178304899284,
            -1.2239706336469858,
            -0.36447990799773694,
            -1.16797778111146,
            -0.720304030360583,
            0.20374922506628243,
            -0.6764361718713211,
            0.5774790002333606,
            -0.024573751882153015,
            1.3206264356713158,
            0.3856102507777127,
            0.747696251885645,
            0.8848867973920592,
            1.0392695449316403,
            0.20799654432358608,
            -0.9157347038429668,
            -1.1809129177264548,
            1.0383487306965904,
            -0.12429336021388222,
            0.8969321045257904,
            -1.103933968717853,
            -1.012471030636696,
            1.2465563159203528,
            0.6509845258628716,
            -0.6358343794920045,
            -0.06658353366678647,
            0.7197569718559866,
            1.1854030655871353,
            0.9406650685205928,
            0.47268119508794015,
            0.20660427857473682,
            -1.3376470184617997,
            0.5118669860050626,
            0.2736442906199106,
            0.2563833872499769,
            -0.2539950028326004,
            -1.1724556228655387,
            1.3004081165266557,
            0.9275421184020399,
