{
    "model_type": "MLP",
    "layer_sizes": [
        80,
        64,
        10
    ],
    "weights": [
        [
            -0.38006137601049256,
            0.932331165192458,
            0.009772937239460924,
            0.3802547956510403,
            0.6360608988183356,
            -0.6645344366896737,
            -0.6728387670473812,
            -1.2957163143232062,
            1.2989260968886216,
            0.9585776460959098,
            0.8067803379486398,
            0.8646549813662215,
            -0.8004979310742381,
            -0.8620482261274741,
            1.333016769447364,
            0.5710292743506193,
            0.07647374846069867,
            -0.4631618778677499,
            0.8134055191681174,
            -0.7484919691193226,
            0.1855796083302091,
            0.7185224415596867,
            0.5380456334068647,
            -0.7318896553065828,
            -0.46566300264293714,
            -0.444106845048221,
            1.0311166570492762,
            0.5949332222574072,
            0.06479887080387885,
            0.08687057235096865,
            0.41521404119199995,
            0.6305511243758651,
            -0.7998239169017445,
            -0.012014250097096283,
            -0.20884677825849238,
            -0.7284759024939611,
            -0.7797390980666569,
            -0.14387367692790626,
            -0.5298962677658831,
            -0.07128592096419528,
            0.7232462252427123,
            0.4338887001951385,
            1.3920257475536313,
            0.46838858788304744,
            1.2830208720955658,
            -1.1402615726425571,
            -0.9344523375687892,
            -0.05923326947739808,
            -0.8252709634407679,
            -1.2363270973385339,
            1.2723292561992152,
            -0.14504343850298318,
            -0.9808011445241737,
            1.248642220862462,
            -1.2638188911762775,
            0.3912879140677011,
            -0.380300465522921,
            -0.609549981699375,
            1.1249099454683114,
            0.10665884906022313,
            0.903765837100749,
            0.013654794800465027,
            1.0576228342994982,
            -0.7557343973614532,
            1.1072962989760098,
            -1.2551222769108246,
            0.4854335499820135,
            1.1882770684093809,
            1.2988068937683817,
            -0.12253175766685447,
            1.3478346537801202,
            -0.8061803713671927,
            1.1315873506191163,
            1.159098652672513,
            0.8292162093836031,
            0.7650833778892263,
            -0.5878979778346273,
            0.9119405300369215,
            1.1433011995659441,
            0.697511015296648,
            0.4089667390650667,
            1.3577848249907394,
            0.09382195433083983,
            -1.2624318641614523,
            -1.0785119237108556,
            -1.0632698625169676,
            0.48988556465377187,
            1.3794625805851344,
            1.2262469293523859,
            1.2790691204122555,
            0.30232586561809693,
            0.18449311900006463,
            0.6668551313026604,
            0.5355657155609992,
            0.5214395227601872,
            1.0579023520880972,
            -0.9866199718513906,
            1.052590491492582,
            0.1364707670641354,
            -0.26027694646539656,
            0.10409325983193089,
            1.1875751917208017,
            -1.370364340613886,
            -0.17151375998058835,
            0.20753120372524053,
            -0.8598439286005416,
            -0.0734298919557308,
            -1.056573064527325,
            1.0964862445425398,
            0.17056785318251633,
            0.701662079533685,
            0.09928350232217138,
            0.5132588964554877,
            0.09566917630647946,
            0.03764278948976291,
            -0.6974375629168874,
            0.15834592122497984,
            1.3572367209185643,
            -0.2700689410043055,
            -1.154282989183052,
            -0.5527777340020824,
            -0.5935059271629107,
            1.3112093773578104,
            -0.5978452192334907,
            0.5690587147386947,
            -0.5616660539407782,
            -0.16966331733372406,
            -1.1403751697985989,
            1.0010501951208823,
            1.2123863495810026,
            0.008334664645817353,
            -0.06724208323451351,
            0.720626750426703,
            1.186096416040286,
            -1.1896495105111518,
            0.05253071694887794,
            0.5663566330905141,
            1.1056110688639953,
            -1.101807707263161,
            0.6997675901061108,
            -0.4847034043286139,
            -0.5072434280133135,
            0.36214141179025094,
            -1.0408878134931538,
            0.4676002743185273,
            1.1408716412822875,
            -0.6693252004528968,
            0.31616239431192006,
            0.34849804749218993,
            -0.9757192304932556,
            0.3889078904394103,
            0.004521381933417946,
            0.4008433047858039,
            -0.5366748383778405,
            -0.8727886368833708,
            -0.2610361765219879,
            -0.3796812914009246,
            -0.6118642182963692,
            1.243971462320053,
            0.30733185206954805,
            1.0191790204697724,
            -1.395536539292684,
            0.286213009944178,
            0.8541549116072459,
            -0.6890301915078687,
            0.7008473676363042,
            0.13628960086759598,
            -1.0764174759479932,
            1.1589140435446894,
            -0.298865823098497,
            1.1787547980961517,
            -0.7913911871374147,
            1.1273328283711785,
            0.8031032434444333,
            0.6418097703119257,
            -0.00027077222233984913,
            0.7960234799452289,
            -1.4043691330738521,
            1.0297354919914423,
            -0.7215387742798947,
            -0.7796879711221973,
            -0.6559303811635571,
            -0.4994091642823288,
            0.6441569284575132,
            -0.8301506506233939,
            -0.5195217724835883,
            -0.9400477896945114,
            -1.3697821002795778,
            -1.2377299709162755,
            -1.0577553595655753,
            -0.5077336310390834,
            -0.421673519201579,
            0.009664727006512061,
            -1.2943997199944681,
            -0.9491997389921294,
            0.19217392327570307,
            0.12933680188149183,
            -0.2923353811218029,
            -0.26642134860979866,
            -0.832376322878593,
            -1.4058513587355053,
            -1.32729374528153,
            0.048323328814172437,
            -0.25683980045299737,
            -0.31764419723142157,
            1.3617523906871638,
            1.1443298849572443,
            -0.6724923619564869,
            -1.022144855313849,
            1.180093025743504,
            -0.9693309506123086,
            1.4045694601865895,
            0.03331315285897371,
            -1.1997351863626837,
            0.2666029503915259,
            0.36000801245459907,
            0.9367726760925316,
            -0.015185315858124902,
            -0.7274787633702755,
            -0.29340429043118,
            -0.010498525333440143,
            1.3695372631858593,
            -1.0280544511976635,
            0.3057053130931742,
            -1.1300774664642792,
            1.220318527225247,
            -0.5261268512580821,
            0.4207359159440513,
            0.048178069361680176,
            -1.3005936773218418,
            1.3547675866272713,
            0.25759170132750375,
            0.1598249211478641,
            0.6068858628529425,
            -1.1160440753860217,
            -0.2546217472355038,
            -0.23280217375751194,
            -0.610898624018471,
            1.3925996645305851,
            0.8802654062075861,
            0.36942972094961546,
            1.0187319848086636,
            0.5248278176766749,
            -1.3254838186731979,
            0.43541417681907946,
            -0.7548891066560707,
            -0.6479430464184633,
            -0.21763537458178064,
            1.407139118646821,
            -1.3349715632934762,
            0.6210297526511441,
            1.182693828771299,
            0.8103688829857414,
            0.7669576240970304,
            -0.3116882124773352,
            1.3631369334780234,
            0.9124076995295896,
            -0.016325658518667137,
            -0.4847777213757983,
            -0.48779617709652306,
            0.9080367059362424,
            0.9931759357262706,
            -0.8501229327515463,
            -1.1229649333360159,
            0.7046216046775069,
            -0.4543555847943912,
            0.1663195043447755,
            -1.0818245518218308,
            1.3334393436305325,
            0.8126270317685349,
            1.3651723460037006,
            -0.3150431310219706,
            0.06652722880179678,
            0.6089590098546854,
            -0.3149864027062092,
            -1.1307495860876542,
            -1.1947821782757004,
            -0.5104667675230823,
            0.871247678300436,
            1.3089995788790416,
            0.9277371738869032,
            -0.610040374905381,
            -1.1250564652349557,
            -0.2269556357304348,
            -0.9439401402478368,
            -0.3323466980055514,
            -1.057617117115523,
            0.8297684930157244,
            0.7918980956369308,
            0.014353106497026338,
            1.4369964845953738,
            -1.1837120045936798,
            0.7584390733052786,
            0.8498465101591972,
            -0.13684452337055983,
            -0.5344262294679063,
            -0.22001156199180735,
            0.5343576265390066,
            -0.7475326828039224,
            -1.1999747444915452,
            1.341541361738213,
            -0.11900602290795627,
            -0.9308724575326464,
            1.3310334767300318,
            1.3567309185464538,
            1.3724547552036073,
            -0.5830190384064566,
            -0.2455102121429392,
            0.44106539906077186,
            -0.6994637567352305,
            0.3843004650042999,
            -0.8264049117561817,
            -0.6612183128023948,
            -0.7731598866483813,
            -0.7817021618957751,
            0.6540325734499961,
            -0.2286357604441467,
            1.3247843072882195,
            -0.9952418782517629,
            0.8914685703098065,
            -0.9945254719149128,
            0.9298854835272562,
            -0.3135188621109121,
            0.8675087852727936,
            -1.106705885428481,
            -0.7246986955893591,
            0.19372312187345253,
            -0.9394694137042854,
            0.6966804603152441,
            -0.021717494328663836,
            0.7584752327955437,
            0.6064690901891907,
            0.10364142273271752,
            -0.695275035039824,
            -0.2592120150086937,
            0.44210558174036574,
            0.012379870558160077,
            -0.790614738166201,
            -0.6772338438892787,
            0.13679152589973378,
            1.3709494015986992,
            -0.7464790473247891,
            -0.8380970316006573,
            -0.5094637167848798,
            0.809183179577197,
            0.8898595949592337,
            0.22274323325279424,
            -0.534096252827568,
            -1.0680801647459626,
            -0.21283028367181456,
            0.3878342633027046,
            1.1571767483979114,
            -0.8729576101545853,
            -0.6469454352888813,
            0.5159491427015974,
            -1.1160356301531873,
            0.3404981072982063,
            0.9145444876316091,
            0.9213517375457935,
            0.20739703895531247,
            0.07267016517623454,
            -0.1054010075577728,
            0.8872269042720872,
            -0.8647781177322842,
            -0.19251516307380226,
            1.322832540721212,
            0.5142183842939876,
            -0.4428427649495876,
            0.5270202005033368,
            0.9878385550278113,
            -0.6122224606439873,
            0.6873845451192411,
            0.4732167620340561,
            -1.1172999625023505,
            0.7753796541786324,
            1.3545672513477496,
            0.9224212146857407,
            -0.09243408394243507,
            0.8139520805254584,
            0.7483691503590272,
            -0.17471802065346956,
            -1.3028748210271435,
            0.6050918578906754,
            0.19250333714573636,
            -0.5890918089213628,
            0.32023558192316576,
            -0.05471210788391761,
            0.05335339642973471,
            -0.6341777919693542,
            -0.4261232442293308,
            -0.741080136281201,
            -0.8886613560071805,
            1.0799840985804026,
            0.9155222922639702,
            0.013924941697800479,
            0.9576578919011923,
            1.1683123695350819,
            -0.7854816215677208,
            -1.3176003136413752,
            -0.6358710287753732,
            0.11165463427232543,
            -0.25361822857830285,
            0.568888897859235,
            -0.03986576321506662,
            -0.7382878089609978,
            0.3224926341121841,
            0.9722955532376195,
            1.272445670542743,
            1.0946676713361916,
            -0.23668965439327538,
            0.21078943078982124,
            0.91010462651353,
            0.46955592454769335,
            -0.2243906306863413,
            -0.3334924147518701,
            0.7710369803984708,
            0.6298453278499355,
            0.14031578036210163,
            -0.6417457091970558,
            0.2642947055035199,
            -0.9666850659929198,
            -1.2793375484985914,
            0.4053363737986545,
            -0.8319085093703359,
            1.122597113452009,
            -0.8594862525871949,
            0.4332559480752617,
            0.5018754936442527,
            0.3199551185952241,
            -1.2281761294391378,
            0.6434337246319111,
            0.4231485738876892,
            -0.6043240046859298,
            -0.22317246918307873,
            0.5612726666221389,
            0.6335988712109112,
            1.1931298392089245,
            0.7756266020615256,
            0.23352230696020573,
            -0.841351251728404,
            -0.3017320930373226,
            -0.45917295637792627,
            -1.0957873164263887,
            1.3318226287506636,
            0.4039045185962153,
            -0.04922485664525133,
            -0.5735064392806964,
            0.1886043014223944,
            -0.10039821006807455,
            0.4768931016373354,
            0.09453031936178498,
            -0.9466550144562867,
            -1.2774584832899367,
            0.38263749263085817,
            0.5601413834515032,
            0.09551078892454244,
            -1.0403513213085736,
            1.3498490660863838,
            1.3187627637466306,
            -0.1430468288514923,
            0.4308500138047597,
            0.6317132918512804,
            1.1606805530612854,
            0.49159557731267567,
            0.707465952120982,
            0.5102253300939897,
            -1.0124692045928392,
            0.33532175688318705,
            -0.8285006957582639,
            0.1338808306283856,
            1.3227644426577707,
            -0.6663457855981457,
            -1.0200914267556025,
            1.312975817694314,
            0.7596870091228127,
            0.8359652892134578,
            0.036108584924323894,
            -1.3873074871124749,
            0.21674836579771742,
            1.1070117396343278,
            0.9321606054010324,
            0.10221789865032159,
            0.28847468230383866,
            -0.3496788718923285,
            -0.6899771154327753,
            0.9395419432538277,
            0.36331843156116134,
            -0.8866377159270468,
            -0.5236061178748644,
            -0.06380769337569266,
            -0.20313456741161928,
            0.26243979922649074,
            0.6919138526129479,
            0.6362817818089531,
            -0.7129821872984081,
            -0.860601567401868,
            0.8537335155903393,
            -0.2739615838365705,
            0.006478373267478564,
            1.1315835861220545,
            -0.09576199859631535,
            0.4134333303001568,
            -1.2836402024114015,
            0.2699977435907919,
            0.21859274363942702,
            0.716586599053074,
            1.2377241291034353,
            -1.1526255220482078,
            0.2293805968187668,
            -0.18987078650345693,
            -0.07139972521483147,
            1.0391408442326358,
            0.8100617760392784,
            1.3676638242136319,
            1.3085611494144958,
            -0.35730402699243213,
            1.2142578515417886,
            -0.15184026564216793,
            -0.5893425064159753,
            0.7880561037046525,
            -0.27347711849515227,
            -0.20232752461155876,
            -0.773252052782523,
            0.5696424269015697,
            -0.06902235527883659,
            1.1254585177466196,
            -0.25175240163999985,
            0.055034810642189916,
            1.2596534664553096,
            0.7739793811164771,
            -0.0017282709752509799,
            1.220365298600839,
            -1.251542838304531,
            -1.181314422964263,
            -0.9148590875491878,
            1.163255370474838,
            -1.1757126933763422,
            -1.2011940186193673,
            -0.9898358943704573,
            1.3750366663644362,
            1.3267994954824267,
            0.5458487092822213,
            -0.38451999079188,
            0.0933627042415419,
            -0.4139916996671473,
            -0.6424301712164726,
            -1.3637468544324165,
            -0.18844705504182852,
            -0.5186916672554108,
            1.0916277830013126,
            -0.18572836777994622,
            -0.7877364281123537,
            0.1471307163811248,
            -0.3966759914046758,
            -1.0039563823490505,
            0.0395922740465578,
            0.9332232151675627,
            0.9217493612632868,
            -1.285212610455719,
            -0.32551385769903607,
            1.2670874055072987,
            0.13902352703385498,
            0.05300638338246202,
            -0.36289383848195406,
            1.3012106339622052,
            -0.9042895085982218,
            0.4768674364000043,
            -0.1343217670743197,
            -1.232782960328239,
            -0.96204306985784,
            -0.06871514708174442,
            -0.48017627359930704,
            -1.0431281990906522,
            -1.1736179736858419,
            1.4288347173161735,
            1.29825868570139,
            0.5291588174606313,
            1.3489484319278595,
            0.5318495644928969,
            0.7180629907719996,
            -1.14676352852206,
            -0.34523445623678006,
            0.41501570359061146,
            1.3983340160488729,
            0.2806871502582862,
            -0.8794373162382212,
            -0.8236917034607597,
            -0.14580094494058016,
            -0.8441496760145858,
            0.5601056670629586,
            1.2104572324780183,
            0.9886354224980921,
            1.1764431413393686,
            0.13441161172434626,
            -0.44326331394494567,
            -0.04675952328843181,
            -1.0183789905704117,
            0.7588060593254736,
            -1.2824480056170027,
            -0.0781215492095735,
            -0.012656362788893927,
            -0.21867926106907712,
            0.06704101429534999,
            -1.1690753389902078,
            1.1466174972643197,
            -0.7108216260911571,
            0.45342636768362765,
            1.3730872860322072,
            -0.04622018412711006,
            0.6473241576182003,
            -0.8614344025413975,
            0.27085358732806547,
            -1.3614734261524204,
            -0.2496347908037634,
            -0.6230168707623607,
            0.9061745607774474,
            -0.19672248737623507,
            0.7799644291908908,
            -0.12275785673011594,
            -0.08575962983614382,
            -0.5606738952222657,
            -0.42928443208185957,
            0.6258544956631528,
            0.49506987100126393,
            -0.07928435406555184,
            -1.4168922283285497,
            -0.5022728853328338,
            -0.07135740561649384,
            -0.05115916760356728,
            0.8971318269052307,
            0.5859509475731406,
            0.9800577141347644,
            -0.49770806315931976,
            -1.0220016778972791,
            -0.9926605732346475,
            -0.12231623427429329,
            -0.8028440117543731,
            0.5687967503274014,
            0.5095017786865342,
            -0.9145770114015906,
            0.3509304730782555,
            -0.10412073147934076,
            -0.20762019756118427,
            -0.10276916447954401,
            -0.8810239667742477,
            -0.2651518977542292,
            -0.9716768292475966,
            0.12203308354480506,
            0.676452429061121,
            0.8037436554955354,
            1.2958888845764074,
            0.9638568024595273,
            -1.2419536539280105,
            0.7937668012767511,
            -0.5186514393879645,
            0.6535756428528291,
            -0.9993824801712059,
            -0.4850319041115354,
            0.7758696824538939,
            -0.8653883683461712,
            0.11091148476935604,
            -0.14807612665706996,
            -0.501281313103324,
            0.08585111009152421,
            -0.2918263083602924,
            -0.24455260616441893,
            -1.333590380301564,
            0.4689945971479188,
            0.6012155420871631,
            -0.9691065110851201,
            -0.7520673995006235,
            -0.46503529427152174,
            -0.642551241968855,
            -0.2548263809689672,
            1.4025978449634628,
            -0.22780077232907786,
            0.4244588472618081,
            0.48934361972423013,
            1.3647328193019248,
            -0.06331358712205508,
            -0.07780122352105782,
            0.06660738571866265,
            0.9662124940920792,
            -0.8717429384678902,
            1.3446667271445536,
            -0.021608764724909156,
            -0.2749168428174407,
            -0.3494183298707365,
            1.2809019690806096,
            -0.6976936466010215,
            0.7983749328048043,
            -0.2813056322964599,
            -0.324794332347679,
            1.2221088392949604,
            -0.5269657448383314,
            -0.6710099755360903,
            0.15494277763516492,
            -0.4512597533365919,
            0.43421060117177773,
            -0.3912851161789634,
            0.3496921234369131,
            0.2193620935251127,
            -0.44084338916623456,
            1.1851842689819838,
            0.5083297572953182,
            -0.23451387618077052,
            0.27923914533256394,
            0.0025625944580470387,
            -0.07135176671246539,
            0.30493861778278913,
            -0.6332828524294563,
            0.47259233889473284,
            0.9389529157252122,
            -0.22961625787705792,
            0.2766803598556299,
            0.839479384350232,
            -0.512924630827252,
            -1.1365805291215905,
            0.17776034846068414,
            0.7212711278621018,
            1.0554733650372552,
            0.7912537182750817,
            -0.5039954972722203,
            0.3039048155913726,
            1.2580919213996047,
            1.172395452957626,
            -0.4384018286995271,
            -1.3940819833642824,
            -1.382417870769907,
            -0.22454995578821738,
            0.053877271723290994,
            -1.1800448909073644,
            -0.01917863003743839,
            0.4179067256549619,
            -1.2340284705521218,
            -0.5240500334138407,
            0.27317600861192565,
            -0.07045288546406413,
            -0.7863217371113793,
            -1.3515415436692606,
            -1.3291443255894835,
            -1.0110250635854756,
            1.2744788933154503,
            -0.7796776003015755,
            -0.4331062005389658,
            0.026946467165340944,
            -0.29607778574808186,
            -1.1594346675271057,
            0.7169288610562267,
            -0.09708515696254674,
            1.367854280047693,
            0.14903122019916618,
            0.29342348951152775,
            1.3248062015149134,
            0.3918808256805303,
            1.382172618519307,
            -1.366055569193982,
            0.9091317440918438,
            -0.18107734917584298,
            1.1237359646371927,
            -0.7365377351847936,
            0.354224566423275,
            -1.1624364587665728,
            -0.05497851036076095,
            1.1287511904101515,
            -1.0851392437576894,
            -0.9928518260715669,
            1.2902210972322328,
            -1.1534799843944041,
            -0.9137816652275174,
            -0.4666356263138353,
            -1.3290846484243581,
            -0.0007641290324554682,
            -0.42062010575271114,
            -0.3224685926549479,
            -0.18840129713635959,
            -1.2295269223242917,
            -1.4034030938426383,
            -0.9400303503830358,
            -0.5090970223584437,
            -0.2233741022979215,
            0.16313203884153663,
            1.2870962427001347,
            0.3496061658453442
        ],
        [
            1.2044576375456892,
            0.14011709924779903,
            0.9184489258015269,
            -0.7476081291004151,
            -1.2699999313643144,
            -0.9804403836636199,
            -0.5967963729986977,
            1.1774563270462175,
            0.5737412442623874,
            -1.0600324360976676,
            0.06837121164434704,
            0.389170768635648,
            0.555588571047751,
            -0.24410308588901167,
            -1.1006172675033277,
            0.20451504283339653,
            -0.633223966105794,
            -1.1149589105763191,
            1.0943783396046645,
            -0.9423265102982623,
            1.2000587712480635,
            0.503391028378055,
            -0.8968175126820237,
            -0.6525634765670465,
            -0.7218824843903249,
            -0.16810850979005296,
            0.10620497481074988,
            -0.22927511370831746,
            -1.1057326449210392,
            -0.10784207414209963,
            -0.8822415594224376,
            0.0025022786351820907,
            0.5084765281990649,
            -0.133292634245132,
            0.5032835678441382,
            -0.2962823567154817,
            -1.0511079707680555,
            0.16752256754768802,
            1.239018836023114,
            0.19688243167008754,
            1.2751101386912593,
            -1.2555542565598476,
            0.8192757470802491,
            0.6164939709181372,
            1.1083864295876897,
            0.7024133090447992,
            0.9700889212187435,
            0.6135285489346618,
            -0.2867403104736457,
            1.0359101295776711,
            1.3233835329463322,
            1.3221691761703631,
            0.6936323957085069,
            0.023886311500061142,
            0.17677060804175887,
            -1.0588632791982944,
            -1.0183632875377135,
            0.7941688591081256,
            -0.5683610024541085,
            -1.2222481216139076,
            0.30915618296039665,
            -0.30251180931392196,
            1.133578446722883,
            0.3197514022882303,
            0.18953847085628855,
            0.055989109867720745,
            1.1104832834792242,
            -0.8088250139324714,
            0.31284346579969335,
            0.7525933818866316,
            -1.243940208682113,
            0.5398336125051391,
            0.3585008829684026,
            -0.789684569640842,
            -1.2593462054847833,
            -1.1892826193551793,
            0.3667169488792526,
            1.2365051420763298,
            1.3099157090599436,
            0.8269409330920027,
            -0.12904510158536953,
            1.4021994378141884,
            -0.7227286593452118,
            1.3878472883543962,
            0.6958188219947947,
            1.106351890357173,
            -1.3312884324313619,
            0.2536981234227827,
            -0.009311393366872079,
            0.2528006133351249,
            -1.2914037685539816,
            -0.8091264216755847,
            -0.21725626846676188,
            -0.8137126466125745,
            -1.398061980340035,
            -0.04874125070319938,
            -0.65376874405788,
            -1.3323850990140758,
            0.09259969631723164,
            -0.36227756073729855,
            1.1876903727797874,
            0.6354785842522777,
            -0.6429155386526245,
            0.4895993145082096,
            0.2263748015011718,
            -0.933314132049247,
            -0.6578770942382725,
            1.1622126069095844,
            -0.25820221750029454,
            -0.742004937518518,
            0.5029042432448052,
            0.3363263634995403,
            1.4127058717877918,
            -0.7491204880869156,
            0.8981648072009032,
            -1.3360172329178523,
            -1.0553818086708215,
            0.7406553512281487,
            0.362046781937343,
            0.41032665362085813,
            -0.46089534671361204,
            0.7637509916189772,
            -1.0288636295999538,
            0.479733742486052,
            -0.34398494510389915,
            0.3355242046601964,
            0.2466418489342221,
            1.085789548109239,
            0.630363085480134,
            1.092814781325182,
            0.46745131889285507,
            0.8097636070250138,
            1.3894840151286147,
            -0.276990458508997,
            -1.3493104898793047,
            -1.0219284849028298,
            0.2533595957291126,
            -1.3702518862542812,
            1.0178097735501932,
            -1.2418097268370334,
            -0.6953502668105036,
            0.5211580995682815,
            1.2098535396247796,
            -0.7978584562149852,
            1.074783612191184,
            -0.6421005231115933,
            -0.06646641579732435,
            0.9338421453701305,
            -0.1802169695461626,
            -0.8397482797199823,
            0.9353420888129578,
            1.4157449444673746,
            -0.0825271973969715,
            -0.6799426489493721,
            0.378049396839906,
            -0.6089234938339464,
            -0.005735511042856004,
            -0.9624087416171465,
            0.22552465908387836,
            -0.32437210214507617,
            -0.1581241981845122,
            -0.8223968579241113,
            0.44012522584849306,
            -1.3425608790019135,
            -1.3865335396690968,
            -0.7692111643473509,
            1.1410739289003171,
            -0.7353795283786257,
            -0.9611407658858694,
            1.1539807382856309,
            1.087523626867246,
            0.9006451117387754,
            0.31004877686601584,
            0.1863984296995044,
            0.20468125194300799,
            -0.7047884782118408,
            0.5731782031319848,
            -0.39146839927528226,
            -0.06546344149300536,
            -1.2024699193168775,
            0.11432912772729302,
            -0.800153585329292,
            -0.7657902372414664,
            0.24276136777078433,
            -0.7084985361729305,
            0.4783789253781813,
            0.8633481186274429,
            0.5751679462930689,
            -0.6029305304891978,
            0.05412880131794014,
            0.41127951936249635,
            -0.64501426487733,
            -1.1056785012109112,
            -0.6255841835186209,
            -0.05430992432723748,
            1.3003122567154004,
            -0.6097142314650499,
            -1.0279983539268858,
            -0.6587642041815437,
            1.3913900461085023,
            1.247934021496602,
            0.9531742540827393,
            0.11394311923458879,
            -0.7322469639764086,
            -0.9167913733873129,
            0.463882606597186,
            0.03336407032462257,
            -0.5152468110894851,
            0.209489551254272,
            -0.5245608570995198,
            1.3611847757572144,
            -0.2733025400710951,
            1.1476142469273336,
            0.20426626116942906,
            0.5471611564774644,
            -1.3201846228574923,
            1.316602823049564,
            -0.6634449239716982,
            -0.600102851863737,
            -1.0858436042605533,
            0.2607018956387283,
            0.8063844966540424,
            -0.42989395930428304,
            0.13268836914581247,
            1.1388550740945402,
            -0.21422260386314476,
            0.8690567178657822,
            -1.2255892264973083,
            0.7481035511729941,
            0.6537578646595131,
            0.256712979259045,
            -0.36183895333787663,
            -0.7157890378693333,
            0.11942323609283334,
            -0.7008773173866416,
            -1.1776065392482313,
            -0.7400324919432367,
            -0.507463220736286,
            0.2846547097105636,
            -1.0459237917768536,
            0.541959774097908,
            0.5811988333173072,
            -0.41796609977626864,
            1.1209602446472593,
            1.4035178029511752,
            -1.3892516520737164,
            0.017546314713638853,
            1.1775089686900169,
            -1.232863937803094,
            -0.3259232556018338,
            -0.9928646179174644,
            -0.6981389439782074,
            -0.5813063469050714,
            0.4504635742325434,
            -0.5994701310551706,
            -0.8130708182185317,
            -0.8632436893049489,
            0.6063601773736902,
            -0.35480919921242104,
            0.269707886317836,
            -1.4096998463896235,
            0.20212545457333111,
            0.9969655095647211,
            0.0155125308097107,
            -0.33751095130140174,
            1.0700013692576686,
            0.3281945169942871,
            0.8524256767687348,
            -1.0221744257104683,
            -0.34468048457890277,
            0.849862158618908,
            -1.2856989775600882,
            1.1325069682563642,
            -0.17714070102330706,
            -1.0304724559935545,
            -0.9233550664041096,
            -1.1548206212143453,
            -0.11282972120851421,
            -0.9974416366284169,
            0.7696826288419254,
            0.05558858405840722,
            1.0440855637906021,
            0.43046226130300436,
            0.4651184266491583,
            -1.1617772220583975,
            -0.8084495245434098,
            -1.0893330201842644,
            -0.18066261046882434,
            -0.3233888698410529,
            0.23627665319976543,
            1.1121008200447846,
            1.320652136216929,
            1.1859325945768258,
            1.2046655569808211,
            1.3203447457094881,
            -0.6890833709539351,
            -1.22846818343638,
            1.3533537687131085,
            1.215251347642447,
            -1.1394462926503264,
            -0.7991059419459298,
            -0.31478491664316977,
            1.201545313221478,
            1.1564061829029493,
            -0.47768111457732054,
            -0.5868430528325222,
            0.10895395100922194,
            -0.7445480719927388,
            0.526816512434018,
            0.19721861127014137,
            0.7474582702996154,
            1.321340750887116,
            1.1115527682631092,
            -1.1793781330050108,
            -0.9684614617267063,
            0.32297262819250755,
            0.40566995307326537,
            -0.9825177455640768,
            0.696518109695872,
            0.21620921461076822,
            0.7250531518254788,
            1.1206213523568902,
            1.3849130833134666,
            -0.20759275056314158,
            0.374330061406971,
            1.2559221636309166,
            0.7174381594180927,
            1.087803392888428,
            -0.3299476082098192,
            -0.436807855068894,
            0.45979909936010865,
            1.0340558695001152,
            -0.8035500094034214,
            1.1711187335860653,
            0.607372688694379,
            -0.09693680819303194,
            -0.2656089461963602,
            -0.6256614801374353,
            -1.3239887504986607,
            -0.05923337576284885,
            0.472957824789283,
            -0.40353794168218,
            -0.6513818461548513,
            0.7084991630585982,
            -0.8697912490222355,
            0.5040733999346801,
            0.7505412423424274,
            0.7969872719385036,
            -1.0210660065925572,
            0.6843872413710991,
            0.8022283464467258,
            -0.954545044331602,
            -1.121592438115061,
            0.6839902753365712,
            0.265943844234458,
            -0.048811949934776944,
            -1.4029303130402322,
            1.104587116884755,
            0.45543321893436883,
            0.8412051390216007,
            -0.17195191694037099,
            0.16687202665560372,
            -1.2305903234819526,
            -1.1891736811910685,
            1.1009187385945594,
            0.12041777138949104,
            0.24086007469140353,
            -0.7614133996303772,
            0.23969861556008792,
            -1.1593699636578205,
            0.7292652767505833,
            -0.938593676029332,
            -0.6497022692159707,
            0.9748211221421299,
            0.267072736088861,
            -0.14557998106900208,
            1.1589837055679841,
            1.056556761898275,
            -0.8966660589347997,
            -0.32819389707155444,
            -0.8231998422560877,
            1.3634476795681585,
            -0.24451544287917798,
            -1.0105673732140694,
            -0.5924878855649207,
            -0.39293544311415274,
            0.8471769864401316,
            1.0581217155801204,
            -0.994419021484843,
            -1.005384140938326,
            0.43151216368232015,
            -0.06798986088319348,
            0.44646479448057635,
            1.1520953630204616,
            -0.591358478805646,
            0.9850853605729389,
            0.0960437351126633,
            0.857326339158132,
            -0.31137238108203513,
            1.0752768542196312,
            0.8089315997083496,
            -0.5226500215433804,
            -0.9160089713035809,
            -1.3229646766133114,
            -0.7186338209261688,
            0.019793271130224492,
            -1.1862560264425213,
            -1.2112481825384473,
            0.15731941579898756,
            0.5686079158284524,
            -0.6671310598131786,
            -0.11826942189029539,
            0.8760767138082615,
            -0.038843704757204715,
            0.774545574959795,
            0.18250217585708436,
            -1.057657554074949,
            0.11987381559639569,
            -0.13157312399738158,
            1.0418978216980714,
            -0.3750455302437169,
            -0.6383931003276129,
            -1.217735808630757,
            -0.6581946258326395,
            0.380164204893638,
            0.3710939373226546,
            -0.9539362706788351,
            1.3966314499331396,
            -0.5526597534449362,
            0.3209246874179107,
            -0.31072283309859156,
            -0.16860709007085323,
            -0.24389020846874307,
            0.04440271640311041,
            -1.338251442158872,
            -0.561272694944758,
            -1.0622729376649693,
            -0.07035983119774249,
            0.8098953652881697,
            0.9142501942067462,
            -0.9403286881439364,
            -0.9289835284935457,
            -1.1281756388044122,
            1.1287878588024247,
            -0.47128773437219024,
            -0.9391179466615174,
            0.29422160097518746,
            -0.5530544652419315,
            -1.3273991968777457,
            0.07836297056309091,
            -0.15770850645674386,
            -0.13851498687268565,
            0.7631589418254879,
            -0.664373009296115,
            0.676274001866121,
            0.7141506018974333,
            1.234534989608994,
            0.7987706920891944,
            -0.8859914423357222,
            0.900142305746807,
            -1.3495163729248594,
            -0.8506861702584521,
            0.41160732157586816,
            1.1970044690555472,
            -0.09365098981627308,
            1.3521762685129801,
            1.290089840827432,
            -1.0564743419832667,
            0.9997516585224482,
            1.118134184930236,
            -1.2408098680155208,
            0.5372284487241051,
            0.07594756748667666,
            -0.5599678662855261,
            0.4619270755647441,
            0.228801151547837,
            0.12439935948078241,
            -0.14250680397313628,
            -1.3455431289785655,
            0.4823141886828873,
            0.8858813715823917,
            -0.5506709308590185,
            0.8208837758908852,
            -1.3200866653600185,
            -0.5965792115625022,
            0.8211216580712248,
            0.5152581402006783,
            0.0010978026880305173,
            0.00031247590886825246,
            0.16305358879365858,
            0.5841243215016068,
            -1.2353636951202698,
            -0.05392910920555178,
            0.449718715721216,
            0.4017106017489703,
            -0.045568694112490676,
            -0.6926440762492246,
            0.39844107810998053,
            -0.05793985630247902,
            1.0150985699189232,
            -1.1353686417391977,
            0.3866411293145139,
            1.1659033718352994,
            1.160201891271837,
            0.6145060468908904,
            -0.21479614645792627,
            1.407430429074793,
            -0.09440149218484328,
            -0.7274341034823091,
            1.4031997148233302,
            -1.2813644724292867,
            -1.3417011525621507,
            0.8371123724422843,
            0.9460798720321241,
            -0.8993781714726502,
            0.22705215719605845,
            -0.5911470920852526,
            -0.6342050102856013,
            -0.9264938784451046,
            -1.373935304706457,
            0.9742848569369299,
            -0.6349505798011063,
            -0.6588385826126405,
            -0.9359442211574912,
            0.35445275492131373,
            -0.9616086402472407,
            1.154723319307635,
            -0.3658696807009303,
            -0.5716341562248052,
            -1.1298314004499532,
            -0.5343863230194994,
            -0.7594796133927096,
            -1.220303757633588,
            -1.312160459997216,
            1.0255311308320316,
            -0.3515257786047335,
            -0.8654895543133534,
            -0.6215784038831285,
            -1.082185867178898,
            -1.0041421390949592,
            -0.9913955490530613,
            0.12208708207207282,
            1.038524416228023,
            -1.1645740457218485,
            0.3149965600193745,
            -0.702787045911353,
            -0.6383836587581602,
            -1.2531555059058395,
            -1.0945190553479562,
            0.8525481066680419,
            0.5787090635986973,
            -1.3991274792914958,
            0.39178595714893505,
            -0.3423212692385795,
            0.8813351752843386,
            -0.8514760286319561,
            0.5605741814322689,
            -0.963004200426697,
            0.8548696275064448,
            0.8258031866148973,
            -0.8049923230394139,
            -1.2673013672444902,
            -0.08816804920467093,
            0.10823689182585851,
            -0.3437618993086586,
            -0.3728706188864335,
            0.12512193782935035,
            -0.9798231789536846,
            0.6213613030694404,
            -0.06545776615227074,
            -0.9599829496718101,
            -1.0853660998302486,
            -0.054566320081521236,
            -1.2644420785295372,
            -0.9671399490328819,
            0.2351084097073637,
            0.38880726593860326,
            -0.9905383000808976,
            -0.52416394305361,
            -0.3416850215739208,
            0.5419060085685696,
            -0.2040988401454423,
            1.0631163017282768,
            1.1346569905803758,
            0.2908600574647924,
            -0.0769358230100626,
            -1.2944997531332583,
            0.11134779463768628,
            -0.9056910765093336,
            0.18298150869001514,
            -0.48491614337392874,
            -0.7657905561492184,
            -0.16968617501666017,
            -0.8444823775828143,
            0.9029995058397849,
            -0.44121759633067925,
            -0.658285618190705,
            -1.2778985772117122,
            -0.06794493820636835,
            -0.9869485896312761,
            0.511465255958557,
            0.17130009508082714,
            -1.311713721680029,
            -0.7801132898324012,
            -0.2714452765511241,
            -0.5030433229690825,
            -0.8892489941782014,
            0.5493613650145218,
            -0.65576543260126,
            -0.11198113245699737,
            -0.17640325222675443,
            -1.0036118200393458,
            0.8712883508694904,
            -1.099767834372897,
            0.4341553764191661,
            -1.0328147990373397,
            -0.6225765222870951,
            1.225624251094518,
            0.5627693932246769,
            -0.8985306916545814,
            -0.49333232709210056,
            -1.0556934391082973,
            0.2833047532082286,
            -1.338662803496202,
            -1.3647479039163275,
            -0.48817565767708093,
            -1.233326693932122,
            -1.1406058536702082,
            0.8144634243344895,
            0.2087799345296158,
            -1.43681790724133,
            -0.6610888357996486,
            0.3501706725701473,
            -0.8647344441512526,
            -1.2171725953623496,
            0.7729786173715412,
            -1.234056036222225,
            -0.9503798567731093,
            -0.07457763762561498,
            0.6288391730087631,
            -0.09389225547427245,
            -0.2569730000018029,
            -0.2718695260157385,
            -0.7219280057954456,
            -1.394087706388218,
            -1.3956367120377497,
            -0.028588430769859046,
            0.1643169244025456,
            -0.05411578243140016,
            0.14632722851002225,
            -1.3538362105264132,
            -1.0820459195971277,
            0.22968158075367198,
            -0.8007972469841642,
            1.3970528970372424,
            -0.7172003187042173,
            0.33891160318129576,
            1.2405032509568685,
            1.3222029112473381,
            -0.44268985080747025,
            0.8218540781230094,
            -0.5773336751852239,
            0.7230695022976202,
            -0.10388505970368604,
            -0.17894347743838598,
            -1.2989787585749735,
            0.18501119881898995,
            -0.12416842771574388,
            -0.9166442680359981,
            -0.603241684752922,
            1.3450049684747567,
            0.3319014340814529,
            1.3385424967709731,
            -0.47883532283934716,
            0.6880785464204595,
            0.22548532637968338,
            1.3550712361755834,
            0.0839262981191954,
            -0.9870239479822512,
            -1.3834493086626494,
            -1.3496438894606488,
            -1.0897344416747503,
            -1.0594603347192693,
            -0.4507657300649378,
            -0.7519448180652698,
            -0.40686136698380565,
            0.38029224979286513,
            -0.1708006130126659,
            -0.2344493922351598,
            -0.2310171061672819,
            -1.0874176933761275,
            0.33995362145677044,
            -0.12464514617619059,
            1.3579820592540515,
            0.20492474462861138,
            -1.055328993900473,
            0.07859992359013042,
            -0.09674732668210467,
            0.6636587033688127,
            -0.23782419868848706,
            -0.6327312471791791,
            0.1813635192061802,
            0.18313655812920462,
            0.8779168666075705,
            -0.5214512050820811,
            -0.8366945772430592,
            0.014183929874032978,
            1.0770602308084194,
            0.7054775296018791,
            -0.78143503802848,
            0.8654913857804504,
            -0.9750118732420563,
            0.4503114439549211,
            0.18897666595331492,
            0.7862272896026679,
            -0.6788321762900017,
            -0.37435438799763815,
            -0.23229534271898164,
            -1.0557763150712018,
            -0.5620250613279237,
            0.9258097441668615,
            -1.374715569233748,
            0.493225533593593,
            0.5632232959182905,
            1.3892521154079847,
            0.14186971905531762,
            0.5219500408701755,
            -0.73341258679098,
            -0.58858587630279,
            -1.34858940916623,
            0.3216119335686824,
            0.13057250867686707,
            0.0475133237695241,
            0.42002770231946535,
            -1.0841128921703755,
            0.5304894600681364,
            -0.5809030097117965,
            0.7878474883418805,
            0.7485147041447789,
            0.7350447981110994,
            0.17566465331336803,
            -0.8486065393153247,
            0.7598983252367624,
            -0.8821854838067209,
            -0.00047978674933522565,
            -0.7699351578894765,
            -1.2038919679282825,
            -0.9993069250465614,
            -1.3475608039399891,
            0.849241495460258,
            0.9589879564541471,
            1.3029182754763136,
            -1.1406452933867155,
            1.4069721944586866,
            -0.0968963802179061,
            0.5284421409358457,
            -0.10659395561707823,
            -1.1590426723766052,
            -0.5135562643940385,
            0.8843959736793181,
            0.421842145142139,
            0.47072930150202236,
            -1.0473659091340728,
            -1.2744850602903568,
            -1.2249769366365495,
            -0.9088336050267376,
            0.15841429955958977,
            0.6796215315742481,
            -1.1647562575561836,
            -0.7136730497064085,
            -0.21255723204870827,
            -1.1048615954421224,
            -0.0776536044972175,
            -1.3512962640674402,
            1.221470968382943,
            0.5641208429102214,
            1.4061946401622596,
            1.3259627559627511,
            1.303171041768419,
            1.3003812189967345,
            -1.1278431723303795,
            -1.2432371956688457,
            1.3431892028972483,
            0.23254100353459567
        ],
        [
            -0.795665997785998,
            -0.9850374458223794,
            1.3421652822488306,
            0.9696871702726144,
            -0.8519865549204239,
            -1.3083623938148574,
            -0.46404235976779895,
            0.15660258736333874,
            0.9450660436300053,
            0.9177146306982298,
            1.028895815847789,
            -0.7603325411558132,
            -1.3438929403581272,
            -0.07693006904389303,
            1.3183793589077921,
            0.22785529454713963,
            -1.102570486138809,
            -0.8711613853011525,
            -0.40381717181900834,
            1.0457853318700487,
            -0.47776585565672797,
            -0.7380449810108045,
            -0.7455885735275508,
            0.7010229080574963,
            1.1459843426484786,
            0.1361877011242562,
            -0.35175054044051246,
            0.46805009599368347,
            1.3314121234365137,
            0.32508172094752524,
            -1.3601071975464374,
            -0.30948570085298044,
            0.44307187689822236,
            -0.788594962656862,
            -0.8773695696334004,
            0.11843781223163527,
            -0.6641842936058899,
            -0.4657089106882013,
            -0.6737506539688634,
            0.24818262313220882,
            -1.0434146484294664,
            0.49885170081843916,
            -0.27971331650964354,
            -0.9135880758667911,
            -1.4109964756368583,
            -0.09234725311563187,
            -0.03444764516679531,
            -0.8143462733814174,
            -0.34711484231646167,
            0.6029696158328874,
            -0.3389784673862041,
            0.962645689612868,
            0.6386964587748575,
            -1.3636606082459866,
            -0.9667818717618991,
            -0.3110116313015315,
            1.021914757480663,
            0.3922420043164709,
            -1.2638455009235041,
            0.6760346632977755,
            1.4093277511671265,
            -1.2037792850580367,
            -0.3690417930155053,
            -0.294927309212916,
            1.036824711105263,
            0.15926998848631954,
            1.044393069869786,
            0.10336480843217559,
            0.4033422608537813,
            1.129384064971853,
            -0.9275706015723673,
            -1.2614244559891137,
            0.047731427990845385,
            0.5181729741410837,
            0.474894956509265,
            -0.6180581953260197,
            -1.0281375157752772,
            0.2806132991171872,
            -1.3856179031699254,
            0.3508049979143618,
            0.48783928662602466,
            1.1290986050780665,
            -1.0258693686034102,
            -0.07681793078727016,
            -0.35958999126164565,
            0.20442096421515218,
            0.5283991668025312,
            0.43902476186246286,
            -0.06039245381771482,
            0.9366029660596784,
            0.5900024338947422,
            -0.8434264308085233,
            1.3612406274536337,
            -1.2162394960985594,
            1.0462452427940199,
            1.3337378532838382,
            0.34037088825799977,
            -1.099544015445544,
            -0.04322714109339228,
            -1.3755726265091992,
            -1.2814040323351457,
            1.3435208529386349,
            -0.7997987687768201,
            -0.4763585038490733,
            -0.5009793832684482,
            1.1673816629245142,
            0.7277910149156874,
            -1.1555118076946433,
            -0.9020896918636575,
            0.5086594600790315,
            0.9158179050470725,
            0.49258418711240015,
            0.7698619474139163,
            -1.3899944982569925,
            0.05861062511168997,
            -0.006719952409762273,
            0.9724830046875282,
            -0.6311475011353851,
            0.44716948186723,
            0.6142096601656917,
            0.6358189113428913,
            0.8319819483479959,
            0.7443807337220112,
            1.2463233071492419,
            -1.2875333804307805,
            0.6543706852343804,
            0.35973911227394256,
            -0.2453771764739485,
            1.2367958606789937,
            0.9192308537818434,
            0.21763584504179065,
            1.176557079394843,
            0.20900687692209838,
            0.27336003491995126,
            -0.3152695425345582,
            -0.5588423720360349,
            0.721329700766494,
            0.2152970610575635,
            0.795295340891212,
            1.2850708742934047,
            0.1390698400970054,
            0.41413280084495574,
            -1.2521309608299218,
            0.8997703776317517,
            -0.258342625395147,
            -0.7567266772629239,
            0.7076160014837592,
            -0.8433674139836035,
            -0.38225688430612664,
            -1.2532220329394155,
            0.18346136774101413,
            0.20193657324844475,
            -1.1457234887991743,
            -1.308732729649296,
            -0.8777284560167548,
            0.625890787742353,
            -1.202186644616457,
            0.19106828852503055,
            -1.2598076803066822,
            0.9802966213139879,
            0.3528556152907136,
            -1.1990899848062826,
            0.22275095973290804,
            -0.08148038873564126,
            -1.3393599164374432,
            0.39018826665274947,
            0.9520308648464437,
            1.084116301390771,
            -0.0760262251222005,
            0.772767759739586,
            0.6872827938045257,
            -0.29760151947587016,
            1.3066490789392324,
            -0.07578120558972551,
            0.7225376638543002,
            1.0278819053073571,
            0.30559917609901166,
            1.0439769292781038,
            0.22689661124218888,
            0.7485215695336549,
            1.4042885496951643,
            -0.622451764956792,
            -1.103012272324926,
            1.1999241366605717,
            0.06149064452184089,
            1.11416546923271,
            0.6976513273006173,
            0.497761819047027,
            -1.304314576219614,
            -0.9105605773304293,
            -0.39320503082620645,
            0.9452885010005047,
            -0.6884563122882366,
            1.2831604239478323,
            0.019328905725373647,
            1.3223872240779395,
            1.1128144345754423,
            -0.37766179005376765,
            -0.9047489584797286,
            0.25417753209577376,
            -0.899947493721859,
            0.3224807704663829,
            0.14186260406453113,
            1.027401641308376,
            -0.43689080817647596,
            1.0276788188492452,
            0.13141558575696777,
            -0.7883142749675509,
            1.1244487398572953,
            -1.3668114667281888,
            -1.2169972330547993,
            1.1421310087150878,
            0.15222930076812818,
            0.9100677984273123,
            0.5805359500105549,
            1.148918859219573,
            -0.9001187210328593,
            0.502746807160255,
            -0.3180168685168825,
            -1.1746392981547653,
            -1.332369297344085,
            -0.3103658476341079,
            -0.9842277580402975,
            1.0386155683668115,
            0.6967651499706775,
            0.7725430230767866,
            -0.4293027035425067,
            0.2226130102589721,
            -1.280333662943761,
            0.13031632339162097,
            -0.5095635341334531,
            -1.232517671872669,
            0.2989025808018927,
            -0.2819164333015375,
            0.7649493863761804,
            0.8152147503273247,
            1.1209734144640735,
            -1.0141786697230202,
            -0.7151253449547541,
            -1.2191046231436937,
            1.0673441194400008,
            -0.786562134419016,
            1.2659828351748692,
            -0.9148876007509372,
            0.5263389159176005,
            -1.31698391210428,
            0.46582874934687213,
            -0.9870227445825849,
            0.238394105177345,
            1.0923426894144779,
            1.1934018217247213,
            -0.7534047275296423,
            0.15634848028736958,
            0.21697440623956188,
            0.5938866250132321,
            -0.15575852705897478,
            0.5155518050720889,
            -1.3487241542053154,
            0.2984679494171285,
            -1.3712789123428208,
            1.1314327731958194,
            -0.5683848841966239,
            -1.169344096609872,
            1.170092474567993,
            0.27979484738539506,
            -0.09951174212864118,
            1.1849734889664485,
            1.2203506351210736,
            -0.46040848407696305,
            0.6367812506629776,
            1.1289762603032878,
            -1.198174790920239,
            -0.7279774825813521,
            -0.18174799482853982,
            -0.45640313925377557,
            -1.1714107109955034,
            -0.23373271960751896,
            -0.13177008655769012,
            -0.1004504462596927,
            -1.2942002089354196,
            0.31344072669084533,
            0.8765297996066356,
            0.6637815552912468,
            -0.2033965934037648,
            0.49060276991083995,
            -0.3239007043592422,
            -0.16551785949400083,
            0.16560335830160453,
            -1.1559129446904253,
            -0.39926600271944857,
            1.122114186484094,
            -1.1761873843725847,
            -0.303221535507895,
            -0.02840173181085749,
            -0.9438596889266206,
            0.03532746673711914,
            -1.2216109296590645,
            -0.7699128887337026,
            1.3860298762461492,
            -0.6056829957879896,
            -1.0317041539719678,
            -0.5006040333305858,
            -0.9125654936969788,
            -1.027340763756153,
            -1.1732457037741735,
            -0.011076997545205877,
            -0.030755105491760536,
            -0.2835507555392653,
            0.3594078872975552,
            -0.07099290337082069,
            -1.0047716844835608,
            0.5911252956757451,
            0.23895834414999426,
            1.3692880444576816,
            0.019617532839854818,
            -1.1214059726758556,
            0.1926184211940168,
            -0.8513869300670894,
            -0.4864929101479128,
            1.0786706203052094,
            -0.9594212750369647,
            1.0357881157042903,
            1.2814629954806867,
            -0.0497891415606586,
            0.6303794263087465,
            0.41578720799224483,
            -0.06554053215651728,
            -0.02356477980448597,
            0.2756114867694177,
            -0.827566692907685,
            -0.36951248616685445,
            -1.172084855039209,
            -1.272174033865787,
            1.0776539370252376,
            1.144789439437106,
            0.37182141695537696,
            -0.8351944981502835,
            -0.3262125748332297,
            1.3547432121107197,
            1.2358362143965285,
            0.6959787128240149,
            1.3157308929798142,
            -0.31747634729801616,
            -1.0897250673194046,
            -0.3886793502184622,
            -0.32883972321817106,
            0.23796221245014237,
            0.6881839754602659,
            0.08837036863513976,
            1.0867890261135955,
            -1.1032450848574606,
            1.25008109481527,
            -0.3880302033675419,
            1.0597587775752677,
            -0.8501091498296602,
            0.7837067342298785,
            -0.1466057877473015,
            -0.5289796706747573,
            -0.13127595823540092,
            -0.6954342401613091,
            -0.5162327391755969,
            0.12984503394650923,
            0.9187509582784632,
            1.1823005534726918,
            -0.05174162668112197,
            0.14751258551410038,
            -0.3952286665967872,
            -0.4213969450366138,
            1.015511904742068,
            0.922472684095071,
            -0.5213766260468515,
            0.6296358147656597,
            0.4861216645691771,
            0.5243926285161287,
            0.35607233011109013,
            0.9010163234580286,
            -1.0299828355554859,
            1.2451280493979482,
            1.4027545582198666,
            0.010617595370934005,
            0.16674635516488312,
            -0.7623319996166528,
            0.24854561587949509,
            1.0538621375518777,
            0.6750211049891541,
            -0.8698405642309839,
            1.1149939552019825,
            0.07113158703096924,
            0.7943934026338604,
            0.7047275408260779,
            1.275800604356967,
            1.2197987865568491,
            -0.8293487129672019,
            0.7892175029757943,
            -0.9969841379020002,
            -0.17019471841387196,
            -0.3507314591180678,
            -0.38870091423267467,
            -0.05561798016966858,
            0.8514092144029949,
            0.6080979725795055,
            -0.951379058770167,
            0.47562961193618847,
            -0.971305466299308,
            -0.982439790122425,
            -0.3248612532633124,
            -0.34743001117453415,
            -1.0391856304846125,
            -0.6277717213572043,
            0.550147272777401,
            0.15053955184893555,
            -0.7941820196911437,
            0.32629498584226857,
            1.1993996380782805,
            -0.1715622728678449,
            1.0049339563687125,
            -1.1249644805951526,
            -0.9191802698262748,
            0.025662464302743278,
            -0.8216679285523648,
            1.0541002329303464,
            -0.6516592021058829,
            -0.6739244835212885,
            0.9822361293812178,
            0.6288758281073754,
            -0.6423963831158964,
            -1.0687065531076112,
            0.7330108732482125,
            -1.3018892684788956,
            -1.1401833802349486,
            -1.1308432500233345,
            -0.347937085060124,
            0.19103893658089025,
            -0.17105339043188272,
            1.2865179646587483,
            -0.021293445815933735,
            -0.9710492586857782,
            -0.9916714183584471,
            1.3378786346536693,
            -0.7765269535851145,
            -0.4239548603103931,
            -0.5286142908555702,
            1.057067939823498,
            -0.28140472915412124,
            0.4214235490011231,
            0.47998035226827185,
            1.2726790815091156,
            0.4379164506327638,
            -1.3243024901550047,
            1.1126191865837074,
            0.9532822540005413,
            0.5158387867251018,
            0.7748241634175475,
            -0.18283659366118576,
            -0.5555188597151777,
            1.2961286189025971,
            -0.47144016112382603,
            0.3026830409632395,
            -1.4261831849329842,
            -1.0481868655305706,
            0.6367117209263348,
            -0.01889376396428518,
            -0.7681256613453821,
            0.20431441433340103,
            -0.9316098451783847,
            1.3133556407814504,
            -1.0215828764340136,
            -0.1687892266372545,
            -1.227685320516141,
            0.8914751110446039,
            -0.33151106113023626,
            -0.5877063496346133,
            1.3454022890443689,
            0.7636287736568822,
            0.9856058964100322,
            0.90293834671042,
            -1.0326723051704694,
            0.6539529339961919,
            -0.2348502177446998,
            0.45950552064616385,
            -0.4794068301430836,
            -1.0979150247997005,
            -0.7181895574393015,
            0.010314540845959827,
            -0.38376550717914226,
            -0.5684559397812053,
            -1.2743471162858098,
            1.3834129221916776,
            -0.8023523971449196,
            -0.4835149610526776,
            1.35871484878749,
            0.7130484635416677,
            0.6212192199184748,
            1.1645222507549677,
            0.8098354439349041,
            0.5376994835246772,
            0.6518905961408822,
            0.6194288417938458,
            -0.35374131580265417,
            -0.839613767867752,
            0.20264771117161454,
            0.704926329797835,
            0.5699741080313608,
            1.2566112265931975,
            -1.29816758030058,
            0.16273038573593862,
            -0.7181479862661035,
            0.6949094713406232,
            1.3217891513536124,
            0.04924844275123302,
            1.3096813611098017,
            0.4226856364773685,
            0.43948903983736415,
            -0.6601285064979416,
            -0.0899901768644709,
            0.10080144656801544,
            1.2866549166104801,
            -0.3665659366783854,
            -0.4847957256721919,
            0.531946728667023,
            0.7052876298013786,
            0.31677275359157187,
            -0.7857804570321762,
            1.1679085272579444,
            -1.0012225888101765,
            1.0202297188660465,
            -0.9621528751742503,
            -0.17167291784926658,
            0.9697126199607911,
            -1.388751125719775,
            0.640457833599911,
            0.3194915750567238,
            -0.7852642362758538,
            0.7712633041268806,
            1.0274151897154358,
            0.9186757224785577,
            -0.3125207004129258,
            -1.4041111732325617,
            0.06713863090104501,
            -1.0641336051555064,
            -1.3505304915529033,
            -1.3210101220975043,
            0.8428082733000776,
            0.8369481554103679,
            0.7802220217974709,
            1.179000973130141,
            0.09591906658836942,
            0.9815817017559166,
            0.6135558644338528,
            0.5456149893044054,
            0.36458868993400845,
            -0.7739884531805395,
            0.5715294093166484,
            -0.5812791734819329,
            0.6664315422927543,
            0.5363912204545158,
            1.4006682215852453,
            1.1596566020555525,
            1.2384214459147196,
            -0.22825846739505493,
            0.6239108365343664,
            -0.26778075817726643,
            0.6156583406837017,
            -1.4120534303791408,
            -1.224040177603612,
            0.8973024536197061,
            -0.9264313614641062,
            -0.8523513583705116,
            -1.1283521536390864,
            -0.24747358946428594,
            0.948115987251457,
            0.08028634538305468,
            1.1657958523094178,
            0.8483537105561559,
            -0.8754310048150147,
            0.816369275024327,
            -0.42179163977976647,
            -0.39484538281576864,
            -1.3256171056212667,
            -0.21668608469688838,
            -1.26028759694361,
            -0.8327095710973312,
            1.2767916445347742,
            -0.6906989419673417,
            -1.2958922154005634,
            0.2994853287889879,
            1.1495490353175168,
            -0.8422719705545364,
            1.3168635930583177,
            0.8696793928911383,
            -0.6474709097589959,
            1.0983701031474677,
            -0.10802472657255015,
            -0.7218501255208513,
            -0.37629379396076235,
            -0.44309967605608874,
            -0.6437479093809493,
            -0.6702077055488121,
            1.3749316238073286,
            -0.6913996201858833,
            -1.1053391223711824,
            -0.6835510458216961,
            0.801253978163225,
            0.42677386087507874,
            0.354940152942242,
            0.09905666863074283,
            -0.7947630267261306,
            0.5776353899657474,
            -0.27688202763524494,
            0.8426611364472599,
            0.6002477483196165,
            -0.015806424526684484,
            -1.2960095597548247,
            -0.21324260831642447,
            -0.710423663070626,
            0.6605739627003715,
            -0.08043585717198952,
            -0.7864306385816768,
            -0.7518520005873074,
            -0.6806803287872301,
            -1.2316826461238128,
            0.6451700751856301,
            -0.4008308128257716,
            -1.298469029903232,
            -0.3212271687132138,
            -0.5701240549835297,
            0.4373164733512011,
            0.48307392016707484,
            -0.7029093638039453,
            -0.9556420554771974,
            0.33563024260028346,
            1.0789217044434778,
            -0.8574890998460357,
            0.19647213639163139,
            0.875317829628971,
            -0.9544992805095253,
            -1.321489438321861,
            -0.7445942938833642,
            1.1645460039524957,
            -0.5214996614399625,
            1.0244738940181741,
            0.5963433440667666,
            0.03644228837949953,
            -0.5671027186447033,
            -0.09067000238606515,
            -0.12705033707081448,
            1.0711446179739903,
            -1.205189427136281,
            0.339070955993435,
            -0.6172883475632172,
            0.11301733601999063,
            -0.1814517953429766,
            -0.697040508307374,
            -1.0816361525068687,
            0.8561003083720682,
            0.2864030011302807,
            -0.7912920273330505,
            0.4440491158206631,
            0.23584840720690525,
            0.18804600498806243,
            0.5313082388965422,
            0.9607454364717948,
            -0.6295910040013285,
            1.1474837893755008,
            -0.11574230948726248,
            0.22765378723060098,
            -0.16626022908080307,
            0.1607676396019488,
            -0.4649179131766562,
            0.5181552661699964,
            0.42486078430848095,
            -0.7300641896833172,
            -0.5960448819785119,
            0.7145382181010783,
            -0.12364011891343586,
            -0.9379203697986964,
            -0.3903624127232919,
            0.14788241022310658,
            0.1968040651488524,
            1.2419200371805545,
            -1.1985261042964739,
            0.3852175515347486,
            -0.3956038494500079,
            1.1136122486897932,
            -0.5678206005548795,
            -1.094416932144941,
            0.4701637143830555,
            -0.05485451680489156,
            0.5617394897592324,
            -0.539823357075988,
            -0.9163614377118892,
            0.45624058739516704,
            0.4419800771196788,
            -1.3111541372146005,
            0.39328306103779825,
            -0.30493849072166224,
            0.22650166468831778,
            -0.040346381376792355,
            0.9919824805629834,
            -0.35070298949034967,
            1.382594923742584,
            -1.0357813649445609,
            -0.47259739338944734,
            0.6577661452124195,
            0.9703426301663786,
            -0.7372366264085441,
            0.5379544846149219,
            1.0064107900570889,
            -0.5765001877033996,
            0.5053018340907738,
            -0.33138209658775847,
            0.1291912334532674,
            0.14705047347210007,
            -0.0604667356595586,
            -1.0769572612338678,
            1.3173293734437137,
            0.8353167604777912,
            -1.0588092985121376,
            -0.34196074410184185,
            -1.1482972329414405,
            0.33315960560524543,
            0.37691508036963556,
            -1.0884924277950296,
            -0.783291753470086,
            0.3609907762064065,
            -1.0873753792810767,
            -0.0847189596290619,
            0.5004867119464042,
            -0.032725844276155165,
            1.3062651967665795,
            -0.7619426391553706,
            0.3954371565073514,
            0.9335677965740926,
            -1.197685352258633,
            1.394273687846585,
            -0.855840405944459,
            1.1276388033782523,
            1.356464587762491,
            1.3059293660181843,
            0.39393911427935585,
            0.7115521614950668,
            0.8199288479081752,
            -0.33338753050748954,
            0.08337313637864806,
            -0.8489117961728356,
            -0.500650499685553,
            -0.6981875418956036,
            -0.6957760268229088,
            -0.09467760505034903,
            1.195786009855464,
            -1.1048452319793498,
            -0.6882239171216183,
            0.9243813177965974,
            -0.17475971543477378,
            -0.9579018589854245,
            -0.647634737778925,
            0.49434446661905107,
            0.9634959419365939,
            0.7839008429077601,
            -1.0085077193111631,
            0.9773085273108151,
            0.7306154621834939,
            1.3691488519766237,
            0.7497229761025532,
            -0.14454761750195436,
            -0.3417233895989782,
            0.5247676653650845,
            -1.1890559806409777,
            -1.272477511256042,
            1.230847595634684,
            1.2887308708131997,
            0.21227059482648833,
            -0.6381747544084085,
            1.3735118164076028,
            -1.3574634640957253,
            -1.181924794524244,
            0.05333545154871429,
            1.094189865661895,
            -0.9698851429945122,
            1.0851368776940598,
            0.28853463384022904,
            -0.4396217207156069,
            1.407683133463359,
            -0.28189721597722944
        ],
        [
            0.8494934443858395,
            1.1684834723978348,
            1.378652112185066,
            0.19930730850927061,
            0.9485652746026989,
            -1.3400510834620665,
            -1.0845988226756151,
            -1.2873392326829096,
            -0.26993102896194965,
            0.7348906645285573,
            -1.4047688925946333,
            1.383311597364603,
            -0.7677700452110193,
            -0.46924433441176394,
            -0.04665658716416444,
            -0.07326110101892251,
            0.11457251867862707,
            -1.305105637512746,
            -0.23493931748083194,
            -0.048514908139265636,
            0.3208884067957158,
            1.383235440970043,
            -1.226699965890101,
            1.184853744247264,
            0.4985840273402939,
            -1.3604245233694838,
            -1.0334640817505152,
            -1.001445769255966,
            -0.6401050523631865,
            -0.16620733078611374,
            1.0577347147250584,
            -0.20824175282960622,
            -0.006861797889403944,
            1.0834275085688867,
            -1.0150991369784301,
            0.09655215739409871,
            -0.2988211590090287,
            -0.8308980007498911,
            -1.308395301029396,
            0.8503619429416364,
            -0.20323943071538364,
            1.2166147110606091,
            -0.05997476418273734,
            -0.5635365566938406,
            0.9485528750604706,
            -0.7811310158333841,
            1.0057839885736126,
            0.5305467578359746,
            1.2303253799191773,
            0.7825036540686966,
            0.6444962258603927,
            0.886109200013771,
            0.9599401673298581,
            -1.1998744778177446,
            0.21837895243202235,
            -1.0233385117242018,
            -0.24537778162181148,
            -1.2939365657234883,
            -0.09039970286743158,
            -1.1092522646402991,
            -0.12300268450394457,
            -0.6975881915598049,
            0.08330460516352783,
            -0.5263559890584554,
            0.07131922570188567,
            0.7692237766481125,
            -0.358767050268615,
            0.30720886629733407,
            0.47191258731796604,
            1.0949828143060398,
            -1.1218309121910754,
            1.1695510097509527,
            0.7615066743350403,
            0.9156433176756855,
            0.5467618210983106,
            0.2252295644667611,
            0.5323147465476031,
            -0.07210601115983639,
            1.3418431010525302,
            0.7545285247760998,
            -0.30424340272931694,
            0.2977555146254625,
            0.04369013535313628,
            -0.084972859297778,
            0.47788489415098995,
            -0.6072415667782555,
            -0.6581553832252046,
            -0.4023434469713778,
            -1.2828874239025552,
            -1.1300272800565232,
            -0.3834320574980237,
            0.7037324482294417,
            -0.10797203752730984,
            1.2704723216756053,
            0.3227152083490689,
            0.28001491043862553,
            0.4795205682532246,
            -1.1860715089133829,
            1.3707704826748308,
            0.8721109931592019,
            -0.39905066223962105,
            -0.08377759000389015,
            1.0111628763866813,
            -1.3377863274805954,
            -0.27810905794032537,
            -0.5629396508306058,
            0.0933938338373368,
            -0.9910128509659422,
            -1.2420354650826493,
            0.6557062177615114,
            -0.9402917265291261,
            1.2798455180820947,
            -0.9147470279777513,
            -1.0460052771594894,
            -0.1933114383568999,
            0.46210211893814285,
            -0.8848341487209277,
            -1.0430490499550955,
            0.18936547891908417,
            -0.22181643130643486,
            0.8956419492166067,
            0.6128944069303571,
            -0.30104994812199376,
            -0.7554221773630921,
            0.9868944494110097,
            0.6670518697857492,
            0.7325716651116342,
            0.6862284074867973,
            -0.2827733094481786,
            0.6302646345574977,
            0.13170643258887432,
            -1.2165223944421382,
            -0.8321013558732168,
            0.6750888908585717,
            -1.1690836372066802,
            -0.04788064214242762,
            1.2705501260826002,
            1.065117309089133,
            0.8229398506715593,
            -1.3513663500288366,
            0.43268811849253663,
            0.3633279351822034,
            0.34454127697523285,
            -0.7247663607512033,
            0.11620628559287688,
            0.40329495761722545,
            1.1983796078950206,
            0.860112356605617,
            0.5701594884602043,
            0.28452721934363273,
            -0.8352271096000744,
            -1.1463426303458866,
            -0.6990904548015274,
            -0.0454773293676126,
            0.45405517529758976,
            0.13740660308845945,
            1.298280092607383,
            -0.21542838789136168,
            -0.33097334176018994,
            0.3675975577881955,
            0.6790974474219753,
            -1.36985142042463,
            0.3267269920000249,
            -0.35409535135838316,
            -1.296873595034442,
            0.4849443594030172,
            0.19034400702777787,
            0.7503340098924837,
            -0.18860773909342077,
            1.1146527259990848,
            -0.07251952860962332,
            -0.6523757912802901,
            0.6669332128040665,
            1.1231231605879854,
            0.8752594523182196,
            -0.4236141832222171,
            1.2378456271775091,
            0.5838033250041613,
            -0.7747538715997586,
            -0.5846258067216233,
            1.2978964069853964,
            1.1405346463726203,
            -0.09652257874248196,
            -0.41634015571723676,
            -1.2494466426512507,
            -0.2516374214344822,
            0.16885643911809856,
            -0.3303529045411204,
            -0.8251850929849663,
            -0.1845591107060207,
            -1.1926683907775075,
            -0.31197917376068657,
            0.5647096626511355,
            0.28955329667616503,
            -0.1746720428907747,
            -1.1950341569353238,
            -1.2230222543160838,
            -0.45515662706573523,
            0.10986691501596206,
            0.6320330332165374,
            0.4086061432540251,
            0.02110131741575396,
            0.42367078486011656,
            -1.2207132254163282,
            0.2552300307175826,
            0.22325713191637656,
            0.5255716225629974,
            0.5658292072831212,
            -0.0035673789052491234,
            -0.8512523035658232,
            1.4040427115220433,
            0.5739181114455162,
            0.9024916158246746,
            0.31893863656447385,
            -0.11135185049524449,
            -0.39186412027160844,
            0.4637472759839227,
            0.4787291015592293,
            -0.7787590577324439,
            -1.088528974375167,
            1.204539092650744,
            -0.6421510391232641,
            -0.25001914945323633,
            0.26505056496826984,
            1.0266551301338547,
            -1.1258350092114104,
            -0.73275472831411,
            0.6507117719677197,
            -0.031827406246516796,
            0.8345857480846565,
            -1.1536991798723586,
            0.9559738918225003,
            -1.3505324415536577,
            0.7980324562472064,
            -0.9219881474178401,
            -0.6691197759710145,
            -0.6286808460877453,
            -1.3713221267477844,
            -1.403802503071111,
            -1.2891196516437111,
            -0.433994266132441,
            0.40214441236024767,
            -0.8168465031276302,
            0.6220789855086388,
            -0.8801607077014586,
            1.102916087745928,
            1.3832773964575036,
            -0.23385910219270073,
            -1.2772076213769754,
            -0.4493486022461676,
            -0.24108496489560688,
            0.491895700774386,
            0.9630307724111018,
            0.32303160440151363,
            0.402827882934676,
            1.2853652884955424,
            -0.5247751356160592,
            0.7713402172487217,
            0.8241568398207988,
            -0.23932388016736983,
            -0.3840976418910841,
            -0.31988613561682677,
            1.338309911722595,
            -0.5824882478747484,
            -0.695819843806533,
            1.2552935222439392,
            -0.5016057580083781,
            0.12562783698801097,
            -0.07034858112186587,
            0.06588592134503785,
            0.48931683352936195,
            1.1749861708995708,
            -0.46261227956574935,
            -0.6180099550760969,
            -0.8381924377573462,
            0.11714338085114745,
            1.069349906329181,
            0.8010423618160211,
            1.0692257904577367,
            -0.020965631825509683,
            -0.7753651047884208,
            -1.0689093390329758,
            1.4078155919532618,
            -0.0319102387885002,
            -0.9701492667078727,
            0.8766749679059465,
            -1.0442355702918265,
            1.1486669002662877,
            -1.1793727058699732,
            0.14354769887126675,
            0.020508092253710388,
            0.6803279965352134,
            -1.0340803952039748,
            0.8162962815273718,
            -1.1764416599046688,
            0.7839826183614318,
            0.1440382405002209,
            -0.6947348570840731,
            0.2856167275179766,
            0.6621385991683856,
            -0.09642169918570842,
            -0.650127977202834,
            -0.08144728602229316,
            -0.5568591150928838,
            1.0635128059213679,
            0.28326608881721826,
            0.5504828152131022,
            -0.5822366270147024,
            0.8282197838915829,
            0.6279298007658011,
            -0.23437736008400606,
            1.1124033509175615,
            -0.8038514175227048,
            0.9262192453397746,
            1.39354634700493,
            0.31628502798940145,
            -0.07207130658899603,
            -0.25345932079307415,
            0.48257464681492446,
            0.28776553639757224,
            1.3728695908466386,
            0.07597829729125533,
            -0.47986243921865507,
            0.5353372520143733,
            1.1223984512329193,
            0.009811312954851369,
            -0.4810238232456932,
            -0.5651891379375559,
            -0.8619107904979184,
            1.1407083859730984,
            0.5136315908180651,
            0.706337111432465,
            -0.749959030849098,
            -1.277761808180515,
            0.9234399137782912,
            0.8481684104759881,
            -0.6142220730189838,
            -0.6735022648457532,
            0.3936058487954558,
            -0.7055764125640944,
            -0.9201481630515441,
            -0.8042664790104792,
            0.24147577083322283,
            1.2489103087604836,
            0.4201400712137987,
            -1.3775974858400333,
            0.4153974479106029,
            0.7430433983758514,
            -0.1379832293632095,
            -1.3838897591242616,
            -0.8941253297335843,
            0.838365340490089,
            -1.0996053865487578,
            -1.205678131703496,
            1.1684156542903732,
            0.9383344657800634,
            0.4549290465921988,
            -0.8215030854937034,
            0.03844959514437264,
            0.5577571599481763,
            1.404570392517557,
            -0.6321985256934702,
            0.4035593717964158,
            -0.5779511167810584,
            1.4068999394409472,
            0.7576644274069675,
            1.3246696844934902,
            -1.013197926796419,
            -1.0883991062245815,
            0.6459190345961608,
            0.6723547563150939,
            0.3074804591075586,
            -0.23118016866527796,
            0.8370300917835571,
            -0.6723302027378594,
            -0.5661736298266564,
            0.6660689140843962,
            -1.0635091709170605,
            -0.31490287189808336,
            0.7722442874902575,
            0.9000095504060265,
            0.928335678049736,
            -0.7889451461324838,
            -0.5748510677186921,
            -1.0544504188561905,
            -0.6034259327081436,
            0.47469479835970335,
            0.5082954823375272,
            0.8181698039138128,
            -1.2234879837769383,
            -0.696276771921286,
            0.017429697371550222,
            -0.6017705500344928,
            1.2794741302848494,
            1.3332102503569792,
            -0.8808556463955312,
            1.1866240229438865,
            -0.15677318948854774,
            -1.2382857746025864,
            0.9236398664372335,
            -0.12511645552807985,
            -1.0141541817753075,
            -0.969576239347503,
            0.9274116577502506,
            -1.2541011470296701,
            1.1917918526845517,
            0.9803913123644443,
            -0.16810167570828782,
            0.6942963363650342,
            -0.8808924890794722,
            -0.008837694972814048,
            -0.14049191681595546,
            -0.3624542008831985,
            0.3715589435349652,
            -1.2036127644408754,
            -0.9902992401340052,
            0.8978395652854289,
            -0.6325804742485852,
            -0.876049307046888,
            -1.322864863319112,
            0.9752418997250721,
            0.3254642271278084,
            -0.009351814927109462,
            -0.7464609739607985,
            0.7201968156105625,
            -0.235469678099264,
            -1.3248807444428534,
            -1.2992881452759293,
            -0.1521109027102858,
            -0.9344101073838036,
            -0.7251707813282784,
            0.9287006483015378,
            0.6989338036018351,
            -1.3788289452182507,
            0.43771347766560076,
            0.46431639198741403,
            0.08958511389077797,
            -0.09780150339671552,
            0.24498686800294434,
            -0.8011788558967458,
            0.6664093913790315,
            -0.3193743619689499,
            -1.2525613709805263,
            0.3751679039765146,
            -0.9090620522499627,
            -1.2085096781702152,
            -0.20481351882018564,
            0.3721203014493906,
            0.8977554802826381,
            0.47792099497860385,
            -1.1888699952292372,
            0.1049701325173544,
            -0.7988264197654635,
            -0.9130737213339555,
            -1.2054777075459147,
            -0.28755745679143063,
            -1.231947065305892,
            -1.4051112278283262,
            0.3939861895997735,
            0.33869774143372516,
            0.5847902038166911,
            1.1890617144818383,
            -1.0259711597612606,
            1.2387443626783075,
            -0.5522151681096681,
            -1.1731307359455845,
            -0.565466336772975,
            0.06238589951689694,
            0.013887754518775476,
            0.3401814721885901,
            1.269740513834888,
            -1.1879369009724607,
            -0.7274158626158495,
            1.3210959882660027,
            0.5555547102721814,
            1.1337228151534202,
            -0.9035642741175652,
            0.11033477147529304,
            0.3140573488272678,
            0.18399676704709855,
            0.3891359642651078,
            0.805695428418273,
            -1.3020897830046911,
            -1.2019655958277917,
            1.2308925932625971,
            0.31774751880133945,
            -0.04796127562982767,
            -0.5373036267403385,
            1.3820612722311887,
            1.3016032478883193,
            1.1353948984794588,
            -1.0718809483300258,
            -0.7493931556531868,
            -0.6723026053268598,
            -1.375636009375669,
            -1.1960506679951175,
            0.12547096695147675,
            0.0688474021791053,
            -0.2980535508337192,
            -1.19890172241859,
            -0.1514572822918392,
            -0.2766631288433717,
            1.291673722699443,
            0.1395757604344085,
            -0.45868539284141485,
            -1.2255509160814642,
            -0.4606992742158584,
            0.9508517161956843,
            -0.19654336040858972,
            0.0288200682719405,
            1.3050996364728724,
            -0.6670336347719685,
            1.3503927569007133,
            0.07090836674241295,
            1.3076842704664096,
            0.7482261256673742,
            -0.2603819517064773,
            -0.24330582408849838,
            1.3736731812923235,
            -1.1469387376311915,
            1.219327860868581,
            -0.9021505909414611,
            -0.96957318025916,
            0.17812863174651014,
            -0.5390148798190074,
            -0.8359658926339869,
            1.0710857231823283,
            -1.3411641717613056,
            0.3010513502984365,
            -0.33290584319639116,
            -0.8229815722490108,
            1.3152210552164931,
            1.2810056379911743,
            -0.8335099650954001,
            0.5442651822018555,
            -0.6679719603702324,
            -1.0042253422918423,
            -0.32081164978767934,
            0.13404820695007463,
            0.40514478018819383,
            0.7731343864407896,
            -0.22701574844401826,
            0.4942471861969105,
            -0.37693501347481834,
            -1.3621435696259014,
            -1.023127283155497,
            1.3451888504556735,
            -0.6775586046355456,
            0.8130255837159417,
            0.8171202945628102,
            -0.16558293238685362,
            0.7502686647883529,
            -1.3830577067459717,
            -1.1889534839621805,
            -0.24290759276010696,
            1.1286832442017452,
            -1.38389720615793,
            0.3095729164488476,
            0.6832529535968529,
            -0.6968947256672233,
            1.302176873864679,
            0.9943835327762125,
            0.894932081204521,
            0.25446318383955047,
            0.9983719748428264,
            0.7323209012993923,
            0.6914283302705511,
            -0.9490947035167977,
            -0.8431127968226936,
            0.3807512834869981,
            -1.3733538593748231,
            -0.21682249761857691,
            0.6450134740354014,
            0.8628994919567706,
            0.8267280485876648,
            0.2573487371465186,
            1.1727963181405203,
            0.44480907729647495,
            -0.1798742728725666,
            -0.31132864770990837,
            1.3960969482691588,
            0.08833001714033695,
            1.3812755924678475,
            0.21076105034511636,
            -0.018516398864104375,
            0.7865252793964751,
            -0.8384768302920879,
            -1.3122009620340302,
            -1.3582584223896517,
            0.20777309726278678,
            0.3239821316142491,
            0.4118515225642704,
            0.846255722746805,
            -0.1931937657234584,
            -0.9234940516964575,
            -0.8956015069840506,
            -0.09709437690604172,
            0.6604537267564823,
            -1.289323979569046,
            1.0727462294516577,
            -0.879617342144862,
            1.3627824593160827,
            0.25621178600616384,
            -0.1915712132776739,
            -0.888698433436811,
            -0.7013360809665538,
            -1.1791754993469217,
            0.8064118242399994,
            0.8596892316944279,
            0.8472128155203996,
            0.8320292851497827,
            0.9035919706539016,
            0.3070044340718967,
            -1.0427920769389936,
            0.06643788678192197,
            0.6256315693528467,
            -0.823382570853607,
            0.9998102451847484,
            -0.025110118929960817,
            0.4018055930306178,
            0.8258634131028818,
            0.35093767853502594,
            -1.3150957338363987,
            1.3496518131596065,
            -1.3978834903763944,
            0.6893413401258468,
            1.4034084647515155,
            1.2448885306265058,
            1.0837373231314713,
            -0.8377827848161361,
            -0.4528629548672799,
            1.2459618049709085,
            -0.9167303554681213,
            -1.029047823171854,
            -0.005778153314589896,
            -0.3789490053965433,
            0.44732231747401574,
            0.4314623522803988,
            -0.03164469757505619,
            -0.30795091395906493,
            -1.2224337470614186,
            0.4550550334415266,
            0.35923293052163563,
            1.2683916792140315,
            -0.39012883857791303,
            -0.8800543168190557,
            0.865448478007137,
            -1.4001164649391025,
            0.39420463833928066,
            1.0736247210122982,
            0.6767945768494076,
            -1.185263270652275,
            -0.6498610587633638,
            1.1420233474524886,
            -0.6158844916093215,
            0.7416289475327285,
            -0.950145942497849,
            0.09303090522488659,
            -0.14410889778726846,
            -0.179551244325182,
            0.041832383033068896,
            -0.044889516589228115,
            0.15457675916426522,
            0.9223381921510583,
            0.968435706930041,
            1.0982135404889037,
            0.8785575821336982,
            -1.367562947014542,
            1.3379178304899284,
            -1.2239706336469858,
            -0.36447990799773694,
            -1.16797778111146,
            -0.720304030360583,
            0.20374922506628243,
            -0.6764361718713211,
            0.5774790002333606,
            -0.024573751882153015,
            1.3206230742929503,
            0.3855971269627681,
            0.7469151549102856,
            0.8804849638211498,
            1.034056784627157,
            0.20086722796657935,
            -0.919883573678699,
            -1.1834319364666614,
            1.0349993616498967,
            -0.1272408507322994,
            0.8961072587089235,
            -1.1039302309067027,
            -1.0124710308873985,
            1.2465563156886277,
            0.6509845258628716,
            -0.6358343794920045,
            -0.06658352727743301,
            0.7197570291144234,
            1.1854030746796766,
            0.9406650685205928,
            0.47268119508794015,
            0.20660427857473682,
            -1.3376470184617997,
            0.5118669860050626,
            0.2736442906199106,
            0.2563833872499769,
            -0.2539950028326004,
            -1.1724556228655387,
            1.3004027714123516,
