{
    "model_type": "MLP",
    "layer_sizes": [
        80,
        64,
        10
    ],
    "weights": [
        [
            -0.38006137601049256,
            0.932331165192458,
            0.009772937239460924,
            0.3802547956510403,
            0.6360608988183356,
            -0.6645344366896737,
            -0.6728387670473812,
            -1.2957163143232062,
            1.2989260968886216,
            0.9585776460959098,
            0.8067803379486398,
            0.8646549813662215,
            -0.8004979310742381,
            -0.8620482261274741,
            1.333016769447364,
            0.5710292743506193,
            0.07647374846069867,
            -0.4631618778677499,
            0.8134055191681174,
            -0.7484919691193226,
            0.1855796083302091,
            0.7185224415596867,
            0.5380456334068647,
            -0.7318896553065828,
            -0.46566300264293714,
            -0.444106845048221,
            1.0311166570492762,
            0.5949332222574072,
            0.06479887080387885,
            0.08687057235096865,
            0.41521404119199995,
            0.6305511243758651,
            -0.7998239169017445,
            -0.012014250097096283,
            -0.20884677825849238,
            -0.7284759024939611,
            -0.7797390980666569,
            -0.14387367692790626,
            -0.5298962677658831,
            -0.07128592096419528,
            0.7232462252427123,
            0.4338887001951385,
            1.3920257475536313,
            0.46838858788304744,
            1.2830208720955658,
            -1.1402615726425571,
            -0.9344523375687892,
            -0.05923326947739808,
            -0.8252709634407679,
            -1.2363270973385339,
            1.2723292561992152,
            -0.14504343850298318,
            -0.9808011445241737,
            1.248642220862462,
            -1.2638188911762775,
            0.3912879140677011,
            -0.380300465522921,
            -0.609549981699375,
            1.1249099454683114,
            0.10665884906022313,
            0.903765837100749,
            0.013654794800465027,
            1.0576228342994982,
            -0.7557343973614532,
            1.1072962989760098,
            -1.2551222769108246,
            0.4854335499820135,
            1.1882770684093809,
            1.2988068937683817,
            -0.12253175766685447,
            1.3478346537801202,
            -0.8061803713671927,
            1.1315873506191163,
            1.159098652672513,
            0.8292162093836031,
            0.7650833778892263,
            -0.5878979778346273,
            0.9119405300369215,
            1.1433011995659441,
            0.697511015296648,
            0.4089667390650667,
            1.3577848249907394,
            0.09382195433083983,
            -1.2624318641614523,
            -1.0785119237108556,
            -1.0632698625169676,
            0.48988556465377187,
            1.3794625805851344,
            1.2262469293523859,
            1.2790691204122555,
            0.30232586561809693,
            0.18449311900006463,
            0.6668551313026604,
            0.5355657155609992,
            0.5214395227601872,
            1.058036048186546,
            -0.9862794646006539,
            1.0530542498340763,
            0.13700137345485397,
            -0.259746340074678,
            0.10454239516265723,
            1.1878467619207758,
            -1.370364340613886,
            -0.17151375996555474,
            0.20753120375003106,
            -0.8598439285947671,
            -0.0734298919557308,
            -1.056573064527325,
            1.0964862445425398,
            0.17056785318251633,
            0.701662079533685,
            0.09928350232217138,
            0.5132588964554877,
            0.09566917630647946,
            0.03764278948976291,
            -0.6974375629168874,
            0.15834592122497984,
            1.3572367209185643,
            -0.2700689410043055,
            -1.154282989183052,
            -0.5527777340020824,
            -0.5935059271629471,
            1.3114335123403622,
            -0.5973192504553215,
            0.5695932563819769,
            -0.5612065718020802,
            -0.1691837983330242,
            -1.1414012199305663,
            0.9978650323222293,
            1.208261132858806,
            0.0012972512735095997,
            -0.07474022786847415,
            0.7186574808839125,
            1.1860964160619432,
            -1.1896495105111518,
            0.05253071694887794,
            0.5663566330905141,
            1.1056110688639953,
            -1.101807707263161,
            0.6997675901061108,
            -0.4847034043286139,
            -0.5072434280133135,
            0.36214141179025094,
            -1.0408878134931538,
            0.4676002743185273,
            1.1408716412822875,
            -0.6693252004528968,
            0.31616239431192006,
            0.3484980473525702,
            -0.9754314266496633,
            0.3894315785379414,
            0.005037093346293363,
            0.4009785699718997,
            -0.5382139530470021,
            -0.8752955201189068,
            -0.26530958260776516,
            -0.38389229638849315,
            -0.6167257160597275,
            1.2368145163640551,
            0.3000224110889198,
            1.013957705320645,
            -1.3964174575673782,
            0.2862130099441777,
            0.8541549116072459,
            -0.6890301915078687,
            0.7008473676363042,
            0.13628960086759598,
            -1.0764174759479932,
            1.1589140435446894,
            -0.298865823098497,
            1.1771357157925084,
            -0.7914701667619827,
            1.1273328283724302,
            0.8031032434607047,
            0.6418097704758913,
            -0.001398461372469498,
            0.7960364644113265,
            -1.4038683991720828,
            1.0249875439098428,
            -0.7316288083960945,
            -0.7883577929174526,
            -0.6614125407072221,
            -0.5024728361419263,
            0.6437803079715421,
            -0.8326522858332135,
            -0.5266076199766303,
            -0.9464814384084658,
            -1.3782365545019781,
            -1.2438787691307374,
            -1.0607978944195424,
            -0.5077336310390835,
            -0.421673519201579,
            0.009664727006512061,
            -1.2943997199944681,
            -0.9491997389921294,
            0.19217392327570307,
            0.12933680188149183,
            -0.2923353811218029,
            -0.2681720636210551,
            -0.8348905075940064,
            -1.4065885018893782,
            -1.327293744963612,
            0.0483233291320179,
            -0.25683854307186865,
            -0.31798066198005126,
            1.3540789213814222,
            1.1242425461762457,
            -0.692743345293371,
            -1.0414206088766267,
            1.1619880776819966,
            -0.9858133997777073,
            1.3948874696267848,
            0.0262483885765216,
            -1.2116437284662025,
            0.2590946197666531,
            0.3538401450536386,
            0.9295244861119902,
            -0.021068365473385118,
            -0.7274787633702755,
            -0.29340429043118,
            -0.010498525333440215,
            1.3695372631858593,
            -1.0280544511976635,
            0.3057053130931742,
            -1.1300774664642792,
            1.220318527225247,
            -0.5278775662693386,
            0.41740560844143565,
            0.04562439484274432,
            -1.3023575552859414,
            1.3542809017268673,
            0.2539190883105212,
            0.14352782842873618,
            0.5827655149828492,
            -1.1380629997894447,
            -0.2650532208140093,
            -0.23907046338455895,
            -0.6148465430973479,
            1.3845666892552988,
            0.8656802250837929,
            0.3530623880602683,
            0.9991366454919338,
            0.5101921488775906,
            -1.3314272566415124,
            0.4281739390184827,
            -0.7607706614483974,
            -0.647943046418463,
            -0.21763537458178084,
            1.4071391186468203,
            -1.3349715632934767,
            0.6210297526511441,
            1.182693828771299,
            0.8103688829857414,
            0.7669576240970304,
            -0.31314933553184243,
            1.3598066259754078,
            0.9090773920307288,
            -0.020992916409975273,
            -0.495332768648781,
            -0.5071903510509707,
            0.8905529595187592,
            0.9790156588440158,
            -0.8545067207510592,
            -1.1242175915733121,
            0.7069047756225241,
            -0.4519319057096344,
            0.1662666889839762,
            -1.0859323253581559,
            1.326477900175467,
            0.7984008439386072,
            1.3442971216192354,
            -0.3245225948053513,
            0.05980986780012251,
            0.6038937377705822,
            -0.31498213282286347,
            -1.130749040527779,
            -1.194782178275701,
            -0.5104667675230823,
            0.871247678300436,
            1.3089995788790416,
            0.9277371738869032,
            -0.610040374905381,
            -1.125188097942569,
            -0.22994369819325597,
            -0.9472704473185918,
            -0.3450890829637658,
            -1.0668031880115247,
            0.8211048322901137,
            0.7815124723179736,
            0.009925983604688481,
            1.4411445123635254,
            -1.178412823505267,
            0.7595680112467148,
            0.850322006980874,
            -0.1375244130091192,
            -0.5375319552882508,
            -0.21997380378775608,
            0.5306488696985372,
            -0.762750538992008,
            -1.2148120875154569,
            1.334877555690715,
            -0.12263772237509679,
            -0.9308664611853573,
            1.3310383151797476,
            1.3567314166663391,
            1.3724547552036073,
            -0.5830190384064566,
            -0.2455102121429392,
            0.44106539906077186,
            -0.6994637567352305,
            0.3843004650042999,
            -0.8268656262328281,
            -0.6622318824252739,
            -0.7754995134034325,
            -0.7840205882431084,
            0.6514793554246778,
            -0.2255132090194608,
            1.3316885178806381,
            -0.9886964359595309,
            0.8927282849767966,
            -0.9937980965166868,
            0.9306082549069637,
            -0.31586347482548943,
            0.8646242846279452,
            -1.1056788237959223,
            -0.7260350087318954,
            0.18197655397952983,
            -0.9563079176562737,
            0.6900880982685442,
            -0.023350388466733426,
            0.7584812264743518,
            0.6064750868671726,
            0.10364481469194171,
            -0.695275035039824,
            -0.2592120150086937,
            0.44210558174036574,
            0.012379870558160077,
            -0.790614738166201,
            -0.6772338438892787,
            0.13679152589973378,
            1.3709494018312396,
            -0.7464551252567948,
            -0.838045523372858,
            -0.5094340215264606,
            0.8143522435462053,
            0.8975260265847033,
            0.22486081207715009,
            -0.5333917179337272,
            -1.0678705568390938,
            -0.21346817595881235,
            0.3864032706977861,
            1.1582712913493705,
            -0.8725826427532923,
            -0.649174559931977,
            0.5012394113360339,
            -1.1260036861061316,
            0.3348583077406902,
            0.9144393673473052,
            0.9213570154433698,
            0.20740303319435166,
            0.07267433989528015,
            -0.1054010075577728,
            0.8872269042720872,
            -0.8647781177322842,
            -0.19251516307380226,
            1.322832540721212,
            0.5142183842939876,
            -0.4428427649495876,
            0.5270202005033368,
            0.9878425042204537,
            -0.6122094391248564,
            0.6873960868078464,
            0.4783940878060084,
            -1.1095137665714612,
            0.7781265389926503,
            1.3590603743349103,
            0.926446872386966,
            -0.089837283388297,
            0.8180249673854465,
            0.7529652047272463,
            -0.17386015874324545,
            -1.3123435650024973,
            0.5892758189137923,
            0.18310972671706605,
            -0.5915956205036393,
            0.3202355756905938,
            -0.05471072099946119,
            0.05335939466777325,
            -0.6341717908107254,
            -0.4261232442293308,
            -0.741080136281201,
            -0.8886613560071805,
            1.0799840985804026,
            0.9155222922639702,
            0.013924941697800479,
            0.9576578919011923,
            1.1683123695350819,
            -0.7854782058885007,
            -1.3175942933540914,
            -0.635860158844705,
            0.11573817403018498,
            -0.2454488699612267,
            0.5770996045513879,
            -0.03209320879640662,
            -0.7318658343539161,
            0.32677804531401006,
            0.9765336779221533,
            1.2748456399576042,
            1.091586987945208,
            -0.25053898283422715,
            0.1988087701688436,
            0.9042884226068112,
            0.4693716370017137,
            -0.22439064025458114,
            -0.3334898580122634,
            0.7710430032445184,
            0.6298498820888954,
            0.14031578036210163,
            -0.6417457091970558,
            0.2642947055035199,
            -0.9666850659929198,
            -1.2793375484985914,
            0.4053363737986545,
            -0.8319085093703359,
            1.122597113452009,
            -0.8594821490203663,
            0.43326194485286523,
            0.5019421454155943,
            0.3220635701942637,
            -1.2204003746448862,
            0.6519345234361729,
            0.4303928676803114,
            -0.5993803824726901,
            -0.21931396975467649,
            0.5620626111566247,
            0.630532808927786,
            1.178332666100943,
            0.7602884938157926,
            0.2299192333843756,
            -0.8427893707833607,
            -0.30173210071136725,
            -0.45917289763481045,
            -1.0957825905845997,
            1.3318286192558169,
            0.4039079073509159,
            -0.04922485664525133,
            -0.5735064392806964,
            0.1886043014223944,
            -0.10039821006807455,
            0.4768931016373354,
            0.09453031936178498,
            -0.9466550144562867,
            -1.277458483281972,
            0.3826487645749388,
            0.5604147732818215,
            0.09601742351909752,
            -1.0397794957750162,
            1.3499798858800551,
            1.3126629026642316,
            -0.15303428556177615,
            0.4187132495296661,
            0.6189425412016886,
            1.1490309917979689,
            0.4754442461441689,
            0.6880280912038704,
            0.5038687950633404,
            -1.013107264081956,
            0.3354854913073885,
            -0.8285007022092004,
            0.13388110837216005,
            1.3227710482930546,
            -0.6663397901340836,
            -1.0200880393742697,
            1.312975817694314,
            0.7596870091228127,
            0.8359652892134578,
            0.036108584924323894,
            -1.3873074871124749,
            0.21674836579771742,
            1.1070117396343278,
            0.9321606054211435,
            0.10249915050078125,
            0.289009192500987,
            -0.3491443651852808,
            -0.6896899356410532,
            0.9308938687780635,
            0.35266693540849686,
            -0.8974109920378758,
            -0.5337504947150984,
            -0.07722607355478513,
            -0.21720577788981588,
            0.24042328878577918,
            0.6738802860518224,
            0.6310587096486601,
            -0.7141969451430399,
            -0.860731808518631,
            0.8537335094327881,
            -0.2739610920810164,
            0.006484583729655722,
            1.1315895860854188,
            -0.09575884383703552,
            0.4134333303001568,
            -1.2836402024114015,
            0.2699977435907919,
            0.21859274363942702,
            0.716586599053074,
            1.2377241291034353,
            -1.1526255220482078,
            0.22938059684355733,
            -0.1894136804530273,
            -0.07088819194031738,
            1.0392700948754248,
            0.8086682646132035,
            1.3545962235916837,
            1.2951388941546311,
            -0.36499157720709025,
            1.2064834608653232,
            -0.16311283315111524,
            -0.607560624375324,
            0.7655302873955128,
            -0.28968065675607463,
            -0.2128845549258404,
            -0.7860195552076398,
            0.5599531364597337,
            -0.07427566399698338,
            1.1240303837115386,
            -0.2517464020997965,
            0.05504040856091114,
            1.2596540831751692,
            0.7739793811164771,
            -0.0017282709752509799,
            1.220365298600839,
            -1.251542838304531,
            -1.181314422964263,
            -0.9148590875491878,
            1.163255370474838,
            -1.1757126933515516,
            -1.200888835500982,
            -0.9895267896080342,
            1.3726309755086266,
            1.3225908974089315,
            0.5347736196247559,
            -0.40101373144033065,
            0.08072530953423883,
            -0.4290575194896092,
            -0.6584240487670986,
            -1.38439928161247,
            -0.2001611157549471,
            -0.5204248768383027,
            1.091222967720957,
            -0.1925840173401981,
            -0.7957919327216597,
            0.137176909132382,
            -0.40726438496372347,
            -1.0123737919668159,
            0.03429721242103247,
            0.9282733758851501,
            0.9217493612632868,
            -1.285212610455719,
            -0.32551385769903607,
            1.2670874055072987,
            0.13902352703385498,
            0.05300638338246202,
            -0.36289383848195406,
            1.3012106339869958,
            -0.9043953896042928,
            0.4740885493765932,
            -0.13818504296057693,
            -1.2369045571178365,
            -0.9701775629844338,
            -0.08458578585214024,
            -0.49854253397143217,
            -1.0591455119051,
            -1.1837483402306799,
            1.420054246588148,
            1.2928341096136582,
            0.5315367575046448,
            1.347971907608713,
            0.5264445805962417,
            0.7142274572419797,
            -1.1499669916678712,
            -0.3476580561688186,
            0.40955040417487754,
            1.3947737476569295,
            0.27860300740925875,
            -0.8794373162365008,
            -0.8236917034607597,
            -0.14580094494058016,
            -0.8441496760145858,
            0.5601056670629586,
            1.2104572324780183,
            0.9886354224980921,
            1.1764431413635619,
            0.13111248631047273,
            -0.44755606657978714,
            -0.05060952730337132,
            -1.0232357135094226,
            0.7516530254969653,
            -1.2900786569749694,
            -0.08526168880253142,
            -0.015607874575585951,
            -0.22682736990658975,
            0.05901668127181068,
            -1.1702758439393,
            1.149720765947141,
            -0.7141458580454021,
            0.4513901125878792,
            1.3693381195588321,
            -0.05031973203413522,
            0.6429565787642275,
            -0.8657526295560077,
            0.2697481212123253,
            -1.3614734261524204,
            -0.2496347908037634,
            -0.6230168707623607,
            0.9061745607774474,
            -0.19672248737623507,
            0.7799644291908908,
            -0.12275785673011594,
            -0.08575962983614377,
            -0.5607429868544992,
            -0.43356811326860445,
            0.621484449958453,
            0.4908084534061309,
            -0.08634688035223226,
            -1.4241344501660118,
            -0.5075781971876882,
            -0.07515840230870671,
            -0.06003220676436233,
            0.8864522792772047,
            0.5788552498397748,
            0.9823270676661614,
            -0.4969512531209779,
            -1.0244702969840338,
            -0.9929252214070964,
            -0.12302980073341081,
            -0.8059120477289924,
            0.5645303420369665,
            0.506513565592424,
            -0.9145770114015906,
            0.3509304730782555,
            -0.10412073147934076,
            -0.20762019756118427,
            -0.10276916447954401,
            -0.8810239667742477,
            -0.2651518977542292,
            -0.9716768292475966,
            0.12203308354480506,
            0.6753987816695562,
            0.8005827133208411,
            1.2936779523502449,
            0.9605749499679933,
            -1.2446694501766649,
            0.7904492967854084,
            -0.5206831126766915,
            0.6467547897197865,
            -1.0101850432202382,
            -0.49550292556723097,
            0.7724300195006458,
            -0.8611477070774024,
            0.11195948269254663,
            -0.1485623057349705,
            -0.5012811931158874,
            0.08585111009152421,
            -0.2918263083602924,
            -0.24455260616441893,
            -1.333590380301564,
            0.4689945971479188,
            0.6012155420871631,
            -0.9691065110851201,
            -0.7520673995006235,
            -0.46503529427152174,
            -0.642551241968855,
            -0.2548263809689672,
            1.4025978449634628,
            -0.22780077232907786,
            0.4244588472618081,
            0.48934361972423013,
            1.3647328193019248,
            -0.06331358712205508,
            -0.07780122352105782,
            0.0666073857224027,
            0.9650568769924652,
            -0.880763224971813,
            1.3338789452950497,
            -0.03171019091027447,
            -0.2727621224836454,
            -0.34455694334143727,
            1.2842658317533342,
            -0.6976935656460943,
            0.7983750056677347,
            -0.2813056322964599,
            -0.324794332347679,
            1.2221088392949604,
            -0.5269657448383314,
            -0.6710099755360903,
            0.15494277763516492,
            -0.4512597533365919,
            0.43421060117177773,
            -0.3912851161789634,
            0.3496921234369131,
            0.2193620935251127,
            -0.44084338916623456,
            1.1851842689819838,
            0.5083297572953182,
            -0.23451387618077052,
            0.27923914533256394,
            0.0025625944580470387,
            -0.07135176671246538,
            0.30493907632606226,
            -0.6335481068978758,
            0.4660542789014199,
            0.9291372897904802,
            -0.2354834195170814,
            0.27942828419126736,
            0.8461493309212397,
            -0.5122162112958838,
            -1.1365804482192325,
            0.17776041573759688,
            0.7212711278621018,
            1.0554733650372552,
            0.7912537182750817,
            -0.5039954972722203,
            0.3039048155913726,
            1.2580919213996047,
            1.172395452957626,
            -0.4384018286995271,
            -1.3940819833642824,
            -1.382417870769907,
            -0.22454995578821738,
            0.053877271723290994,
            -1.1800448909073644,
            -0.01917863003743839,
            0.4179067256549619,
            -1.2340284705521218,
            -0.5240500334138407,
            0.27317600861192565,
            -0.07045217681492259,
            -0.7863199724197486,
            -1.35148848664997,
            -1.3283857615876595,
            -1.0106189242045867,
            1.27448837588055,
            -0.7796776003009329,
            -0.4331061638853963,
            0.02694653919681949,
            -0.2960777605689367,
            -1.1594346675271057,
            0.7169288610562267,
            -0.09708515696254674,
            1.367854280047693,
            0.14903122019916618,
            0.29342348951152775,
            1.3248062015149134,
            0.3918808256805303,
            1.382172618519307,
            -1.366055569193982,
            0.9091317440918438,
            -0.18107734917584298,
            1.1237359646371927,
            -0.7365377351847936,
            0.354224566423275,
            -1.1624364587665728,
            -0.05497851036076095,
            1.1287511904101515,
            -1.0851392437576894,
            -0.9928518260715669,
            1.2902210972322328,
            -1.1534799843944041,
            -0.9137816652275174,
            -0.4666356263138353,
            -1.3290846484243581,
            -0.0007641290324554682,
            -0.42062010575271114,
            -0.3224685926549479,
            -0.18840129713635959,
            -1.2295269223242917,
            -1.4034030938426383,
            -0.9400303503830358,
            -0.5090970223584437,
            -0.2233741022979215,
            0.16313203884153663,
            1.2870962427001347,
            0.3496061658453442
        ],
        [
            1.2044576375456892,
            0.14011709924779903,
            0.9184489258015269,
            -0.7476081291004151,
            -1.2699999313643144,
            -0.9804403836636199,
            -0.5967963729986977,
            1.1774563270462175,
            0.5737412442623874,
            -1.0600324360976676,
            0.06837121164434704,
            0.389170768635648,
            0.555588571047751,
            -0.24410308588901167,
            -1.1006172675033277,
            0.20451504283339653,
            -0.633223966105794,
            -1.1149589105763191,
            1.0943783396046645,
            -0.9423265102982623,
            1.2000587712480635,
            0.503391028378055,
            -0.8968175126820237,
            -0.6525634765670465,
            -0.7218824843903249,
            -0.16810850979005296,
            0.10620497481074988,
            -0.22927511370831746,
            -1.1057326449210392,
            -0.10784207414209963,
            -0.8822415594224376,
            0.0025022786351820907,
            0.5084765281990649,
            -0.133292634245132,
            0.5032835678441382,
            -0.2962823567154817,
            -1.0511079707680555,
            0.16752256754768802,
            1.239018836023114,
            0.19688243167008754,
            1.2751101386912593,
            -1.2555542565598476,
            0.8192757470802491,
            0.6164939709181372,
            1.1083864295876897,
            0.7024133090447992,
            0.9700889212187435,
            0.6135285489346618,
            -0.2867403104736457,
            1.0359101295776711,
            1.3233835329463322,
            1.3221691761703631,
            0.6936323957085069,
            0.023886311500061142,
            0.17677060804175887,
            -1.0588632791982944,
            -1.0183632875377135,
            0.7941688591081256,
            -0.5683610024541085,
            -1.2222481216139076,
            0.30915618296039665,
            -0.30251180931392196,
            1.133578446722883,
            0.3197514022882303,
            0.18953847085628855,
            0.055989109867720745,
            1.1104832834792242,
            -0.8088250139324714,
            0.31284346579969335,
            0.7525933818866316,
            -1.243940208682113,
            0.5398336125051391,
            0.3585008829684026,
            -0.789684569640842,
            -1.2593462054847833,
            -1.1892826193551793,
            0.3667169488792526,
            1.2365051420763298,
            1.3099157090599436,
            0.8269409330920027,
            -0.12904510158536953,
            1.4021994378141884,
            -0.7227286593452118,
            1.3878472883543962,
            0.6958188219947947,
            1.106351890357173,
            -1.3312884324313619,
            0.2536981234227827,
            -0.009311393366872079,
            0.2528006133351249,
            -1.2914037685539816,
            -0.8091264216755847,
            -0.21725626846676188,
            -0.8137126466125745,
            -1.398061980340035,
            -0.04874125070319938,
            -0.65376874405788,
            -1.3323850990140758,
            0.09259969631723164,
            -0.36227756073729855,
            1.1876903727797874,
            0.6354785842522777,
            -0.6429155386526245,
            0.4895993145082096,
            0.2263748015011718,
            -0.933314132049247,
            -0.6578770942382725,
            1.1622126069095844,
            -0.25820221750029454,
            -0.742004937518518,
            0.5029042432448052,
            0.3363263634995403,
            1.4127058717877918,
            -0.7491204880869156,
            0.8981648072009032,
            -1.3360172329178523,
            -1.0553818086708215,
            0.7406553512281487,
            0.362046781937343,
            0.41032665362085813,
            -0.46089534671361204,
            0.7637509916189772,
            -1.0288636295999538,
            0.479733742486052,
            -0.34398494510389915,
            0.3355242046601964,
            0.2466418489342221,
            1.085789548109239,
            0.630363085480134,
            1.092814781325182,
            0.46745131889285507,
            0.8097636070250138,
            1.3894840151286147,
            -0.276990458508997,
            -1.3493104898793047,
            -1.0219284849028298,
            0.2533595957291126,
            -1.3702518862542812,
            1.0178097735501932,
            -1.2418097268370334,
            -0.6953502668105036,
            0.5211580995682815,
            1.2098535396247796,
            -0.7978584562149852,
            1.074783612191184,
            -0.6421005231115933,
            -0.06646641579732435,
            0.9338421453701305,
            -0.1802169695461626,
            -0.8397482797199823,
            0.9353420888129578,
            1.4157449444673746,
            -0.0825271973969715,
            -0.6799426489493721,
            0.378049396839906,
            -0.6089234938339464,
            -0.005735511042856004,
            -0.9624087416171465,
            0.22552465908387836,
            -0.32437210214507617,
            -0.1581241981845122,
            -0.8223968579241113,
            0.44012522584849306,
            -1.3425608790019135,
            -1.3865335396690968,
            -0.7692111643473509,
            1.1410739289003171,
            -0.7353795283786257,
            -0.9611407658858694,
            1.1539807382856309,
            1.087523626867246,
            0.9006451117387754,
            0.31004877686601584,
            0.1863984296995044,
            0.20468125194300799,
            -0.7047884782118408,
            0.5731782031319848,
            -0.39146839927528226,
            -0.06546344149300536,
            -1.2024699193168775,
            0.11432978831570764,
            -0.800151291619519,
            -0.7657873930413479,
            0.24276556984708847,
            -0.7084962424631575,
            0.478379696064665,
            0.8633481186274429,
            0.5751679462930689,
            -0.6029305304891978,
            0.05412880131794014,
            0.41127951936249635,
            -0.64501426487733,
            -1.1056785012109112,
            -0.6255841835186209,
            -0.05430992432723748,
            1.3003122567154004,
            -0.6097142314650499,
            -1.0279983539268858,
            -0.6587642041815437,
            1.3913900461085023,
            1.247934021496602,
            0.9531742540827393,
            0.11394311923458879,
            -0.7322469639764086,
            -0.9167913733873129,
            0.463882606597186,
            0.03237550715713893,
            -0.5178272987230355,
            0.20931875640587036,
            -0.5244708240706523,
            1.361312404002103,
            -0.27318986080742813,
            1.1476439834564065,
            0.20427146439560256,
            0.5471619455136264,
            -1.3201846228574923,
            1.316602823049564,
            -0.6634449239716982,
            -0.600102851863737,
            -1.0858436042605533,
            0.2607018956387283,
            0.8063844966540424,
            -0.42989395930428304,
            0.13268836914581247,
            1.1388550740945402,
            -0.21422260386314476,
            0.8690567178657822,
            -1.2255892264973083,
            0.7481035511729941,
            0.6537578646595131,
            0.256712979259045,
            -0.36183895333787663,
            -0.7157890378693333,
            0.11942398842963889,
            -0.7027546843399389,
            -1.1802729283323365,
            -0.7417282895494234,
            -0.5073370391670029,
            0.28476353117252473,
            -1.045807254711662,
            0.5420859556671911,
            0.5812083163880102,
            -0.4179618793502094,
            1.1209610336834213,
            1.4035178029511752,
            -1.3892516520737164,
            0.017546314713638853,
            1.1775089686900169,
            -1.232863937803094,
            -0.3259232556018338,
            -0.9928646179174644,
            -0.6981389439782074,
            -0.5813063469050714,
            0.4504635742325434,
            -0.5994701310551706,
            -0.8130708182185317,
            -0.8632436893049489,
            0.6063601773736902,
            -0.35480919921242104,
            0.269707886317836,
            -1.4096981582192305,
            0.20185354104683276,
            0.9943170410265134,
            0.012931050060279625,
            -0.34006345800530985,
            1.0696801364378428,
            0.3282058754331624,
            0.8524554485646653,
            -1.0220570166112886,
            -0.34467100730950784,
            0.8498136650787292,
            -1.2876743114279123,
            1.1305723549659912,
            -0.17714070523130604,
            -1.0304724563612437,
            -0.9233550664041096,
            -1.1548206212143453,
            -0.11282972120851421,
            -0.9974416366284169,
            0.7696826288419254,
            0.05558858405840722,
            1.0440855637906021,
            0.43046226130300436,
            0.4651184266491583,
            -1.1617772220583975,
            -0.8084495245434098,
            -1.0893330201842644,
            -0.18066261046882434,
            -0.3233870547753655,
            0.23520282483642946,
            1.1095202974541505,
            1.318078362613572,
            1.1833347082833656,
            1.2030619341468338,
            1.3203465549329894,
            -0.6890815617304339,
            -1.2284600524208291,
            1.3533589043622936,
            1.2137465820365136,
            -1.142144448491912,
            -0.8012212619247542,
            -0.31478492648907025,
            1.201545304233519,
            1.156406182290134,
            -0.47768111457732054,
            -0.5868430528325222,
            0.10895395100922194,
            -0.7445480719927388,
            0.526816512434018,
            0.19721861127014137,
            0.7474582702996154,
            1.321340750887116,
            1.1115527682631092,
            -1.1793781376624077,
            -0.9684614698975781,
            0.3229726181014809,
            0.4056780283647365,
            -0.9837936901998443,
            0.6939443374000486,
            0.21362145913195738,
            0.7223689547383065,
            1.1179260661736756,
            1.3837803650035452,
            -0.20832153983688684,
            0.3732292322314846,
            1.2534476490349598,
            0.7149393675056889,
            1.0851848115999294,
            -0.33131208983768956,
            -0.43680785531402017,
            0.4597990914752174,
            1.0340558631676895,
            -0.8035500094034214,
            1.1711187335860653,
            0.607372688694379,
            -0.09693680819303194,
            -0.2656089461963602,
            -0.6256614801374353,
            -1.3239887504986607,
            -0.05923337576284885,
            0.472957824789283,
            -0.40353794401087845,
            -0.6513818512207918,
            0.7084991599128125,
            -0.8697214417963178,
            0.5024988272588923,
            0.7479549185836253,
            0.7944407189737088,
            -1.0218904632696073,
            0.6823084787396074,
            0.7995330605494917,
            -0.9572287568240209,
            -1.1241076256847247,
            0.6825630931114198,
            0.263805897258861,
            -0.05138857763101984,
            -1.404291419091722,
            1.104587116884755,
            0.4554332110086232,
            0.8412051316678161,
            -0.17195191694037099,
            0.16687202665560372,
            -1.2305903234819526,
            -1.1891736811910685,
            1.1009187385945594,
            0.12041777138949104,
            0.24086007469140353,
            -0.7614133996303772,
            0.23969861556008792,
            -1.1593699636578205,
            0.7292652767505833,
            -0.9385835493000874,
            -0.6495837937471527,
            0.9724463672156978,
            0.2644435304448215,
            -0.14759639670652225,
            1.1589869351113444,
            1.0564111754809389,
            -0.8971798897234645,
            -0.3299727065872698,
            -0.8233732215093645,
            1.3635738611374342,
            -0.24694088750600235,
            -1.0131420102800008,
            -0.5928695907277388,
            -0.39293544630079275,
            0.8471769766759398,
            1.0581217138642374,
            -0.994419021484843,
            -1.005384140938326,
            0.43151216368232015,
            -0.06798986088319348,
            0.44646479448057635,
            1.1520953630204616,
            -0.591358478805646,
            0.9850853605729389,
            0.0960437351126633,
            0.857326339158132,
            -0.31137238108203513,
            1.0752879453992643,
            0.809053120459308,
            -0.5250264829897793,
            -0.9186780556060974,
            -1.3236730094807536,
            -0.7186121207921401,
            0.019860781922935392,
            -1.1861337131972594,
            -1.2111513714153888,
            0.1573530065344253,
            0.5681021171842765,
            -0.6696573058089066,
            -0.11938562629880467,
            0.8760767091508646,
            -0.03884371419456162,
            0.7745455725902423,
            0.18250217585708436,
            -1.057657554074949,
            0.11987381559639569,
            -0.13157312399738158,
            1.0418978216980714,
            -0.3750455302437169,
            -0.6383931003276129,
            -1.217735808630757,
            -0.6581946258326395,
            0.380164204893638,
            0.3710939373226546,
            -0.9539362706788351,
            1.3966425411127543,
            -0.5525382326941153,
            0.3190265610679014,
            -0.3126600426939304,
            -0.1685642834527422,
            -0.2437686965016697,
            0.04450831424403861,
            -1.338195377922968,
            -0.56125839999912,
            -1.062423936139386,
            -0.07239263725833638,
            0.8072752586815652,
            0.9134742148918218,
            -0.9403286975812933,
            -0.9289835385028636,
            -1.128175647097847,
            1.1287878500187376,
            -0.47128773894787845,
            -0.9391179466615174,
            0.29422160097518746,
            -0.5530544652419315,
            -1.3273991968777457,
            0.07836297056309091,
            -0.15770850645674386,
            -0.13851498687268565,
            0.7631589418254879,
            -0.664373009296115,
            0.6762739995782768,
            0.7141616866629137,
            1.2346565010856634,
            0.7983500873000964,
            -0.8861888217128665,
            0.9002315118123414,
            -1.3494638146263798,
            -0.8506770091230985,
            0.4116089719033875,
            1.1970231132610467,
            -0.09422343638194461,
            1.3496017809881393,
            1.2874960995781952,
            -1.0570908682722318,
            0.9997516578687784,
            1.1181341839905856,
            -1.2408098687917537,
            0.5372284445569605,
            0.07594756094997925,
            -0.5599678662855261,
            0.4619270755647441,
            0.228801151547837,
            0.12439935948078241,
            -0.14250680397313628,
            -1.3455431289785655,
            0.4823141886828873,
            0.8858813715823917,
            -0.5506709323706298,
            0.8208837656772955,
            -1.3200866752876277,
            -0.596579217118695,
            0.8211636095392537,
            0.5152861089763349,
            0.0010978026880305173,
            0.00031247590886825246,
            0.16305384568915315,
            0.5841280459551714,
            -1.2353267307696603,
            -0.05579021158939283,
            0.4471311962478895,
            0.40024124863885,
            -0.045568694112490676,
            -0.6926440762492246,
            0.39844107810998053,
            -0.05793985630247902,
            1.0150985699189232,
            -1.1353686417391977,
            0.3866411293145139,
            1.1659033718352994,
            1.160201891271837,
            0.6145060468908904,
            -0.21479614645792627,
            1.407430429074793,
            -0.09440149218484328,
            -0.7274341034823091,
            1.4031997088994481,
            -1.2813644821934784,
            -1.341701154645723,
            0.8371123724422843,
            0.9460798720321241,
            -0.8993781714726502,
            0.2270521571552041,
            -0.591147093719427,
            -0.6342021344929213,
            -0.9264892270642028,
            -1.3744675847537597,
            0.9717207107174326,
            -0.6376056847472631,
            -0.659019287707772,
            -0.9359442211574912,
            0.35445275492131373,
            -0.9616086402472407,
            1.154723319307635,
            -0.3658696807009303,
            -0.5716341562248052,
            -1.1298314004499532,
            -0.5343863230194994,
            -0.7594796133927096,
            -1.220303757633588,
            -1.312160459997216,
            1.0255311308320316,
            -0.3515257786047335,
            -0.8654895543133534,
            -0.6215784051496136,
            -1.082185874818663,
            -1.0041421479603552,
            -0.9913955558757392,
            0.12208707790492822,
            1.0385244120608783,
            -1.1645740531164874,
            0.3149967719220778,
            -0.7027832707393158,
            -0.6383722483395582,
            -1.2544865177453919,
            -1.0970960500375264,
            0.8501718735490038,
            0.5786027664839142,
            -1.3991274792914958,
            0.39178595714893505,
            -0.3423212692385795,
            0.8813351752843386,
            -0.8514760286319561,
            0.5605741814322689,
            -0.963004200426697,
            0.8548696275064448,
            0.8258031866148973,
            -0.8049923230394139,
            -1.2673013672444902,
            -0.08816804920467093,
            0.10823689182585851,
            -0.3437618993086586,
            -0.3728706188864335,
            0.12512193782935035,
            -0.9798231808738395,
            0.6213612978400824,
            -0.06545777191273534,
            -0.9599829545334788,
            -1.0853661022815102,
            -0.05456466861048467,
            -1.2644374177112785,
            -0.9675040770823455,
            0.2327790178270531,
            0.3864388656943117,
            -0.9909079288565787,
            -0.52416394305361,
            -0.3416850215739208,
            0.5419060085685696,
            -0.2040988401454423,
            1.0631163017282768,
            1.1346569905803758,
            0.2908600574647924,
            -0.0769358230100626,
            -1.2944997531332583,
            0.11134779463768628,
            -0.9056910765093336,
            0.18298150869001514,
            -0.48491614337392874,
            -0.7657905561492184,
            -0.16968617501666017,
            -0.8444823775828143,
            0.9029995058397849,
            -0.44121759633067925,
            -0.658285618190705,
            -1.2778985772117122,
            -0.06794493820636835,
            -0.9869484244841724,
            0.5114690910412975,
            0.17130475589908586,
            -1.3132983376486969,
            -0.7826950172102132,
            -0.27254793546446254,
            -0.5030433229690825,
            -0.8892489941782014,
            0.5493613650145218,
            -0.65576543260126,
            -0.11198113245699737,
            -0.17640325222675443,
            -1.0036118200393458,
            0.8712883508694904,
            -1.099767834372897,
            0.4341553764191661,
            -1.0328147990373397,
            -0.6225765222870951,
            1.225624251094518,
            0.5627693932246769,
            -0.8985306916545814,
            -0.49333232709210056,
            -1.0556934391082973,
            0.2833047532082286,
            -1.338662803496202,
            -1.3647479039163275,
            -0.48817565767708093,
            -1.233326693932122,
            -1.1406044040456316,
            0.8144680851527483,
            0.20875270621343958,
            -1.4388820677186778,
            -0.6631883303357547,
            0.3501387834361099,
            -0.8647344441512526,
            -1.2171725953623496,
            0.7729786173715412,
            -1.234056036222225,
            -0.9503798567731093,
            -0.07457763762561498,
            0.6288391730087631,
            -0.09389225547427245,
            -0.2569730000018029,
            -0.2718695260157385,
            -0.7219280057954456,
            -1.394087706388218,
            -1.3956367120377497,
            -0.028588430769859046,
            0.1643169244025456,
            -0.05411578243140016,
            0.14632722851002225,
            -1.3538362105264132,
            -1.0820459195971277,
            0.22968158075367198,
            -0.8007972469841642,
            1.3970528970372424,
            -0.7171975112034551,
            0.3389162639995545,
            1.2394516087518472,
            1.3196285456949863,
            -0.44400898250897664,
            0.821854078123405,
            -0.5773336751852239,
            0.7230695022976202,
            -0.10388505970368604,
            -0.17894347743838598,
            -1.2989787585749735,
            0.18501119881898995,
            -0.12416842771574388,
            -0.9166442680359981,
            -0.603241684752922,
            1.3450049684747567,
            0.3319014340814529,
            1.3385424967709731,
            -0.47883532283934716,
            0.6880785464204595,
            0.22548532637968338,
            1.3550712361755834,
            0.0839262981191954,
            -0.9870239479822512,
            -1.3834493086626494,
            -1.3496438894606488,
            -1.0897344416747503,
            -1.0594603347192693,
            -0.45076317945967026,
            -0.751972046381446,
            -0.4090885671361146,
            0.37772033688064505,
            -0.17131763183009918,
            -0.23444939223476408,
            -0.2310171061672819,
            -1.0874176933761275,
            0.33995362145677044,
            -0.12464514617619059,
            1.3579820592540515,
            0.20492474462861138,
            -1.055328993900473,
            0.07859992359013042,
            -0.09674732668210467,
            0.6636587033688127,
            -0.23782419868848706,
            -0.6327312471791791,
            0.1813635192061802,
            0.18313655812920462,
            0.8779168666075705,
            -0.5214512050820811,
            -0.8366945772430592,
            0.014183929874032978,
            1.0770602308084194,
            0.7054775296018791,
            -0.78143503802848,
            0.8654913857804504,
            -0.975052942463393,
            0.44874290747438866,
            0.18636145019645095,
            0.7850607485390034,
            -0.6788321762895382,
            -0.37435438799724247,
            -0.23229534271898164,
            -1.0557763150712018,
            -0.5620250613279237,
            0.9258097441668615,
            -1.374715569233748,
            0.493225533593593,
            0.5632232959182905,
            1.3892521154079847,
            0.14186971905531762,
            0.5219500408701755,
            -0.73341258679098,
            -0.58858587630279,
            -1.34858940916623,
            0.3216119335686824,
            0.13057250867686707,
            0.0475133237695241,
            0.42002770231946535,
            -1.0841128921703755,
            0.5304894600681364,
            -0.5809030097117965,
            0.7878474883418805,
            0.7485147041447789,
            0.7348747227274463,
            0.17296470659787508,
            -0.8498204213811698,
            0.759928705424584,
            -0.8821854838062574,
            -0.0004797867490585996,
            -0.7699351578894765,
            -1.2038919679282825,
            -0.9993069250465614,
            -1.3475608039399891,
            0.849241495460258,
            0.9589879564541471,
            1.3029182754763136,
            -1.1406452933867155,
            1.4069721944586866,
            -0.0968963802179061,
            0.5284421409358457,
            -0.10659395561707823,
            -1.1590426723766052,
            -0.5135562643940385,
            0.8843959736793181,
            0.421842145142139,
            0.47072930150202236,
            -1.0473659091340728,
            -1.2744850602903568,
            -1.2249769366365495,
            -0.9088336050267376,
            0.15841429955958977,
            0.6796215315742481,
            -1.1647562575561836,
            -0.7136730497064085,
            -0.21255723204870827,
            -1.1048615954421224,
            -0.0776536044972175,
            -1.3512962640674402,
            1.221470968382943,
            0.5641208429102214,
            1.4061946401622596,
            1.3259627559627511,
            1.303171041768419,
            1.3003812189967345,
            -1.1278431723303795,
            -1.2432371956688457,
            1.3431892028972483,
            0.23254100353459567
        ],
        [
            -0.795665997785998,
            -0.9850374458223794,
            1.3421652822488306,
            0.9696871702726144,
            -0.8519865549204239,
            -1.3083623938148574,
            -0.46404235976779895,
            0.15660258736333874,
            0.9450660436300053,
            0.9177146306982298,
            1.028895815847789,
            -0.7603325411558132,
            -1.3438929403581272,
            -0.07693006904389303,
            1.3183793589077921,
            0.22785529454713963,
            -1.102570486138809,
            -0.8711613853011525,
            -0.40381717181900834,
            1.0457853318700487,
            -0.47776585565672797,
            -0.7380449810108045,
            -0.7455885735275508,
            0.7010229080574963,
            1.1459843426484786,
            0.1361877011242562,
            -0.35175054044051246,
            0.46805009599368347,
            1.3314121234365137,
            0.32508172094752524,
            -1.3601071975464374,
            -0.30948570085298044,
            0.44307187689822236,
            -0.788594962656862,
            -0.8773695696334004,
            0.11843781223163527,
            -0.6641842936058899,
            -0.4657089106882013,
            -0.6737506539688634,
            0.24818262313220882,
            -1.0434146484294664,
            0.49885170081843916,
            -0.27971331650964354,
            -0.9135880758667911,
            -1.4109964756368583,
            -0.09234725311563187,
            -0.03444764516679531,
            -0.8143462733814174,
            -0.34711484231646167,
            0.6029696158328874,
            -0.3389784673862041,
            0.962645689612868,
            0.6386964587748575,
            -1.3636606082459866,
            -0.9667818717618991,
            -0.3110116313015315,
            1.021914757480663,
            0.3922420043164709,
            -1.2638455009235041,
            0.6760346632977755,
            1.4093277511671265,
            -1.2037792850580367,
            -0.3690417930155053,
            -0.294927309212916,
            1.036824711105263,
            0.15926998848631954,
            1.044393069869786,
            0.10336480843217559,
            0.4033422608537813,
            1.129384064971853,
            -0.9275706015723673,
            -1.2614244559891137,
            0.04773142799084539,
            0.5181729741410837,
            0.474894956509265,
            -0.6180581953260197,
            -1.0281375157752772,
            0.2806132991171872,
            -1.3856179031699254,
            0.3508049979143618,
            0.48783928662602466,
            1.1290986050780665,
            -1.0258693686034102,
            -0.07681793078727016,
            -0.35958999126164565,
            0.20442096421515218,
            0.5283991668025312,
            0.43902476186246286,
            -0.06039245381771482,
            0.9366029660596784,
            0.5900024338947422,
            -0.8434264308085233,
            1.3612406274536337,
            -1.2162394960985594,
            1.0462452427940199,
            1.3337378532838382,
            0.34037088825799977,
            -1.099544015445544,
            -0.04322714109339227,
            -1.3755726265091992,
            -1.2814040323351457,
            1.3435208529386349,
            -0.7997987687768201,
            -0.47635850386193673,
            -0.50097938328966,
            1.1673816629195732,
            0.7277910149156874,
            -1.1555118076946433,
            -0.9020896918636575,
            0.5086594600790315,
            0.9158179050470725,
            0.49258418711240015,
            0.7698619474139163,
            -1.3899944982569925,
            0.05861062511168997,
            -0.006719952409762273,
            0.9724830046875282,
            -0.6311475011353851,
            0.44716948186723,
            0.6142096601656917,
            0.6358189113428913,
            0.8319819483479959,
            0.7443807322359688,
            1.246323305324469,
            -1.2875333807148768,
            0.6543706852367165,
            0.35973911192374547,
            -0.24537717902566958,
            1.2367958584860275,
            0.9219842364569213,
            0.23108213664410704,
            1.195277242586935,
            0.2223653838708,
            0.27412790973852563,
            -0.3152695425345582,
            -0.5588423720360349,
            0.721329700766494,
            0.2152970610575635,
            0.795295340891212,
            1.2850708742934047,
            0.1390698400970054,
            0.41413280084495574,
            -1.2521309608299218,
            0.8997703776317517,
            -0.258342625395147,
            -0.7567266772629239,
            0.7076160014837592,
            -0.8433674139836035,
            -0.38225688430612664,
            -1.2532220339446796,
            0.1834613650420988,
            0.20193657047295163,
            -1.145723267605192,
            -1.3087323367379733,
            -0.8777281310697886,
            0.625890832791889,
            -1.2021866473994383,
            0.19685689432976286,
            -1.2412343428153316,
            0.9988699596908898,
            0.3689902851362967,
            -1.194069264708272,
            0.22275095973290804,
            -0.08148038873564126,
            -1.3393599164374432,
            0.39018826665274947,
            0.9520308648464437,
            1.084116301390771,
            -0.0760262251222005,
            0.772767759739586,
            0.689376660704788,
            -0.2974993796270769,
            1.3066490789388001,
            -0.07578120559534587,
            0.7225376637976642,
            1.029115584633823,
            0.3055991760964176,
            1.0439769272020152,
            0.2313874842996687,
            0.7553774293751522,
            1.4067208803423359,
            -0.6222594335431091,
            -1.1005465593645187,
            1.2026404408604556,
            0.06502650341870707,
            1.131152978967477,
            0.7205485834328256,
            0.5201569982096306,
            -1.2872752846914344,
            -0.9090568171960024,
            -0.39320503082620645,
            0.9452885010005047,
            -0.6884563122882366,
            1.2831604239478323,
            0.019328905725373647,
            1.3223872240779395,
            1.1128144345754423,
            -0.37766179005376765,
            -0.9024848584981442,
            0.25742898394902647,
            -0.8989941884694814,
            0.32248077035656963,
            0.14186260395476688,
            1.027401641221666,
            -0.4369279430962695,
            1.030114576186899,
            0.13768715323856912,
            -0.7815537835096322,
            1.1303230380065865,
            -1.3606657296362652,
            -1.209925382772652,
            1.150433541299458,
            0.17117565969223342,
            0.9369927559451776,
            0.6045230924269124,
            1.168963437750359,
            -0.8867165456696691,
            0.5049938837419784,
            -0.3180168685168825,
            -1.1746392981547653,
            -1.332369297344085,
            -0.3103658476341079,
            -0.9842277580402975,
            1.0386155683668115,
            0.6967651499706775,
            0.7725430230767866,
            -0.4270386035609224,
            0.22691990721642202,
            -1.2770311411691377,
            0.13259744657152422,
            -0.5089336718423259,
            -1.2318676246850673,
            0.3041919517655119,
            -0.2743656990770413,
            0.7758983076159766,
            0.826093136144384,
            1.1314831149177103,
            -1.0067253742010454,
            -0.7090530102829828,
            -1.2106949678117802,
            1.0895669306983087,
            -0.7606465305994885,
            1.2917334296854552,
            -0.8951108454303787,
            0.5353093117788112,
            -1.3147368355078242,
            0.46582874934687213,
            -0.9870227445825849,
            0.238394105177345,
            1.0923426894144779,
            1.1934018217247213,
            -0.7534047275296423,
            0.15634848028736958,
            0.21697440623956188,
            0.5957762122159077,
            -0.15145163010152485,
            0.5198587020282418,
            -1.3446910238610683,
            0.30156262996405014,
            -1.3636933674209728,
            1.1419243402719963,
            -0.5574905426472484,
            -1.1579582604329743,
            1.1799784834991156,
            0.2863318075010804,
            -0.09696455138039649,
            1.1873861621162112,
            1.2322632487171796,
            -0.44001351030497166,
            0.6591692449500042,
            1.1517999960223517,
            -1.1775304502637356,
            -0.7203186448300712,
            -0.1795014844406094,
            -0.45640428296082264,
            -1.171411688456056,
            -0.23373271960751896,
            -0.13177008655769012,
            -0.1004504462596927,
            -1.2942002089354196,
            0.31344072669084533,
            0.8765297996066356,
            0.663951788372569,
            -0.19953230245775241,
            0.49490882904495914,
            -0.321612802743865,
            -0.16240257820055806,
            0.17387589951989355,
            -1.1447776483019168,
            -0.39112857044092614,
            1.126525239619021,
            -1.1735514530596556,
            -0.3002416601349511,
            -0.027026442505919505,
            -0.9393105919038482,
            0.053753195210663685,
            -1.202535309344749,
            -0.7464474147988861,
            1.4092669643278415,
            -0.5855326313377194,
            -1.0238846333912828,
            -0.49835863512374534,
            -0.9125671694012825,
            -1.0273424394028143,
            -1.1732457037741735,
            -0.011076997545205877,
            -0.030755105491760536,
            -0.2835507555392653,
            0.3594078872975552,
            -0.07099290337082069,
            -1.0047716844835608,
            0.5917211114603725,
            0.2402675297234283,
            1.3724069909048309,
            0.022768726033872838,
            -1.118029190293144,
            0.19340949561604998,
            -0.8512273882830904,
            -0.48596850134197656,
            1.0805928819059207,
            -0.9572442305838774,
            1.0386268861073393,
            1.2947306243868284,
            -0.030690003812502788,
            0.6503714273596147,
            0.4400827175074077,
            -0.04261827211094706,
            -0.0038282506851826767,
            0.28788923502999053,
            -0.8259003262721581,
            -0.36951411000019435,
            -1.1720853537435725,
            -1.272174033865787,
            1.0776539370252376,
            1.144789439437106,
            0.37182141695537696,
            -0.8351944981502835,
            -0.3262125748332297,
            1.3547432121107197,
            1.2358362143965285,
            0.6959783138605241,
            1.3157746221435778,
            -0.31738880488588506,
            -1.0896864406245481,
            -0.39020618914629634,
            -0.32963918311206675,
            0.239628033789037,
            0.6902297585034138,
            0.08905429286915147,
            1.09828335953858,
            -1.0829062143666985,
            1.269777189810148,
            -0.36525206345959493,
            1.0814332100496233,
            -0.8307410296183175,
            0.8034614894430415,
            -0.13272374248103394,
            -0.5288450828446549,
            -0.13127649959251497,
            -0.6954342409261839,
            -0.5162327391755969,
            0.12984503394650923,
            0.9187509582784632,
            1.1823005534726918,
            -0.05174162668112197,
            0.14751258551410038,
            -0.3952286665967872,
            -0.4213969450366138,
            1.015511904742068,
            0.9224786428885484,
            -0.5213633084122979,
            0.6296224028733767,
            0.48452625641108127,
            0.5242624624858776,
            0.3576072041073831,
            0.9015281566088792,
            -1.0302903837259771,
            1.258910158300667,
            1.4196856697329139,
            0.02857348322445233,
            0.18639980297271827,
            -0.7441771343013249,
            0.25751493698355565,
            1.0635416072674502,
            0.6794340175559618,
            -0.8698411056314128,
            1.114993952389185,
            0.07113158594792074,
            0.7943934026338604,
            0.7047275408260779,
            1.275800604356967,
            1.2197987865568491,
            -0.8293487129672019,
            0.7892175029757943,
            -0.9969841379020002,
            -0.17019471841387196,
            -0.3507314591180678,
            -0.38870091423267467,
            -0.05561798219299754,
            0.851393759252357,
            0.6068082633994758,
            -0.9516188320835349,
            0.4756594891128507,
            -0.9721410807370203,
            -0.9735574227102742,
            -0.30848122135583284,
            -0.33111365127832876,
            -1.0223588754120005,
            -0.6066661065335583,
            0.5624443384255252,
            0.15576703554503463,
            -0.7900100134226968,
            0.3265328126298945,
            1.1993996351930645,
            -0.17156227570204535,
            1.0049339543581846,
            -1.1249644805951526,
            -0.9191802698262748,
            0.025662464302743278,
            -0.8216679285523648,
            1.0541002329303464,
            -0.6516592021058829,
            -0.6739244835212885,
            0.9822361293812178,
            0.6288758281073754,
            -0.6423963831225411,
            -1.0687065550376027,
            0.7329965288487369,
            -1.3025435082929089,
            -1.14061075549084,
            -1.1314292432130273,
            -0.34511295414937254,
            0.20684309833219244,
            -0.15447773429238304,
            1.3040102338487392,
            -0.003774635591166107,
            -0.9574871922360196,
            -0.982356676515558,
            1.3434382209446694,
            -0.7742156491033202,
            -0.42395486182797115,
            -0.5286142936939496,
            1.0570671104192966,
            -0.28140473116464926,
            0.4214235490011231,
            0.47998035226827185,
            1.2726790815091156,
            0.4379164506327638,
            -1.3243024901550047,
            1.1126191865837074,
            0.9532822540005413,
            0.5158387867251018,
            0.7748241634107323,
            -0.18283659367881971,
            -0.5555188605781778,
            1.296115746873711,
            -0.4715819664188606,
            0.30231164808097205,
            -1.4245216673629937,
            -1.0360326333720504,
            0.652532043303104,
            -0.0027510154630038756,
            -0.7512888678937393,
            0.22159928946435545,
            -0.922903870075911,
            1.321190342330279,
            -1.0173635713310065,
            -0.16829124410681004,
            -1.227685323327817,
            0.8914751082594219,
            -0.331512200500933,
            -0.5877063508584129,
            1.3454022890443689,
            0.7636287736568822,
            0.9856058964100322,
            0.90293834671042,
            -1.0326723051704694,
            0.6539529339961919,
            -0.2348502177446998,
            0.45950552064616385,
            -0.4794068301602916,
            -1.0979150248213383,
            -0.7181895579749938,
            0.010314538586055275,
            -0.3837655100163917,
            -0.5703347400565797,
            -1.266990260547899,
            1.3995148008978542,
            -0.7846237288200384,
            -0.46648969471704366,
            1.3724915073296873,
            0.7225274604701304,
            0.6298686156636502,
            1.1715243866924052,
            0.8121291898119891,
            0.5376713250598557,
            0.651890593353565,
            0.6194288390163957,
            -0.35374171883683,
            -0.8396137683813107,
            0.20264771117161454,
            0.704926329797835,
            0.5699741080313608,
            1.2566112265931975,
            -1.29816758030058,
            0.16273038573593862,
            -0.7181479862661035,
            0.6949094713406232,
            1.3217891513324005,
            0.049248442730532284,
            1.30968136109665,
            0.42268563526825814,
            0.4394890370329421,
            -0.6579095014048894,
            -0.0762073471976452,
            0.11937478513267888,
            1.3052094847715079,
            -0.34907068924423246,
            -0.4741448414575842,
            0.5412913568266841,
            0.7145463222535238,
            0.3196653702745503,
            -0.7877893692590123,
            1.166003324185156,
            -1.002358203580819,
            1.019920003851079,
            -0.9621528758189305,
            -0.17167291784926658,
            0.9697126199607911,
            -1.388751125719775,
            0.640457833599911,
            0.3194915750567238,
            -0.7852642362758538,
            0.7712633041268806,
            1.0274151897154358,
            0.9186757224785577,
            -0.31252070043413765,
            -1.4041111732503662,
            0.0671386308553346,
            -1.0641336052796657,
            -1.3499398210237639,
            -1.3107436760740676,
            0.8588424038785903,
            0.8544515788179754,
            0.7971334388264681,
            1.1915528418379957,
            0.10683223375767129,
            0.9934192101654057,
            0.6212108623559817,
            0.5497601351306208,
            0.36616353392905104,
            -0.7751616088193977,
            0.5694083463025669,
            -0.583569168631641,
            0.664610809026291,
            0.535246223245709,
            1.3995983061606225,
            1.1596566020555525,
            1.2384214459147196,
            -0.22825846739505493,
            0.6239108365343664,
            -0.26778075817726643,
            0.6156583406837017,
            -1.4120534303791408,
            -1.224040177624824,
            0.8973024535980683,
            -0.9264313615270414,
            -0.8523513584343134,
            -1.1237035569475888,
            -0.2299945214342482,
            0.9648967459759131,
            0.0964756642310741,
            1.181481123205647,
            0.8598099575234888,
            -0.8643405150431074,
            0.8284566298638499,
            -0.4154757446816997,
            -0.39131069728461687,
            -1.3228826038604464,
            -0.21668608749392898,
            -1.26035329510977,
            -0.8331600618030318,
            1.2756841882180594,
            -0.6914685302552283,
            -1.2963427061190052,
            0.29948532878557604,
            1.1495490353175168,
            -0.8422719705545364,
            1.3168635930583177,
            0.8696793928911383,
            -0.6474709097589959,
            1.0983701031474677,
            -0.10802472659325088,
            -0.7218501255424891,
            -0.3762937940275311,
            -0.442568070477009,
            -0.631110867933129,
            -0.6516343687185643,
            1.3934017223520274,
            -0.6739253806608626,
            -1.0899365716537759,
            -0.6717153160264789,
            0.8134460254354072,
            0.43696290940181887,
            0.35840579486765534,
            0.10336356315180167,
            -0.792498929277826,
            0.5776353882832386,
            -0.27688202767788445,
            0.8426611364426597,
            0.6002477483196165,
            -0.015806424526684484,
            -1.2960095597548247,
            -0.21324260831642447,
            -0.710423663070626,
            0.6605739627003715,
            -0.08043585717198952,
            -0.7864306385816768,
            -0.7518520005873074,
            -0.6806803287872301,
            -1.2316826461238128,
            0.6451700751755779,
            -0.40083081287999056,
            -1.2973467513844013,
            -0.3029263873836204,
            -0.5515507167054332,
            0.4558889717128491,
            0.5007864272059415,
            -0.6866965997547236,
            -0.9441343208712719,
            0.3479819373515028,
            1.0852817724448385,
            -0.8543098405469317,
            0.19967251581882545,
            0.8758625747149619,
            -0.9544992805200886,
            -1.321489438326461,
            -0.7445942938833642,
            1.1645460039524957,
            -0.5214996614399625,
            1.0244738940181741,
            0.5963433440667666,
            0.03644228837949953,
            -0.5671027186447033,
            -0.09067000238606515,
            -0.12705033707081448,
            1.0711446179739903,
            -1.205189427136281,
            0.339070955993435,
            -0.6172883475632172,
            0.11301733600944484,
            -0.18032951679901402,
            -0.6805615558283945,
            -1.0630631931240995,
            0.8722026093658153,
            0.2962768202344551,
            -0.7797266104971723,
            0.45645400167266154,
            0.24671360909295056,
            0.19161642948761864,
            0.5340700418705973,
            0.9613752983020266,
            -0.6295910040938124,
            1.1474837893755008,
            -0.11574230948726248,
            0.22765378723060098,
            -0.16626022908080307,
            0.1607676396019488,
            -0.4649179131766562,
            0.5181552661699964,
            0.42486078430848095,
            -0.7300641896833172,
            -0.5960448819785119,
            0.7145382181010783,
            -0.12364011891343586,
            -0.9379203697986964,
            -0.3903624127232919,
            0.14788241022310658,
            0.1968040651488524,
            1.2419200371805545,
            -1.1985261042964739,
            0.3852174251953744,
            -0.39450104988809986,
            1.1228545399756449,
            -0.5562099045522227,
            -1.0811185183106362,
            0.4761030892199851,
            -0.052998998978963395,
            0.561025967848495,
            -0.5398233568387406,
            -0.9163614377789012,
            0.45624058739516704,
            0.4419800771196788,
            -1.3111541372146005,
            0.39328306103779825,
            -0.30493849072166224,
            0.22650166468831778,
            -0.040346381376792355,
            0.9919824805629834,
            -0.35070298949034967,
            1.382594923742584,
            -1.0357813649445609,
            -0.47259739338944734,
            0.6577661452124195,
            0.9703426301663786,
            -0.7372366264085441,
            0.5379544846149219,
            1.0064107900570889,
            -0.5765001877033996,
            0.505300981646619,
            -0.33112999370318486,
            0.13613363000544723,
            0.15936952161310294,
            -0.050801901451313386,
            -1.0753153533929374,
            1.3155596084550083,
            0.8351161024393667,
            -1.058809298545198,
            -0.3419607441109209,
            -1.1482972329414405,
            0.33315960560524543,
            0.37691508036963556,
            -1.0884924277950296,
            -0.783291753470086,
            0.3609907762064065,
            -1.0873753792810767,
            -0.0847189596290619,
            0.5004867119464042,
            -0.032725844276155165,
            1.3062651967665795,
            -0.7619426391553706,
            0.3954371565073514,
            0.9335677965740926,
            -1.197685352258633,
            1.394273687846585,
            -0.855840405944459,
            1.1276388033782523,
            1.3564632703509767,
            1.3059260854010941,
            0.39408612605627574,
            0.7138115427981906,
            0.8209482259897761,
            -0.33342278092083244,
            0.0833731363787355,
            -0.8489117961727835,
            -0.500650499685553,
            -0.6981875418956036,
            -0.6957760268229088,
            -0.09467760505034903,
            1.195786009855464,
            -1.1048452319793498,
            -0.6882239171216183,
            0.9243813177965974,
            -0.17475971543477378,
            -0.9579018589854245,
            -0.647634737778925,
            0.49434446661905107,
            0.9634959419365939,
            0.7839008429077601,
            -1.0085077193111631,
            0.9773085273108151,
            0.7306154621834939,
            1.3691488519766237,
            0.7497229761025532,
            -0.14454761750195436,
            -0.3417233895989782,
            0.5247676653650845,
            -1.1890559806409777,
            -1.272477511256042,
            1.230847595634684,
            1.2887308708131997,
            0.21227059482648833,
            -0.6381747544084085,
            1.3735118164076028,
            -1.3574634640957253,
            -1.181924794524244,
            0.05333545154871429,
            1.094189865661895,
            -0.9698851429945122,
            1.0851368776940598,
            0.28853463384022904,
            -0.4396217207156069,
            1.407683133463359,
            -0.28189721597722944
        ],
        [
            0.8494934443858395,
            1.1684834723978348,
            1.378652112185066,
            0.19930730850927061,
            0.9485652746026989,
            -1.3400510834620665,
            -1.0845988226756151,
            -1.2873392326829096,
            -0.26993102896194965,
            0.7348906645285573,
            -1.4047688925946333,
            1.383311597364603,
            -0.7677700452110193,
            -0.46924433441176394,
            -0.04665658716416444,
            -0.07326110101892251,
            0.11457251867862707,
            -1.305105637512746,
            -0.23493931748083194,
            -0.048514908139265636,
            0.3208884067957158,
            1.383235440970043,
            -1.226699965890101,
            1.184853744247264,
            0.4985840273402939,
            -1.3604245233694838,
            -1.0334640817505152,
            -1.001445769255966,
            -0.6401050523631865,
            -0.16620733078611374,
            1.0577347147250584,
            -0.20824175282960622,
            -0.006861797889403944,
            1.0834275085688867,
            -1.0150991369784301,
            0.09655215739409871,
            -0.2988211590090287,
            -0.8308980007498911,
            -1.308395301029396,
            0.8503619429416364,
            -0.20323943071538364,
            1.2166147110606091,
            -0.05997476418273734,
            -0.5635365566938406,
            0.9485528750604706,
            -0.7811310158333841,
            1.0057839885736126,
            0.5305467578359746,
            1.2303253799191773,
            0.7825036540686966,
            0.6444962258603927,
            0.886109200013771,
            0.9599401673298581,
            -1.1998744778177446,
            0.21837895243202235,
            -1.0233385117242018,
            -0.24537778162181148,
            -1.2939365657234883,
            -0.09039970286743158,
            -1.1092522646402991,
            -0.12300268450394457,
            -0.6975881915598049,
            0.08330460516352783,
            -0.5263559890584554,
            0.07131922570188567,
            0.7692237766481125,
            -0.358767050268615,
            0.30720886629733407,
            0.47191258731796604,
            1.0949828143060398,
            -1.1218309121910754,
            1.1695510097509527,
            0.7615066743350403,
            0.9156433176756855,
            0.5467618210983106,
            0.2252295644667611,
            0.5323147465476031,
            -0.07210601115983639,
            1.3418431010525302,
            0.7545285247760998,
            -0.30424340272931694,
            0.2977555146254625,
            0.04369013535313628,
            -0.084972859297778,
            0.47788489415098995,
            -0.6072415667782555,
            -0.6581553832252046,
            -0.4023434469713778,
            -1.2828874239025552,
            -1.1300272800565232,
            -0.3834320574980237,
            0.7037324482294417,
            -0.10797203752730984,
            1.2704723216756053,
            0.3227152083490689,
            0.28001491043862553,
            0.4795205682532246,
            -1.1860715089133829,
            1.3707704826748308,
            0.8721109931592019,
            -0.39905066223962105,
            -0.08377759000389015,
            1.0111628763866813,
            -1.3377863274805954,
            -0.27810905794032537,
            -0.5629396508306058,
            0.0933938338373368,
            -0.9910128509659422,
            -1.2420354650826493,
            0.6557062177615114,
            -0.9402917265291261,
            1.2798455180820947,
            -0.9147470279777513,
            -1.0460052771594894,
            -0.1933114383568999,
            0.46210211893814285,
            -0.8848341487209277,
            -1.0430490499550955,
            0.18936547891908417,
            -0.22181643130643486,
            0.8956419492166067,
            0.6128944069303571,
            -0.30104994812199376,
            -0.7554221773073805,
            0.9868944501631164,
            0.6670518729723253,
            0.7325716686330267,
            0.6854831946363339,
            -0.2845535473598113,
            0.6264710430118866,
            0.12013222787724805,
            -1.2311423427688497,
            -0.8405981962272256,
            0.6746697809384687,
            -1.1690836372066802,
            -0.04788064214242762,
            1.2705501260826002,
            1.065117309089133,
            0.8229398506715593,
            -1.3513663500288366,
            0.43268811849253663,
            0.3633279351822034,
            0.34454127697523285,
            -0.7247663607512033,
            0.11620628559287688,
            0.40329495761722545,
            1.1983796078950206,
            0.860112356605617,
            0.5701594884602043,
            0.28452721934363273,
            -0.835227109237949,
            -1.1463426285631397,
            -0.6990905997655751,
            -0.04623108336951311,
            0.452829496077177,
            0.13531996945231073,
            1.296185210271229,
            -0.22134343283092336,
            -0.3455936371537527,
            0.3529772623947646,
            0.6675204094506496,
            -1.3730140437083256,
            0.3267269920000249,
            -0.35409535135838316,
            -1.296873595034442,
            0.4849443594030172,
            0.19034400702777787,
            0.7503340098924837,
            -0.18860773909342077,
            1.1146527259990848,
            -0.07251952860962332,
            -0.6523757912802901,
            0.6669332128040665,
            1.1231231605879854,
            0.8752594523182196,
            -0.42509925908507046,
            1.2378456271775091,
            0.5838033250041613,
            -0.7747538695112245,
            -0.5852468167152949,
            1.2959007396132918,
            1.1384560655848535,
            -0.09861771991161769,
            -0.4177728353532754,
            -1.2512781602064362,
            -0.2607688676396929,
            0.15623166729444793,
            -0.343607032015821,
            -0.835279901132208,
            -0.1866511637428195,
            -1.1926683907775075,
            -0.31197917376068657,
            0.5647096626511355,
            0.28955329667616503,
            -0.1746720428907747,
            -1.1950341569353238,
            -1.2230222543160838,
            -0.45515662706573523,
            0.10986691501596206,
            0.6320330332165374,
            0.4086061432540251,
            0.02110131741575396,
            0.42367078486011656,
            -1.220713225416328,
            0.2552300307175829,
            0.2229424850678738,
            0.5237913869495354,
            0.5638336441238303,
            -0.005681271957638397,
            -0.8534188005772151,
            1.4025220469350865,
            0.5732569544719412,
            0.8953836664194981,
            0.3069393468074946,
            -0.12402213915790722,
            -0.4022868857422595,
            0.4566875497973616,
            0.47674185830878973,
            -0.7787590577324439,
            -1.088528974375167,
            1.204539092650744,
            -0.6421510391232641,
            -0.25001914945323633,
            0.26505056496826984,
            1.0266551301338547,
            -1.1258350092114104,
            -0.73275472831411,
            0.6507117719677197,
            -0.031827406246516796,
            0.8345857480846565,
            -1.1536991798723584,
            0.9559476575117234,
            -1.3513629086134293,
            0.7959286163821325,
            -0.924224491081679,
            -0.671107777888696,
            -0.6298084280828441,
            -1.3716737651899116,
            -1.4040050972446136,
            -1.2919201979630281,
            -0.4451166782467723,
            0.3894746307957845,
            -0.8293781376832435,
            0.6121406222799178,
            -0.88480249204194,
            1.1009288444953238,
            1.3832773964575036,
            -0.23385910219270073,
            -1.2772076213769754,
            -0.4493486022461676,
            -0.24108496489560688,
            0.491895700774386,
            0.9630307724111018,
            0.32303160440151363,
            0.402827882934676,
            1.2853652884955424,
            -0.5247751356160592,
            0.7713122720046328,
            0.8240245276447045,
            -0.23946417669891773,
            -0.38506166844134837,
            -0.32212530992134253,
            1.337627368047246,
            -0.5828147867135012,
            -0.6959643661288746,
            1.2551488883088036,
            -0.5020727831658127,
            0.11794997805749668,
            -0.08301847638024101,
            0.05321613907025955,
            0.47922003264264995,
            1.165398785664119,
            -0.4657068496326085,
            -0.6196080298568267,
            -0.8381924377573462,
            0.11714338085114745,
            1.069349906329181,
            0.8010423618160211,
            1.0692257904577367,
            -0.020965631825509683,
            -0.7753651047884208,
            -1.0689093390329758,
            1.4078155919532618,
            -0.0319102387885002,
            -0.9701492667078727,
            0.8766441711063383,
            -1.0443747262011671,
            1.1485226115570126,
            -1.1800634864732142,
            0.14201233988501294,
            0.020148518856977018,
            0.6801836645748813,
            -1.0342248746128724,
            0.8161653350590418,
            -1.1794905411076206,
            0.7716136445425068,
            0.13142993884106668,
            -0.7069121624313947,
            0.27706933513520127,
            0.652273406012502,
            -0.09954193325221634,
            -0.6510387970261176,
            -0.08144728602229316,
            -0.5568591150928838,
            1.0635128059213679,
            0.28326608881721826,
            0.5504828152131022,
            -0.5822366270147024,
            0.8282197838915829,
            0.6279298007658011,
            -0.23437736008400606,
            1.1124033509175615,
            -0.8038514175227048,
            0.9261274252520539,
            1.3934020582956548,
            0.3161407392801259,
            -0.07221559529827155,
            -0.2535562736807297,
            0.48250849072687724,
            0.28775127861997585,
            1.3728552050749303,
            0.07561200053554369,
            -0.4885091746428525,
            0.5228115841768757,
            1.109821516684483,
            -0.001148907640835483,
            -0.48993745214954876,
            -0.5755517548939659,
            -0.8676517244202722,
            1.1405427823688965,
            0.5136315908180651,
            0.706337111432465,
            -0.749959030849098,
            -1.277761808180515,
            0.9234399137782912,
            0.8481684104759881,
            -0.6142220730189838,
            -0.6735022648457532,
            0.3936058487954558,
            -0.7055764125640944,
            -0.9201481630515441,
            -0.8043394788317726,
            0.24133148212394753,
            1.2488413011169168,
            0.42012182125847514,
            -1.3776003373955528,
            0.4153974479106029,
            0.7430433983758514,
            -0.13800049768719616,
            -1.3901038840155882,
            -0.9065128509791802,
            0.8258396726525904,
            -1.1115711793628962,
            -1.2146757042716256,
            1.1590393970758643,
            0.928023747148032,
            0.44833301049836743,
            -0.8215030854937034,
            0.03844959514437264,
            0.5577571599481763,
            1.404570392517557,
            -0.6321985256934702,
            0.4035593717964158,
            -0.5779511167810584,
            1.4068999394409472,
            0.7576644274069675,
            1.3246696844934902,
            -1.013197926796419,
            -1.0883991062245815,
            0.6459093393073954,
            0.6723330844931474,
            0.30747817786314297,
            -0.23118016866527819,
            0.8370300917835569,
            -0.6723302027378595,
            -0.5661736298266565,
            0.6655461942203731,
            -1.074261684471799,
            -0.32742854075953004,
            0.7597094504008142,
            0.8899785391803816,
            0.9213324412389615,
            -0.7923127331645093,
            -0.5791395685478695,
            -1.056409800942377,
            -0.6034259327081436,
            0.47469479835970335,
            0.5082954823375272,
            0.8181698039138128,
            -1.2234879837769383,
            -0.696276771921286,
            0.017429697371550222,
            -0.6017705500344928,
            1.2794741302848494,
            1.3332102503569792,
            -0.8808556463955312,
            1.1866240229438865,
            -0.15677318948854774,
            -1.2382857746025864,
            0.9236398664372333,
            -0.12511645552808007,
            -1.0141541817753077,
            -0.9695762393475033,
            0.9270247870547708,
            -1.2609574999273288,
            1.1792661847565946,
            0.9678656446662243,
            -0.18006270781691874,
            0.6852719376578222,
            -0.8855047621112858,
            -0.01107232490384152,
            -0.14160111985953502,
            -0.3624542008831985,
            0.3715589435349652,
            -1.2036127644408754,
            -0.9902992401340052,
            0.8978395652854289,
            -0.6325804742485852,
            -0.876049307046888,
            -1.322864863319112,
            0.9752418997250721,
            0.3254642271278084,
            -0.009351814927109462,
            -0.7464609739607985,
            0.7201968156105625,
            -0.235469678099264,
            -1.3248807444428534,
            -1.2992881452759293,
            -0.152110902710286,
            -0.9344101061442205,
            -0.7251707790580306,
            0.9260892742547557,
            0.6871336665446245,
            -1.3913546106536776,
            0.4251792150862114,
            0.45366704884020403,
            0.0843697304471389,
            -0.10039025966897067,
            0.2429894693524388,
            -0.8014024198864365,
            0.6664093913784791,
            -0.31937436196950236,
            -1.2525613709809797,
            0.3751679039765146,
            -0.9090620522499627,
            -1.2085096781702152,
            -0.20481351882018564,
            0.3721203014493906,
            0.8977554802826381,
            0.47792099497860385,
            -1.1888699952292372,
            0.1049701325173544,
            -0.7988264197654635,
            -0.9130737213339555,
            -1.2054777075459147,
            -0.2875574565685842,
            -1.2319470629938603,
            -1.4051112243053092,
            0.3917294473981698,
            0.33022816862548154,
            0.5724202105062911,
            1.1765360484041898,
            -1.0388666028817835,
            1.2297773153128846,
            -0.5548093145612796,
            -1.1752938862090954,
            -0.566410274491648,
            0.06238589951481087,
            0.01388775451668941,
            0.340181472186504,
            1.2697405138335276,
            -1.1879369009724607,
            -0.7274158626158495,
            1.3210959882660027,
            0.5555547102721814,
            1.1337228151534202,
            -0.9035642741175652,
            0.11033477147529304,
            0.3140573488272678,
            0.18399676704709855,
            0.3891359642651078,
            0.805695428418273,
            -1.3020897830046911,
            -1.2019655933347715,
            1.2308925967712907,
            0.31762331846387,
            -0.053517533482698935,
            -0.5496302204647244,
            1.3681365119752482,
            1.2876699030919398,
            1.124472320914967,
            -1.0761043274518471,
            -0.7516326500482414,
            -0.6736282958929013,
            -1.3756360058679238,
            -1.1960506679971705,
            0.12547096694989365,
            0.06884740217854463,
            -0.2980535508337522,
            -1.19890172241859,
            -0.1514572822918392,
            -0.2766631288433717,
            1.291673722699443,
            0.1395757604344085,
            -0.45868539284141485,
            -1.2255509160814642,
            -0.4606992742158584,
            0.9508517161956843,
            -0.19654336040858972,
            0.0288200682719405,
            1.3050996382277882,
            -0.6670336312496276,
            1.3497220646693526,
            0.0669319882027098,
            1.2962805534787898,
            0.7336058302738028,
            -0.27500224710008,
            -0.2576574575724813,
            1.366207463817771,
            -1.1491782539927204,
            1.2170884104099173,
            -0.9042192367964512,
            -0.970922846125545,
            0.1776069809219654,
            -0.5390148798190074,
            -0.8359658926339869,
            1.0710857231823283,
            -1.3411641717613056,
            0.3010513502984365,
            -0.33290584319639116,
            -0.8229815722490108,
            1.3152210552164931,
            1.2810056379911743,
            -0.8335099650954001,
            0.5442651822018555,
            -0.6679719603702324,
            -1.0042253422918423,
            -0.3208116487291588,
            0.1339488482554032,
            0.40392759687101626,
            0.7707916303465584,
            -0.23562406847597933,
            0.4802658187908544,
            -0.39155530886840634,
            -1.3767293283715343,
            -1.0337530621450282,
            1.3417848494339402,
            -0.6788044979930007,
            0.8113497557616329,
            0.8150493024046371,
            -0.16767781447058902,
            0.7487782353171786,
            -1.3831487887282827,
            -1.1889534839621805,
            -0.24290759276010696,
            1.1286832442017452,
            -1.38389720615793,
            0.3095729164488476,
            0.6832529535968529,
            -0.6968947256672233,
            1.302176873864679,
            0.9943835327762125,
            0.894932081204521,
            0.25446318383955047,
            0.9983719748428264,
            0.732238100695091,
            0.6898633797340499,
            -0.9511895868417899,
            -0.8478109809818348,
            0.3670980142366887,
            -1.3879741547683893,
            -0.23144279278932942,
            0.6314455434916469,
            0.8569993138352375,
            0.8263598543324885,
            0.25720417175293925,
            1.1727481544980438,
            0.4440637141570186,
            -0.1818283922544432,
            -0.3134235297514473,
            1.3945899566408653,
            0.08816441353613534,
            1.3811099888636456,
            0.21076105034511636,
            -0.018516398864104375,
            0.7865252793964751,
            -0.8384768302920879,
            -1.3122009620340302,
            -1.3582584223896517,
            0.20777309726278678,
            0.3239821316142491,
            0.41185152256427043,
            0.8462557227468054,
            -0.1947752792243449,
            -0.9255889338639001,
            -0.89798654367885,
            -0.10682284057378613,
            0.6458334316275495,
            -1.3039442734723383,
            1.059463425803321,
            -0.8879074062229009,
            1.361284040251992,
            0.2560671899276039,
            -0.19169922202802253,
            -0.8887158018330118,
            -0.7013360809678537,
            -1.1794404645843841,
            0.8043583422916926,
            0.8575943470065874,
            0.8451179299272452,
            0.8299592400972585,
            0.9030620391204555,
            0.3070044340718967,
            -1.0427920769389936,
            0.06643788678192197,
            0.6256315693528467,
            -0.823382570853607,
            0.9998102451847484,
            -0.025110118929960817,
            0.40180559303061786,
            0.8258302923820418,
            0.34888419384292235,
            -1.3171906180369108,
            1.3469443857369794,
            -1.4121591245099938,
            0.674770728808036,
            1.3897652341325448,
            1.2350270588284913,
            1.0800791432598127,
            -0.8379271591744416,
            -0.4530075090276321,
            1.245843492533278,
            -0.9167306135072538,
            -1.0290478231731544,
            -0.005778153314589672,
            -0.37954517837167007,
            0.4457242426934671,
            0.4294171477685049,
            -0.033077168751402916,
            -0.30795091395906493,
            -1.2224337470614186,
            0.4550550334415266,
            0.35923293052163563,
            1.2683916792140315,
            -0.39012883857791303,
            -0.8800543168190557,
            0.865448478007137,
            -1.4001164649391025,
            0.3936995473464649,
            1.0721094480338509,
            0.6757347137825154,
            -1.1874490482107152,
            -0.6604945839627587,
            1.1294979399362477,
            -0.6261372990584179,
            0.7398339031092718,
            -0.9502600908815074,
            0.09288653035284215,
            -0.14425102198520567,
            -0.17962279125229652,
            0.041832231485214776,
            -0.04488951658981922,
            0.15457675916426522,
            0.9223381921510583,
            0.968435706930041,
            1.0982135404889037,
            0.8785575821336982,
            -1.367562947014542,
            1.3379178304899284,
            -1.2239706336469858,
            -0.36447990799773694,
            -1.16797778111146,
            -0.720304030360583,
            0.20374922506628243,
            -0.6764361718713211,
            0.5774790002333606,
            -0.024573751882153015,
            1.3206230742929503,
            0.3855971269627681,
            0.7469151549102856,
            0.8804849638211498,
            1.034056784627157,
            0.20086722796657916,
            -0.9199668607250275,
            -1.1835763113387059,
            1.0348549867778525,
            -0.12731392530215427,
            0.8961070221758044,
            -1.103930278008536,
            -1.0124710308873985,
            1.2465563156886277,
            0.6509845258628716,
            -0.6358343794920045,
            -0.06658352727743301,
            0.7197570291144234,
            1.1854030746796766,
            0.9406650685205928,
            0.47268119508794015,
            0.20660427857473682,
            -1.3376470184617997,
            0.5118669860050626,
            0.2736442906199106,
            0.2563833872499769,
            -0.2539950028326004,
            -1.1724556228655387,
            1.3004027714123516,
            0.9275281636458884,
